{
  "weights": [
    [
      [
        0.2598059761490883, 0.56890199460719, 0.770327200354792,
        -0.498645111255613, -0.6634540128132589, 0.2846433402751119,
        -1.0543068948344267, -0.7583032625599304, 0.44845194454046095,
        -0.3015338811921058
      ],
      [
        0.21055556546356521, -0.4195320736523773, -0.7911089743060247,
        -1.476279309254418, -0.17230386572063336, -0.7436311091099503,
        -0.5549014056689697, 0.5911308064344404, -0.55094990127468,
        0.04824375998670828
      ],
      [
        -0.6230244165973341, -1.2956063305294188, -1.4152516684911949,
        -0.6406139152985434, -0.9518519949726048, -0.6646199090709076,
        0.3812976871224833, -0.16843073479891985, 1.9522561165645915,
        -0.1125367931315622
      ],
      [
        -0.1086086898765086, 1.0249226714346684, -1.1363858154434234,
        -1.0974447725408274, -0.004971272725828325, -1.7457548747445593,
        0.5564226357280576, -1.314460665984452, -1.6171322778053092,
        1.397507878614259
      ],
      [
        0.9082680084564664, 0.35594929435534123, -1.6848857805050486,
        -0.7441362539016965, -0.4525785072556462, -0.6746199253557462,
        0.2959404415005904, 0.23813536427871754, -0.1649881864645563,
        -0.2028422885364158
      ],
      [
        1.0054807013314793, 0.24331753373239376, -0.7040153229585455,
        -0.10835296223725374, 0.36803167786905183, -0.04586819602743822,
        0.6341240498126457, -0.4584888718108031, -0.8923219226012867,
        1.446104411525558
      ],
      [
        -1.6110347686792243, -1.147661238723295, 0.8827232480116578,
        0.29456694752203955, -0.8357733269948866, 1.2500821319871382,
        -0.9283444497298522, 1.9399748795990643, -0.3464937481087532,
        1.121258484232204
      ],
      [
        -1.4915544094372015, -0.6624374587222013, -1.1472890644746343,
        0.41946176115660744, 0.2198307722820641, 0.37774667783153015,
        -1.1367818141780661, -0.18039940071502486, -0.47699114979581675,
        -1.4525004255937048
      ],
      [
        0.28149251960972077, -0.3305944362484975, -0.37149810784729426,
        -0.5354829100723884, -0.5174451242925583, -0.19616538186440383,
        -0.23843688453177353, 1.6260282119407092, -0.17680651390333377,
        -0.016695087165200902
      ],
      [
        -0.20354818268539887, -0.9265939470857401, -1.234810033745783,
        0.3183280413103384, 2.1278084768672625, -0.46234216438673226,
        -1.383827130021095, -0.12049569420448521, -1.1354635935832762,
        0.9473521355133907
      ],
      [
        -0.44653392372045425, -0.4120535054192087, 1.2711400266968647,
        -0.5622986309419591, 1.521668091327453, 0.6159992310203936,
        -2.304103955949288, 0.7051526216376385, -0.44829472977086904,
        1.3703074441760308
      ],
      [
        0.5283330019288588, -2.362655313580361, -0.6093141580634595,
        1.9988194796700598, 0.5770987627124183, -0.5263254744872576,
        -0.7810801148254077, -1.430820274198129, 1.0191461593076039,
        -0.7504513459172639
      ],
      [
        -0.1717055873096503, 2.1482159238298117, -0.8946642135153403,
        -0.08948587337409972, 0.4250551978014341, -0.9210806520964948,
        1.255322034807215, 0.1704884002562279, 0.8909533773960727,
        -1.6062610333638934
      ],
      [
        -0.8563916691916075, 0.08484520568395736, -0.4136590971607055,
        0.3088215598563249, -0.3176478625830769, -0.9855702980440568,
        2.0308308754377227, 1.179485178861441, -0.932251351326515,
        1.4188301760999742
      ],
      [
        -0.01198537642028416, 1.1947479822951095, 0.02381142113553449,
        -0.28098872080990267, 2.442904063096579, -0.5703053948895221,
        -1.096658954188469, -0.34383987823008655, -1.7594540234525275,
        0.20048831442806747
      ],
      [
        -0.37837294837835145, 2.598385010476241, 1.2332045758536094,
        -0.4168251824077348, -0.6544938062064796, -0.08506988764746069,
        0.05977941629533135, 0.7132993393778001, 0.21152343454117456,
        0.4322114397938708
      ],
      [
        -0.6485254515133263, 0.3689501152621836, -0.07964352773635348,
        0.3175319816099828, 2.652497026306448, 0.298392784442165,
        0.04117485490000228, -0.35124823666168403, 0.5423383271485608,
        1.0889548688224553
      ],
      [
        0.5976853530564824, 0.24152211950906996, -0.7237855972721637,
        -1.7300829359054208, -1.4793058237025423, -0.4510970734276974,
        0.6451016011079022, 0.18640934385359248, 1.0886545295050563,
        0.4105139535438683
      ],
      [
        -0.6512672780337312, 0.28410205394886434, -0.9284268388668812,
        1.2175276552817447, -0.3036089399777175, 3.7918435287885135,
        -0.033535907308037814, -2.2655479276240524, -0.8612230304164262,
        0.7975678126015305
      ],
      [
        -0.5202303122471318, 0.9798720845247045, 0.8163905263963688,
        1.3349464598089822, -0.06503280813137581, -0.32215007632720893,
        -0.5801917333446815, -1.0953223855989256, 0.4917989399168391,
        1.8160792719558758
      ],
      [
        -0.8003828791370552, -1.8544619888906722, -1.2160911620865613,
        -2.00989646222633, 0.6788315128894857, -0.9255095792764811,
        -1.0787931912679938, 0.06162088028489486, -0.00037611202560327466,
        -2.0764669601412313
      ],
      [
        -0.46927866142993924, 0.6193813516616951, 1.1604447803848625,
        0.440386919486562, 2.3797492234924493, -1.5058519026028472,
        -0.7248478235767292, -0.06985189103494981, 1.1930053693922151,
        -0.6925381662308053
      ],
      [
        1.1876380798647241, 1.4060072585688816, -0.8772482811536273,
        -0.12485131470117601, -1.962514174695801, 3.1196255992500928,
        1.8075815075715795, 0.3789044244288227, 0.29925538484987163,
        -0.8230919198731849
      ]
    ],
    [
      [
        0.6614427553806778, -2.6110633334186515, 0.14711142961569337,
        1.128402450212498, -1.7815975694824042, 0.6973480964582331,
        -0.6879080329232802, 0.9494517576109169, 0.11245373246049187,
        -1.3213371856210911
      ],
      [
        -0.8702994559046346, 0.44714125703764124, 1.8528697458888665,
        -1.1104167284321438, -0.4430006816893182, 0.4380112643396417,
        1.1116787727520605, 0.3135643328375609, -1.1117697477784403,
        -0.7674734030110087
      ],
      [
        -0.14519696084205194, 0.37648869600916746, -0.6926996538010143,
        0.7738720630924742, -1.5150276114388463, 0.023401483649643895,
        -0.762173251421399, -0.2682233959624494, 0.5716375928637242,
        -1.5953564950036592
      ],
      [
        -0.023902307415661437, 1.2873144121982207, -0.5884604559734342,
        0.2720724666867385, 1.8464413904910357, -0.7839395722290901,
        0.10992691067197856, -1.3868054422204117, 1.7519549183978957,
        -2.053223716244236
      ],
      [
        -0.47851678804446557, 0.11753279780745313, 0.2862675390406182,
        0.4606824463660897, -0.5278215285561288, -0.02869875243007159,
        -0.784878488415236, -1.2993971897186463, 0.2463608603178423,
        0.6779360697854105
      ],
      [
        0.590014488145464, -0.1946880212244367, 1.3981697344678279,
        0.03132671131800172, 2.194610970316945, -0.7830865793666345,
        0.9335861343565151, 0.5474093963378747, 0.7358960348311926,
        0.48675159939537904
      ],
      [
        0.6830960451517862, -1.072540601404581, 0.09764929307954789,
        -0.6171242553446856, 0.7775767935994766, 1.281301412487486,
        -0.7075205745763462, -1.510848185249236, 0.9340457182313309,
        0.27626369744464474
      ],
      [
        -0.275780654691391, 0.25474421676287, 1.4912022277405959,
        -0.7830826521915454, -0.6476920312685438, 0.24280204821662224,
        0.4473543878623167, -1.8287407584239699, -0.08782940691499669,
        0.5936620672040317
      ],
      [
        1.3633210440422132, -0.34260053337657165, -1.1231400572687875,
        -0.7091381771592258, 0.9125633331436338, -0.08886115052258725,
        0.5225007112471463, -0.6585207512438582, -0.8049710825639343,
        -0.40928861293700497
      ],
      [
        0.10177313518067115, 0.11134695646139306, 0.5474240544413477,
        0.4138486389321935, 0.2843350838656969, 0.02752852924191457,
        0.8546432294130634, 0.8594801370822606, -0.48929821961837217,
        -1.1735243843261804
      ]
    ],
    [
      [
        -0.7561579727469222, 0.4168121411760706, 0.15598196172524353,
        0.16533069023072305, -0.4214355576469919
      ],
      [
        -1.0159798439872656, -0.08327458013498085, 1.9516012278300237,
        -0.4104116712097446, 0.9994716733827206
      ],
      [
        1.671580369326198, 0.6368716356500763, -2.3149308955344807,
        -0.03258913783033337, -0.9853497123856813
      ],
      [
        2.4717478749927393, 0.4488401567355003, -1.2661027036906107,
        -1.473366107705978, 0.10462822396614059
      ],
      [
        0.7343454089112182, 0.10565568223284279, -1.3378045632439297,
        1.096757669817659, -0.7410840821546679
      ],
      [
        -0.13646236475178203, -1.6468708826876803, -0.3451701636794915,
        1.9712021464630056, -0.9246376598634211
      ],
      [
        0.9782365469360622, 1.544330298768097, -0.36043317580614803,
        1.1038300396330856, 0.11273592389352857
      ],
      [
        1.0022357421957158, 1.4411606360759313, -0.9297110218546398,
        -0.305666516464589, -0.6169539847480485
      ],
      [
        -1.8458726106257706, -0.8730213408484547, 0.7999963556675217,
        0.19438500088894178, 1.2643666871437949
      ],
      [
        1.2333558742744448, -0.9686994951880153, 0.8099864038520325,
        -0.5498172073696291, -0.46488002152658353
      ]
    ],
    [
      [
        0.46537690744912297, -0.28690736377466286, -0.09447881456826569,
        -0.5646607270178825, -0.719958976394239, -0.8636288557031405,
        0.24493927894159356, 0.4729608511017824
      ],
      [
        -0.24472265017145892, -1.1718164293347788, 0.08327318364947049,
        1.811569337748891, 0.774568828440957, 0.8398992083887845,
        -0.2989962215424102, 0.9985411016933394
      ],
      [
        1.589704558938769, -0.45895665386757584, 1.038583244330239,
        1.6653072925734933, 0.22775093479878844, -1.358589858355823,
        -0.256332943333497, -2.210211494944387
      ],
      [
        0.7342818263954964, 0.37219602838324495, 1.0847475079865416,
        0.45410623053956656, -0.08465215400253159, 0.49473390667475825,
        -0.4611932961681905, 0.9641504111471496
      ],
      [
        0.5403812866519018, -0.2328539344688356, 0.1223138823125937,
        -1.1938652801013498, -0.14671368379286753, 0.11141633485063275,
        -1.6945621137547138, 0.14505063968393656
      ]
    ]
  ],
  "biases": [
    [
      [
        -0.5670795020274351, 0.8259544320103925, 0.6842657612296525,
        -0.6396454240576289, 0.11614381488357393, 2.0003377107254114,
        1.4114698103366565, 0.8827854597535321, 1.8355760666972978,
        1.4877535965299569
      ]
    ],
    [
      [
        1.532745378094106, -0.2725246017995246, 1.0670578395567183,
        -0.7147685996587035, 0.7418200528872456, 0.32089250587786006,
        -0.015726810682877585, -1.6973382130664496, 0.7096080769283011,
        -0.07600858353864531
      ]
    ],
    [
      [
        1.8503118803064398, 0.28374674483767326, -0.921628724104804,
        -1.626264387258455, 0.5493818438402909
      ]
    ],
    [
      [
        0.7677715504809298, -1.4758049578667103, -0.09035863514048867,
        -0.08469096482688697, 0.8010136879543077, 1.3640917531005403,
        -0.927118600839716, -0.1618158903440714
      ]
    ]
  ],
  "mem": [0.0, 0.0, 0.0, 0.0, 0.0],
  "out": [0.0, 0.0, 0.0]
}
