{
  "weights": [
    [
      [
        -0.27489096803595325, -1.3864098485297265, -0.25511343893977306,
        0.041324795807381666, 0.5679722932878923, 1.1922507394988846,
        1.1196252791711172, -1.0230878136760608, -1.470695923615483,
        0.4430686052233304
      ],
      [
        0.15641740321025788, 0.19312856672640574, 0.47100884789063807,
        0.892795419015304, -0.6644464935691016, -1.7070598711812364,
        0.3245177656896796, -2.104152362028036, -0.2838724243575591,
        0.49401591843088527
      ],
      [
        0.09331166391681114, 0.29756957419575936, -1.81492274441529,
        0.23531294050874435, 0.9777445529174548, 1.1500726374713637,
        0.7650494033761749, -0.5991273282752417, 1.1562998024688493,
        2.14598244744741
      ],
      [
        0.1714676518454171, -0.4552237058350052, -0.02563438325845413,
        -2.1161676881342144, 0.012512631982676414, 0.7987882884290965,
        0.016513745975136284, -1.0920061348514485, -1.2185265029480998,
        -1.7447060863113713
      ],
      [
        -0.481415972966411, -0.29450741765884014, 0.7407067365986105,
        1.7355171776350171, 0.7816327324275095, 1.920586602342576,
        0.6122771253563688, -1.5018971039919817, 0.7345107301541136,
        -1.5866574964987215
      ],
      [
        -0.19143066719533794, 0.7233423607581383, -1.0136824035785155,
        0.41097254600354416, 1.4765866489959687, 0.5259392968761246,
        -1.2195469361564903, -0.2690069692890035, -1.4591741499628799,
        0.07495866943531938
      ],
      [
        -0.2021598535813792, 0.6048928077592222, 0.6435359713347455,
        -0.9337799270578878, -0.5985296067400612, 1.7169268155118989,
        -0.23958177600568825, -1.604025755801282, 1.5327168697905535,
        1.1012309040711654
      ],
      [
        0.5264713751792922, -0.5911093573621954, -0.6595704663606813,
        -0.6228230667772254, 0.4778424463505404, -0.3080800683733718,
        1.0200007775642148, -0.7681083205386992, 1.5525677600814078,
        1.3382215239763584
      ],
      [
        -1.005956600189198, -0.11960585152504442, 0.934877581438755,
        0.060931358642098324, 1.87878109689767, -0.6599985178267812,
        0.8759212495642612, -1.5621720392721024, -1.4700071790299083,
        -0.9867003666774687
      ],
      [
        0.15476848434938797, 0.7833101910475273, 1.2548805073011418,
        2.074774579914988, 0.08384292304746571, 1.0766551326049414,
        -0.23613602107332032, -0.09785998660446973, 0.05740790362346758,
        -1.3178890190517945
      ],
      [
        0.39774745783822446, -1.5185434792142436, -2.0760142020654064,
        0.04141223524945733, 0.471314673146866, -0.44599744420569637,
        -0.8034407751773998, 0.5892908334655097, 0.7552057168521988,
        0.2926794958373151
      ],
      [
        -1.3581440126708433, -0.43979720533463734, -0.8138672889611148,
        -0.26713296563333, 0.39445847096536973, 0.8271318003268135,
        0.35507234042213925, 0.068503870161625, -0.17849538159805334,
        0.3093798087462214
      ],
      [
        0.5447265646524071, -0.5097701069475448, -0.22357410953250523,
        1.8414707305596265, -0.557196446475001, -1.8483299341214898,
        0.3817243401417429, 1.0526143710111433, -1.0839389225901084,
        0.8930352874023387
      ],
      [
        0.8284375210251859, 0.42793402050314483, 0.5174399101353904,
        0.3452990936677205, 0.572748186619643, -0.6158720234173172,
        -0.1617542417928959, 0.5950707980111175, -0.07655689359149977,
        0.13869166997751162
      ],
      [
        -0.3544028080662692, 1.2970789189549523, 1.9786889142100386,
        -1.5504492515880623, -0.003123801251548495, 1.1775934907557084,
        -0.15244168619804935, -1.5951635028031752, -1.0576894182499852,
        0.6700673435504586
      ],
      [
        -0.758482032145368, -0.6139121262753408, 1.7179162556481224,
        -0.1869840101000308, -1.0284173044506033, 0.34471981754599645,
        0.1779964678117515, 0.22686153976141132, 0.7580140895406731,
        -1.2696185337327142
      ],
      [
        -1.126238579465018, 0.05926024313444688, 1.9616714097700296,
        -0.40746081305055964, -1.0129279099361792, -0.18888564592795032,
        -1.0430341718151188, 0.5848273929472947, -0.01671224678275115,
        -0.7286013090010608
      ],
      [
        -1.2496217760035278, 0.31456510677857796, -0.9317650458887191,
        -0.6432567445666961, 1.2105055252445622, 0.326405259442897,
        -1.4620598737784518, 0.06842237739311807, -0.5122597376123813,
        1.574403597562293
      ],
      [
        0.21296672414241857, 0.7871620193809364, 2.443359339827496,
        0.2595821055580147, 0.01606633552595187, -0.03421204255086815,
        0.23745512593942378, 0.39611247146886364, 1.7953238208990296,
        -0.4176629422632889
      ],
      [
        0.42126132976137387, -0.832828230461188, -0.08874817714462861,
        0.14114497938322618, 0.027818992344135915, -1.0070886030512054,
        -0.6096637638292673, 0.3143739563103082, 0.2657325737361728,
        0.06484404050106293
      ],
      [
        1.2186388385168894, -0.7501490546396612, -0.3331451499640556,
        0.4900896897898263, -0.10542913180376556, 0.15786658828459751,
        -0.12831620668818083, 1.3722061289897354, -2.086499692364983,
        -0.6460578286440303
      ],
      [
        0.835878529055688, 0.8317561897111549, 2.0785832632901267,
        1.0930849607239432, 1.0132733368331979, -0.5960649218372213,
        -0.6033718282840494, 1.2926347032697845, 0.4165928534294514,
        -1.0243257664677494
      ],
      [
        0.2733431321326154, -1.1103370273096769, -0.2724422794150227,
        -0.6710863891734385, 0.6923575638271231, 0.5615190335744528,
        1.2700025128032508, -0.768317245782888, 0.8702813038004125,
        0.7468074296512613
      ]
    ],
    [
      [
        -0.575340181820081, -0.08174708851232676, -0.3813757463898097,
        -0.7113603670700518, -1.1478542993412875, -0.258704833064185,
        0.6628628111362206, 0.9965414008978066, 0.5132760824910775,
        1.030437670521434
      ],
      [
        -1.1563176934619646, -0.6927192577341981, -0.48369267104745406,
        -0.5707488023193896, -0.32060674126645505, -0.2979294834805508,
        0.4910967161025168, 0.028489227573117924, 0.12747700679799118,
        -0.9670468297960448
      ],
      [
        -0.7219993224158093, 1.1562848752219541, 0.017453931363865305,
        -0.02313539142721731, 0.5484924575260082, -0.11455496610336337,
        -0.5557508777743099, -0.5362723155862806, -1.1643133225078872,
        -1.5097983422132888
      ],
      [
        -1.1967670149102505, -0.6668029052485174, 1.1834797642338208,
        1.0176885696675428, -0.24007953496893258, -1.4970543638079223,
        -1.1491286804989387, 0.6877639868918527, 0.7711320628746302,
        -0.8073244223511259
      ],
      [
        1.1087259950237973, -0.9377890910042556, -1.277103703881811,
        1.1936113391350363, -0.5361972002648205, 0.5823002694502682,
        -0.2160448097220283, -0.8195650404898231, -1.552890968252475,
        -0.4664923819248562
      ],
      [
        0.2977435819491861, -0.1430100027318473, 1.0111876978137981,
        1.1228002798239693, 0.7409855228381805, 0.5968361340104168,
        -0.550855816438429, 0.3315755250519273, 0.641740319047341,
        0.6017104297583614
      ],
      [
        -0.29618243228761637, 0.6821861355318914, 0.06741379470817993,
        -0.4151850009529125, 0.6051172240266932, 0.05984921238354543,
        0.6078163399890992, 1.3536498299605215, 0.686236731453151,
        0.8614911566316309
      ],
      [
        -0.7083515487683663, -0.10351591926455754, -0.3916540603456355,
        0.9949839764449591, -2.503602927522767, 0.5412371879517224,
        1.654946557342995, 0.09347649326863436, -0.9987888145964507,
        -0.38990121141975476
      ],
      [
        -0.36292001294649606, -0.038654782316415656, -0.015925595418634468,
        1.7174405560022838, -0.8367702740835351, -0.9734350493941258,
        -1.1380873778050276, 1.3523723582711737, 0.051210727465272776,
        -1.972761766981501
      ],
      [
        0.2853543135801979, -1.1440578372398844, -0.813806101230264,
        0.4897217775427799, -0.1901004061731932, 0.38077653101701914,
        -1.6077455219590304, 0.5202949288671872, 0.4593650573578926,
        -0.35164882488808136
      ]
    ],
    [
      [
        0.6713346020065604, 0.5275035576235481, 1.638142122360609,
        -0.34735796840750716, -0.992923515146295
      ],
      [
        2.418872136255575, 1.617076510882441, 0.13126507460666675,
        -1.9638047230549038, 1.4611994962333394
      ],
      [
        1.7864246077348866, 0.7601420185153971, -0.19916871984265752,
        -0.4741455447198381, 1.157965844238869
      ],
      [
        0.15668159394188502, -1.4116650847929442, -0.780087274501682,
        -1.699656036722817, 0.6491975588646601
      ],
      [
        -1.0899476466831182, -0.24342281232194068, -0.4745426218971301,
        -0.24832060615552806, 1.035490900367855
      ],
      [
        3.438168919943659, -1.1739259883707265, 0.12783548805752112,
        0.4131554856838116, -0.39619758680393236
      ],
      [
        -0.7908475246366348, -0.5759648915840676, -2.4856012129576635,
        1.8933400133036096, 0.030438026698614052
      ],
      [
        -1.2755452510860847, -0.5138137914303937, -0.12780470446351186,
        1.0966498928578912, 0.2413746570391561
      ],
      [
        0.1798673997223057, 0.3330738226621757, 0.37960246379979046,
        0.8233946921306686, 0.8221744275896969
      ],
      [
        -0.1048926690181981, 0.012678036253469666, -0.049106439271113606,
        0.3706635545867389, -1.0895176175646375
      ]
    ],
    [
      [
        0.3791261822516422, -0.7930551850226663, -0.5707278917070009,
        0.9490303921653757, -2.1574575685327266, -3.1659811922962375,
        -1.0981879236525693, -1.0437649922559524
      ],
      [
        0.6507217541848083, -1.1121340201368568, 1.139921718255562,
        0.13468553271517753, 1.0183389374557614, 0.6326539201027814,
        -0.01272679108842968, -0.033801222229377606
      ],
      [
        -1.0170244784947708, 1.0752702702580788, -0.26461071310597434,
        -0.051687170083438705, 0.8147263626386353, -0.7948347715763746,
        0.27351508031078786, 0.3389562712861993
      ],
      [
        -0.3048215053144097, 1.0391802321467196, -0.48662809896592446,
        0.2875569631964664, -0.5959017400408588, 0.9040293810775057,
        -0.8625828980152905, -1.9542118656283876
      ],
      [
        -0.473668312788041, 0.16963654410993376, -1.2505566459735293,
        0.2958302612237119, 2.767527078071498, 0.4827589695040454,
        0.7749118908732896, 0.7417782188396834
      ]
    ]
  ],
  "biases": [
    [
      [
        -0.48739557594342053, -0.6955643280468387, 1.8844215843872703,
        0.009613979364210325, 0.745415511897624, -1.8001144658768113,
        1.2853167858065122, 0.2212846332340751, -0.4366883517010794,
        1.3101807309184839
      ]
    ],
    [
      [
        -0.43526114382113534, -1.9917626549325345, -0.4999203919664238,
        -0.06297794372977512, 0.8614292473015017, -1.5430835205159275,
        0.7451156791389909, -1.0632703532351375, 0.022996496186013536,
        -0.37884100669678605
      ]
    ],
    [
      [
        0.192689175009039, 0.6898250217322496, -0.1400992319538991,
        1.2729071134727599, 1.9092459517613878
      ]
    ],
    [
      [
        -0.6053901117466171, -0.20006431564332888, 0.19057883853973537,
        -0.023024758804021776, 0.494856150728797, -0.3703139824447797,
        -1.9047165505096262, -0.1030738765947987
      ]
    ]
  ],
  "mem": [0.0, 0.0, 0.0, 0.0, 0.0],
  "out": [0.0, 0.0, 0.0]
}
