{
  "weights": [
    [
      [
        0.09335307364482871, -0.1847727935857406, 0.4714725665765025,
        -1.5164286773325315, -2.060657745047613, -0.010863444066852265,
        -1.6327485371801416, -0.7074969081236252, -0.3257510207272455,
        -0.39778617661917925
      ],
      [
        -0.9718344100675428, 0.2404854448102179, 1.857357348144178,
        -0.4961945139907467, 0.18920287652281187, -1.2370699670049172,
        -0.41505704642386065, -0.5129534211215654, 1.1078004353866224,
        0.013465217327379923
      ],
      [
        -0.07714804949811302, -1.4900814210875848, 0.7880269570331252,
        -0.07452198170468062, 0.9394349396056989, 0.14738967440499484,
        -0.8989891874845896, 0.4906045412554116, 0.9383748385710593,
        0.4002771411909716
      ],
      [
        -0.5078460201590737, -1.2432273625266073, 0.4138580414600948,
        0.30269015485130973, -0.4520926500573442, -1.0875910474709238,
        1.2351898983073781, -1.1699839967202266, 1.356567116855625,
        -0.46105065685078783
      ],
      [
        -1.146822631800714, 1.9913286514677424, 0.9615069585176023,
        0.889940694316768, -1.721341059261812, 1.1948453802007604,
        0.27034908047385936, 0.9013830751815669, 0.7239933887215851,
        1.597590728078991
      ],
      [
        0.1714213642984759, 1.0299631678024916, -0.8213718779680862,
        0.16192303640529257, 1.8376214121750636, -1.874663352166479,
        -2.5343807703916412, 0.6158149103703692, 0.255326481499349,
        -0.33558565273135205
      ],
      [
        1.1380652525081072, -1.1254693571468024, -1.2413620463132014,
        -0.12035263594205002, 0.4762362158851554, 1.3358784769122165,
        0.15264420837788392, 1.2322385149429318, -1.7560070352338373,
        -1.147219798102135
      ],
      [
        1.2204125891203406, 1.109995286898107, -1.911238445777843,
        0.2524139830759949, -0.04698039321206095, 1.0998052528175437,
        -0.3585938599588436, -1.3191173491189092, -0.9587973477829388,
        0.8927974876144769
      ],
      [
        0.8281730331996857, 0.49614126027545874, 0.9048028312247184,
        0.21684388722821343, 0.851248075234306, 0.7098178936456317,
        0.6053946592308967, 0.4893398521972414, 0.21794081455751452,
        0.2859195221100908
      ],
      [
        -0.05990423470120659, 0.6099447482010956, -0.07462154140018205,
        1.7749696851861014, -0.19953444455759273, -1.633534194289683,
        2.307319934820998, -0.15677064736797072, 0.932669955789954,
        0.7244228276448605
      ],
      [
        0.1383161557256842, 0.4166635897047592, 0.4398069500317703,
        -0.9593728887607827, -1.1212512562282573, -1.5138562943299296,
        -0.878307927133542, 0.3129771066654079, -0.07258297680834165,
        -0.7871295405357364
      ],
      [
        1.2570638649108143, -0.15601916893909182, 0.21195504596565423,
        -1.2554082934324595, 0.9513297310201727, -0.1455759898317072,
        1.2863172998309214, -0.6375545947290687, -0.21214410062136832,
        1.497662420806852
      ],
      [
        2.0050329641647493, -0.1860274711922026, -0.46433985158634944,
        1.177925616266391, -0.5312761697617916, -0.6353549880052327,
        -0.36693161342903297, 0.329514857654874, -0.17266716522358921,
        -0.2264816549688487
      ],
      [
        2.3305399613911715, 2.0461958014173427, -0.056329087912841844,
        -0.6186532388511515, 1.7652477759797116, -0.30868577765662364,
        0.11926734199910381, 0.01818017672664139, 0.8756595057754496,
        -1.1387754069128695
      ],
      [
        0.9326716355842628, -0.8603908592526037, -0.21474163520578698,
        1.4670301466718187, -0.9067647460256921, 0.3638219907354449,
        0.9767441695353057, 0.0036260376760807282, -0.5208075918147878,
        0.49984506547120333
      ],
      [
        1.575268490528741, 0.17725435757707017, -2.6339740330037054,
        0.8059518446836988, 0.055614986005434894, -1.5636257064254897,
        0.7182828638874345, 0.25482943484925835, 1.041189781194295,
        -0.5715816751497284
      ],
      [
        1.6107440560441593, 0.49560737902088653, -0.7755174801454703,
        -2.1323548477073992, 0.04883805380963554, 0.25672778300155735,
        -1.3476030957871996, 0.2901683721364618, 0.11518769443931376,
        -0.287787353890115
      ],
      [
        0.07663476286152507, -1.7068011204886044, 0.5400325221233193,
        -1.5704805365022383, -0.19254963618657792, 0.2777104468773056,
        0.8305090833968687, 1.6950689858060477, 1.4294630664015942,
        0.6894310080662561
      ],
      [
        -0.9681666079937957, -0.3117878982736461, -0.5658865498771812,
        -0.04054496497272175, 0.46245027714597947, 3.4308642022524856,
        2.1799827056030234, 0.27250761000440543, -1.6569853435191058,
        0.6867936753385203
      ],
      [
        -0.4151868507968092, 0.8697960951412825, 1.3134512691330995,
        0.8255926298777143, 0.9050336043889168, 0.5310987578280763,
        0.496354482119892, 1.1303362250529814, 0.023683572090138744,
        0.11183727098279818
      ],
      [
        -0.6685365700785655, 1.58318822539329, 0.5343648092285777,
        -0.39433785672561794, 0.029297733316147503, -0.36057549393916105,
        -0.6291329959095975, 0.14378820923657426, -0.37470515387031467,
        -1.4814581742133481
      ],
      [
        0.5537563511382533, 0.6752694067054297, 0.08305263808711409,
        -1.3617956059567669, 0.5794709046765477, -0.8406982727783007,
        -1.229256321630019, 0.22151215987632086, -1.3876316165242109,
        -0.9096218975250084
      ],
      [
        -0.24641232627884743, -0.5703452822516725, -1.2010267236753256,
        0.2121247635486551, 0.7597902263685654, 0.055436496516983215,
        0.05681126763439525, -0.9066734236835688, 2.3666132799130484,
        0.49483944571995514
      ]
    ],
    [
      [
        1.1349590202424586, -0.24728476615005218, 0.09801867803394544,
        0.5601652971110673, -0.5789216105887619, 0.365104978544903,
        -0.5114914966855951, -1.641580761342526, 0.18676887274329107,
        1.6122192179423458
      ],
      [
        -0.36909086333365215, 3.3562071389310923, 1.0805390653596816,
        -0.8374534525091543, 1.231220398040783, -1.3445001339621543,
        1.12409646697002, 1.127771940957589, 0.2790900250625358,
        -0.17854730808064792
      ],
      [
        -0.2057567828723503, 1.3020062337557663, -0.25181862339764527,
        0.4301443719988183, -0.2932713801659823, -1.1444779911533705,
        -0.7341260576577648, 1.951529626887239, 0.20784261870767484,
        0.5445564941234393
      ],
      [
        0.018709173310328033, 0.578292656338982, 0.2790351584260087,
        2.109243003480431, 2.7482008701963627, -0.9010216358387352,
        1.3772209995490363, 2.0661167992348477, 0.050577275325921114,
        -0.7638490571822738
      ],
      [
        -0.8892138756301006, 1.518427424511458, 1.6401506911805301,
        -1.4336369292492612, -0.982612631240669, -1.299093542578329,
        0.5611500628235988, -0.12640564322685288, -0.5587317895195202,
        -0.09125461347236626
      ],
      [
        0.41703176737677183, 0.05701185284786699, -1.2340076499550996,
        -0.030656830070827985, -0.22550142181840838, -0.9573594007001222,
        0.5592054250980378, 1.250080043409507, -0.6181981986426965,
        -0.2455967727123635
      ],
      [
        0.15953911900964615, -0.898535426454923, -0.17313270824371396,
        1.2615047965365123, -0.1797439552024281, 0.5744925578771731,
        0.18535561059664427, 0.9704919494810079, 0.5096880091852565,
        -0.9913833586559399
      ],
      [
        0.15097997548743086, 0.08213428142189927, 0.09201190194364749,
        2.8892618519301285, -2.0289251550011143, -0.4243823597809043,
        -1.0187714979695828, 0.8868688817326471, 0.2114073443619877,
        0.28855589954455213
      ],
      [
        -0.08643892712438218, -0.8272795590231219, 0.3573019117127225,
        0.9721127309582888, -0.20369985297495719, -0.43225144929004666,
        -0.6964025071546486, -0.7720447908632109, -0.28995638020751013,
        0.09569805687768355
      ],
      [
        -0.571435386008498, -0.12318525940754958, -2.0833753832873416,
        2.2605389261811677, 1.8598221970536324, 0.5495474356728688,
        0.41863162858300423, -0.010224139396217373, -0.4427341658295523,
        0.25580015443139037
      ]
    ],
    [
      [
        -0.49129904059401813, -0.07029426279637865, -1.4620301881420317,
        -0.3758756044543591, -0.9281174432384225
      ],
      [
        -0.6500043967378005, -0.6668291567751978, 0.8806113721125162,
        0.2933243036759806, -0.7874325220934162
      ],
      [
        0.5299305294613317, -1.033575066898873, 0.8429705489571193,
        0.24300841373867757, 0.7787528172539222
      ],
      [
        -1.5438813005291387, 0.6077373572282149, -1.0115259599681508,
        -0.521197925647753, 0.7077089648323904
      ],
      [
        -0.2561297370879704, 0.17699418827641233, 0.15447624325174555,
        0.7238045299259033, 0.10529236462986269
      ],
      [
        -1.231988269890331, -0.8261533009618799, -1.8671967564309504,
        1.586575837243658, -0.4548372378779205
      ],
      [
        -0.6586434105644319, 0.48499989421630135, 0.22376178222791482,
        0.7107212290560044, -0.4990699854167779
      ],
      [
        0.28458699723268044, 0.6498688649600088, 0.9122340771105938,
        -0.4233267684534401, 0.5615407220259595
      ],
      [
        1.300570334721941, 0.3456471497374689, -0.5869615496116756,
        -0.40592824520509985, -0.8053517639729623
      ],
      [
        -2.6398866231641906, -1.6172061984252788, 0.6431518199148086,
        1.533843335567602, 0.4696446463368212
      ]
    ],
    [
      [
        1.6373521532023343, 1.182129108882562, -0.7946178592527998,
        -0.5700432129079392, -0.26183464424440356, -1.5051461710311047,
        0.2840299493313448, -0.7503826333971054
      ],
      [
        0.1548990796100002, 1.2895399559028264, -0.7843399096461445,
        -1.9911413081192002, 0.3383380767490523, 1.0538244046375318,
        -1.65108445078265, 0.1768837994910329
      ],
      [
        1.0107455085038968, -0.8101780311683948, -2.368330035833363,
        0.1095211975559731, -1.121344790585832, -0.9941874141958013,
        -0.9286051863380473, 1.3499309586149653
      ],
      [
        0.48232585860611116, -0.09266045051570747, 1.7960628329135804,
        -0.7200238816972125, -1.3655504647000363, 0.19147087031898655,
        -0.5568003252064402, 0.02787929799352071
      ],
      [
        0.13809317731441323, -0.7753817343454739, -0.418703032818293,
        -1.2423012573010825, -0.6079300094549499, -0.3846457951630333,
        -0.8907756847434244, 0.46779209880233114
      ]
    ]
  ],
  "biases": [
    [
      [
        -1.0478216218464151, 1.863583075617198, 0.6195448541434624,
        0.024177658227661394, -0.5136483298251238, -1.709959918740956,
        -0.8233309297358086, -1.4351685196756578, -0.6198803857900397,
        -0.8032495943792746
      ]
    ],
    [
      [
        -1.4953289243074195, 1.799601615875617, 1.4874711464217298,
        -1.156003716936814, -0.33177559231169707, -0.48987812762240546,
        0.8848625025203618, -0.11679641547810618, -0.8872333803270607,
        -0.11421258083585963
      ]
    ],
    [
      [
        0.545089569024225, 0.7583240203742563, 0.4608429957271436,
        -0.5417314275882728, 0.3295898975331218
      ]
    ],
    [
      [
        -0.34098027931835645, 1.195384939129667, -1.0591938815552184,
        -0.1408602531094031, 0.5708221132421882, 1.3733983705666775,
        -1.6032015845301744, 1.5680884020482486
      ]
    ]
  ],
  "mem": [0.0, 0.0, 0.0, 0.0, 0.0],
  "out": [0.0, 0.0, 0.0]
}
