{
  "weights": [
    [
      [
        -0.4206857540048341, 0.11841489555373438, 0.33985321812379754,
        0.6524142295481619, 0.48046763743297977, 1.9952235737241588,
        1.2028868121468597, 0.8753710322008689, 0.44745812093503434,
        1.3773926597739496
      ],
      [
        0.8530742326055447, -0.14121043191445615, 1.5204939824701043,
        -2.3833475247479705, 0.7040948549611984, 0.42999269534259793,
        0.13308057802647363, -1.3896498088388145, -0.3052382918958816,
        -1.0762364415922396
      ],
      [
        0.5899425064092346, -0.5738295456031764, 0.9720171074330571,
        0.10302289070672661, -0.7416455225364244, 0.5730618937105897,
        1.9041469786113019, 2.083319385778161, -1.2425445875584051,
        -0.18625571563975174
      ],
      [
        0.4209086905140028, -0.3938413086869558, -0.8013104976169012,
        1.3557018004686119, -0.4057339757262485, 1.0856975061746024,
        0.39063995137550783, -0.3953379404792048, 0.43838638804119945,
        -1.4541521599981446
      ],
      [
        -0.1622626995972843, 1.0169408137457612, 1.9781482348407142,
        1.0743494089169794, -0.4133676542722373, 0.3800640225873596,
        -0.1422381473614201, -0.784221199260876, -2.33814963442591,
        -0.46924728574270985
      ],
      [
        -0.16905709266720417, -0.8151855972107769, 0.883763654960846,
        1.0101711764566956, 0.6061298906199503, -0.4378971919267406,
        -2.1357449144282508, 1.7415182082420262, 0.6054691001891848,
        0.8868357312416478
      ],
      [
        -0.12585646229868142, 0.17688086403637795, 0.4013331363028202,
        -0.6386647461770634, 0.5073808568538608, -0.16429459147039094,
        -0.16078413717495793, 1.490566918090813, 0.3502886001212019,
        -0.20564239312405158
      ],
      [
        0.3818780069479439, -0.39633110155708146, 1.8539074316125195,
        2.079051218416568, 0.4414268498340725, -1.041183717519744,
        0.8689990635997571, 0.40775486225590496, 0.22245801740017893,
        -1.1347345555388157
      ],
      [
        1.6238586743832726, 0.4794710646619991, -0.13421122602989052,
        -0.013228844430575922, -0.404360814106762, 0.9903676982552423,
        1.3152818011313656, 1.4316071954880516, 0.1583587164547523,
        1.469165567495511
      ],
      [
        -1.4738682397402565, -0.9614961907272601, 0.6068395236595316,
        -2.305529923575412, 0.38504951366458856, 0.24623412792540203,
        -1.0620342054746628, -0.42320157432350536, -0.12775720813815708,
        1.345667454391067
      ],
      [
        -0.6911806059162295, 0.42546911616451105, 1.4198685245331724,
        0.9213578805659384, -0.1520419322865082, -1.0316477375716326,
        0.22606716469874855, -0.04718522331008494, -0.8729726873718846,
        -1.4721759503775964
      ],
      [
        0.15041599111496837, 0.3349432726523399, -0.24833895687002022,
        -0.6232258702393021, 0.057793485858861494, -0.5594330103645875,
        -1.169922388240654, -1.8144238054392468, -0.8536800221126284,
        -0.036162694265903544
      ],
      [
        2.161530443060524, -0.7268209021602033, -0.7285514128457724,
        0.2341047332632002, 0.37294429173340954, 0.13677174318726823,
        1.3709818728419794, -0.5398373417991033, 0.48650772215243426,
        -0.4903079219780243
      ],
      [
        0.4227369217214097, 1.6944382376389537, -0.18886227883556977,
        1.5159968130962493, -0.08916702927829546, 0.186929532867053,
        -2.038921278595739, 1.2220255609412254, 1.2429484897974208,
        -0.8334916414666306
      ],
      [
        0.9112788238109515, -0.21636440943090823, 0.4745811579812113,
        -0.013106279397034414, -1.0116145695216356, 1.5892977132996946,
        -0.3628106948102181, -1.2326806170688844, -1.3762727777816586,
        0.5439893903200842
      ],
      [
        0.837296089816407, 0.7209427444475772, 0.11704928112218574,
        0.08884809792265294, -0.27618799226357926, 0.8756751744827782,
        0.860851461509018, -0.7890732622800688, -0.3441511422212457,
        -2.3315323970814656
      ],
      [
        0.8764072346089972, 1.3615850824223394, -1.3727915310652492,
        0.6386094919296992, -1.1980859430198605, -0.895575115042792,
        -0.2957963373213667, -0.7003660389327933, 0.4342019466736405,
        1.2724438551666197
      ],
      [
        0.6500326648539329, -0.4260334978555525, 0.4552825307727992,
        0.9657570106241189, 0.8463472244388416, 0.7833560074001195,
        0.8781277446093468, -1.199421901499225, -1.6201010919733747,
        -0.07451921592402747
      ],
      [
        -0.18226521319014763, 0.3036786879844688, -1.2199958120683883,
        1.0124650967074489, 1.6355381056381928, 2.689783099325575,
        -0.5993637534395679, -1.3154213210682055, -0.3846444937693867,
        1.15073069994565
      ],
      [
        -0.1626924274425665, 1.486904978163865, -0.9504485316824836,
        0.27212881323776544, 0.5894508865223487, -2.6444658285780753,
        0.25078522621176697, -1.0935160213662531, -1.6909184688956445,
        -0.7134449657729413
      ],
      [
        -0.5173050057818684, 0.19519414102078034, -0.17818880285596364,
        -0.5300035228875396, 0.3240605390419388, 0.6001682951683314,
        -0.94385867971937, -0.6771136333764947, -1.2527046462089888,
        0.0170557535877975
      ],
      [
        1.6298726038499831, 0.9491193734138708, 0.434193825064376,
        -0.5245885679483874, 2.2286911891113372, 1.3996648202135489,
        0.5372502251544269, -1.3022039352037091, -0.0730720285840054,
        -0.23153391599773526
      ],
      [
        -0.08062585803462773, 0.3071875501667333, -0.8552125614501371,
        0.08452537285909291, 0.9618909165572381, 0.8638162453786682,
        -0.32117870779722796, 0.8771199349926994, -2.5773033103063216,
        -0.8779939984911582
      ]
    ],
    [
      [
        -0.42231173565759766, -0.9397619095101944, -0.01679461500983617,
        0.32717586843693464, -0.3627274955663374, 0.7949090686962018,
        2.353134482747815, -0.16618955640998445, 2.291691780691397,
        -0.1134692721726242
      ],
      [
        -0.47932882012162903, -0.100928866213322, 0.48458715945935354,
        0.4712443397747552, -1.1649158967166173, -0.5850128354699859,
        0.6675822959419867, -0.2030437629817137, -0.40514143740156644,
        1.0654507716844273
      ],
      [
        -0.17971100370086743, -0.708672401036528, 0.28445575600151857,
        -0.3814184465908459, 0.35743952557864933, -0.022375110120918983,
        0.4762974363427493, -0.6934293445734276, 0.012095441556616338,
        -0.07848007063389437
      ],
      [
        -1.0766764160356306, 0.5317508076358823, 0.19047672966094806,
        0.1302041153037897, 0.2086617049897757, 0.1485118405948326,
        0.43828870102652984, -0.47405307665342933, 1.704000742861948,
        -0.8266004153437709
      ],
      [
        -0.4753704406838485, 0.4406247916813141, -2.2892891310267665,
        1.8839513856601173, -0.19936463574677382, 0.5525612136991058,
        1.1479145703099756, 1.829421263713332, 0.4549196319923046,
        -2.025061685992689
      ],
      [
        -1.1990132516140015, -0.38343623146918837, -0.8277519190305929,
        -0.2085222124444515, -0.7458024902550894, -1.6569989485505494,
        1.1102552574009104, -0.29654641132068915, -0.2012278198534308,
        0.053351412077237724
      ],
      [
        0.6981974919225673, 1.4678831595147046, -0.7826426520030261,
        -0.3188183125850341, -0.13786697836920436, 0.3609481586766089,
        1.4846721267967815, 0.06618637626329478, -0.7293656538923763,
        -0.057815375068178354
      ],
      [
        0.6548469417540591, -0.08807485484750389, -1.1670369754193077,
        -0.3649756339464405, -2.1554806661226986, 1.8618315059572526,
        1.0731270766530177, 0.401581220364057, 1.0455148536488532,
        1.10620888253166
      ],
      [
        0.009532730097151812, -1.2594590114357305, 1.2881824433522235,
        1.0417216025749947, 1.512863826530998, 1.3047479712262147,
        1.2770741847716347, -1.1500565884599312, 1.0750880767578979,
        -0.8684139896877222
      ],
      [
        -0.22666513898819357, 0.18170062874746987, 0.2452880668501184,
        0.14773847510711408, -0.3407965221674096, -0.496050259950437,
        -0.11256381555941995, 0.5786098089923575, 1.0539789388212668,
        -1.125469261208221
      ]
    ],
    [
      [
        -1.0326252747954139, 0.09415107823554041, 0.6454564039333648,
        0.05891640654382954, 1.9626854666913414
      ],
      [
        -1.7303903250170092, -0.5080719441331412, 0.027927776646721057,
        -0.04886213321947482, -0.18769609657631903
      ],
      [
        -0.8683321903705155, -1.2433325008186675, -1.349386017799456,
        0.20827889184630113, 0.5860522981651878
      ],
      [
        -0.4814927921028518, 0.38073938270914814, -0.3474095603185413,
        -0.6195837686453824, -0.15045674347631116
      ],
      [
        0.279493787143705, -1.3799466696040539, -0.8507181456237826,
        -0.7248051975838934, 0.24495920389728748
      ],
      [
        0.1246346629706215, -1.8200231920952852, -0.6872864882073616,
        1.2251065514952753, -2.4396028706238955
      ],
      [
        0.35699600686131344, 0.5792444795893381, 0.11440217767868653,
        1.431371975474231, -0.21124935064735195
      ],
      [
        -0.05090122488833319, 0.8365052299797998, -0.1919150520358045,
        -0.2843866588587197, -1.2463978668955535
      ],
      [
        0.39402888017982857, 0.7461164966619709, 0.01953363444448373,
        -1.3663844006720396, 0.12844596785460713
      ],
      [
        1.1185187359052602, 0.01521137454030289, -0.5621323757169984,
        0.24626203983453898, -0.1185849446450901
      ]
    ],
    [
      [
        -1.174994122392054, 0.8575893874441319, -0.2009587182447286,
        1.1368770050130002, 1.5943328565974153, -0.1866037691113734,
        0.44421326090063473, -1.4347079828606348
      ],
      [
        1.189225886830016, -1.4079537328323941, -0.3684883527850729,
        -0.33156176765968093, 1.2062161858037905, 0.23922793278214613,
        0.7840078009192295, -0.15193391183912147
      ],
      [
        -0.6830845528979301, 1.9118601066360015, 0.937387856024309,
        1.2544065360454422, -0.1999304986100202, -1.4993493584875606,
        0.36387688528026907, -0.08631521600530309
      ],
      [
        1.0879339839336486, -1.147381874437061, -1.0810465627414485,
        1.5225239776877886, 0.04389864111362411, -0.011254296017591278,
        -0.9449017325724907, 0.4246213379320994
      ],
      [
        -0.5661935751677828, 0.7353120486495086, 0.9665534009952341,
        -0.4218187362575459, 1.5476794353212195, -0.5527212492023323,
        0.7617045488014031, -2.4602070378174687
      ]
    ]
  ],
  "biases": [
    [
      [
        -1.9927785920807537, -0.23567553560921078, -1.395239123665793,
        -0.5326880939565588, -0.5662307985142988, 0.4495360284907614,
        0.45820525468315954, 0.2025432212328641, -0.5642336521057438,
        0.14799023005819
      ]
    ],
    [
      [
        0.9285142240630703, 0.45352111508188425, 0.14561322963681314,
        0.9058090857433787, -1.1683749857452068, -0.06513289673487292,
        -0.5499083203476803, 1.1606398554938022, 1.0349074175793214,
        -0.4827876063277644
      ]
    ],
    [
      [
        0.1706020089280989, -0.25049630788100957, -0.04076911313470518,
        -0.37715418168468196, 0.3837598479890309
      ]
    ],
    [
      [
        0.01070388105967882, -0.9712307024534015, -0.9137813964322282,
        -0.26084067988695964, -1.399641198551658, -0.5375895416842612,
        0.7229436981498705, -0.7984096570971155
      ]
    ]
  ],
  "mem": [0.0, 0.0, 0.0, 0.0, 0.0],
  "out": [0.0, 0.0, 0.0]
}
