{"world":{"cells":[[{"type":"life","id":1,"nation":0.9415204871819147,"energy":100,"brain":{"weights":[[[-1.941396295839494,0.13066044367966317,-0.12295457078670945,-1.6170293155157636,-0.8782578140746419,0.2764300251628797,-0.06489114373980714,-1.157014804499164,0.565706118024248,-0.8298826206790474],[0.3534366403476599,-1.2180665540976825,-0.7655677804845598,-0.23105933990101138,0.8852422328629722,-0.8250889313125082,0.7030534877408671,-0.9291224555684262,-0.3468087461460612,-0.7599653613664765],[-1.2809457436479426,-0.2899842843396244,1.6259210277149045,0.18884570371971796,-0.8310099496172464,0.5620091516586785,0.5689826430756022,-0.07085704172878227,1.7580692277008563,-1.2002744436100212],[-0.8089074700648723,0.11048300943794932,0.34714468940729465,-0.6935508980043811,-1.8133256068823183,1.6534852833133806,1.610650576146009,-0.9453865903699925,0.047730669628394104,1.2753932084965955],[0.7234392319684533,0.41412003184978324,1.94722886632591,0.8287505633054348,1.5905234520155023,0.42785374552796007,-1.1582335422604653,0.03958068035678041,2.223150263151022,-1.8272394527562037],[0.08049418706454686,0.839003242298846,0.7437427027761677,-0.9369796772767295,-0.14227884335718693,1.19096190998373,-0.5131115188553304,1.6073540035830327,-0.5451340602446721,-0.7325161077058613],[-0.39618770295878125,-0.5270304874239355,1.6788522130745964,0.18294002756651218,1.4876254923715173,-1.3202251883228093,-0.1417694155385594,0.49389034685387023,-0.19559999768061404,-0.8403429933170803],[-0.01501592122482215,0.6472838091451329,-1.6178213515417703,1.1955121664871353,-0.3082038824627248,-1.370277122434014,-0.17551053515193876,-0.08958242586075874,1.3917766948898334,0.17788196953328675],[0.3342520023920637,0.0446654993380196,0.8164417456261642,2.6867587049364534,-0.10417379217950762,0.8411134118323671,0.257046221255155,-0.8956683015527765,-0.18448263175224897,0.342574279065538],[1.2774192297376736,0.16636736627344453,0.9711274577585891,0.9333025543452317,0.35292736662726165,1.5829680122710692,0.2749127231466436,-0.798357240514337,-0.24052480442385984,0.9377111071183941],[0.3976102982094678,-0.17615637316858182,-1.3332769162042335,1.1779678134696854,-0.27665479745429383,0.6194358804711273,-1.4164902068201408,-0.7956543846966203,0.6020996197252265,-2.4803148106193413],[1.0377533197186304,0.303934882705086,-0.07642738332657215,-1.0287110537683184,1.8137490611056142,-1.7381823941570216,0.8544121473840848,-0.44260898765844,-1.8341452108275214,1.6960444621402966],[-0.82725912391559,0.36210031439978324,0.9522538356133439,0.10291004241281806,-0.06270950852602214,-0.028631451994482512,0.5743843583832243,1.1991843588023072,1.23605512045441,2.1595496353920813],[-0.5928433834412894,-0.16559021870374568,-0.4708579064639801,0.9649944841684515,0.1820533247683233,1.2947028163871583,1.9283043705778988,-0.6009988506581612,-0.5621961372867508,1.3920848153583698],[1.1137820428133784,-0.7142855335260917,-0.19851554667316818,-0.5057729222339801,-0.10437877037024493,-0.3374888674415734,-1.1615800915033108,1.7298069830467502,-0.34774522599480817,1.6945375605604494],[0.33852407433403975,0.7535164034255979,0.5772005789319985,-0.39242462293710145,0.8659251674999756,0.277386470418515,-1.3346722035955638,-0.949920479338982,-0.5943053169803473,-0.7049038666027735],[-0.6797424958660544,-1.0206607640204515,-0.4557658284676086,-1.02146345744615,0.6085093000298331,-1.4895535635717618,-0.6902070920167112,-0.7965689292722944,-2.1933254807953775,-0.8412946623260152],[-1.9210564069766727,-0.8271895355670248,0.6839659944106616,-0.8750796264483571,0.16564792907177694,3.2886947185517643,-1.1354859081634285,-0.10953346434200664,0.6224314634959651,1.0840993715510918],[0.04263256961028289,-0.16899393649545877,0.9274152599261841,0.7114746168301916,-0.3688416805341692,-0.06668232112487417,-0.4481953301501204,-0.2920028375202194,-0.14395840160442047,0.11624929602853454],[0.3825416457926893,-0.21129185048756668,0.33764515192388567,-0.03377613563852059,-0.17046290333200032,-1.8185009943056238,-1.1593350212104743,0.5723962858089849,0.032726571875818594,-1.1033709331680683],[-0.9124454043684116,-0.2964324525211314,-0.28599082559952044,-0.47143535425578215,1.1586181269403726,-0.3207939752522479,1.4884746731377265,1.28977485166084,0.15882687471644874,1.9450278926982991],[-0.4730780306905155,0.8586737091431893,-0.860075075620976,-0.0701973507205092,-0.6757205780063033,0.2935026678774568,1.5435068213995602,-0.8726999563263221,-0.7220496962400001,0.7352444787562458],[0.4559864789340376,0.005523297094989185,-0.9725149525578332,0.3690832316580158,-0.47972502239975146,1.0208640774670548,-0.23264949253059092,0.20622617850368682,0.5137495157641475,1.8177868032271052]],[[0.31127657122963354,-0.1510428915422855,-1.514297554301968,-0.9143750797964177,-0.22516843109493256,0.16941950752544876,-0.0332246932180639,0.33034123975781554,-0.4070652355768884,-0.1126971105067348],[-1.5322126944236913,1.3359462468781609,0.157133684205486,0.27036632125864574,-0.9313284312432583,0.038792980504761106,0.08072184827790502,-0.5045159320937619,0.21913306620839662,-0.5890042099235494],[2.3815506583254455,0.13313347617916155,-0.22095078516080044,-1.4494584943175746,-1.2222767114431405,0.24982638571714746,0.6465653329811186,-0.4318623384103616,1.4496300220618314,-1.3321229423316538],[-0.14068293136351323,-0.19854420946859547,-0.839890248693974,-0.18452659912782088,0.8453574746941052,1.1819356869152942,-1.242733356378277,-0.7503320680151679,1.1278767931314433,-0.29779470563968197],[-1.3579546361265349,1.0228437290445864,0.6147151519371331,0.3453673292970432,0.28737245056225985,0.14847581426089626,0.6455146997140587,-1.2754444560507525,2.981897084674364,-0.10116769470285686],[-0.1907633783486313,-0.722773907901195,0.56294936351944,0.7048709358357543,-1.6585960800939905,-1.147173727194326,-0.904390654961855,0.40454634941285345,0.7286111872028835,-0.5171834149678208],[1.5429335465309184,-1.2209783028619972,0.1399057373134974,-1.3420274937911205,-0.43045002610107086,-1.1010260090455033,-0.6720913327116197,-2.630592996172782,-0.3871550338035276,0.39320568899079705],[-0.7335149660135134,-1.2710975756452214,0.9969593751702079,0.5499694249635151,-0.015962816758524366,-0.6365608538817221,-0.23746189982951305,0.4630225969122765,0.935718766140241,0.8379629233498309],[-0.9207721005685666,-1.1939007322511714,1.26161763458881,0.24669569943383876,0.6182912746483358,0.5042053575128144,-0.49151332982451634,0.4205538965840808,0.035732131516472754,0.6412242719317278],[0.9162533984236457,2.0385671632609785,1.0842382741550376,-1.0594083953939328,-0.5296097201289407,-0.24355885304110808,1.0232918588769937,1.7128158469684138,0.06156283707876344,-0.1327620446584253]],[[-0.2426068786026048,-0.5742490637918271,0.3746917722923625,0.20332776022147567,-0.026416463777622117],[-0.29868704122588896,-0.40785648516372064,0.683951989058063,-1.303268324533365,-0.8429282188542336],[0.3033856353750797,-0.2539827695964678,1.3345423708897388,0.7398224841410287,1.0450818505570059],[-0.9484137515599647,0.3907517658844063,-0.1429079211315326,0.3535453474210553,0.9855044389580865],[-2.1370250752537707,0.4334290531880522,-0.01440905085426342,-2.5127089612303424,-0.766949683145607],[0.2784712449152522,0.5652393426593596,-0.2644937231899537,-2.4808007394910407,-1.0568316430306526],[0.01711997291927868,0.5146345141397373,-0.48951811036877185,0.42170689955876645,-1.4014524799802264],[-1.174066749412332,0.35004860171834734,0.5322658513623243,-0.8029436803161972,-1.3424955546103268],[0.9064698405547293,-0.8475828404938057,-0.7661386588268938,0.37459204250635586,-1.43387743387035],[1.7929102753435164,0.507787107652471,0.27299258274563915,-0.6784567504325684,-0.6041357639054481]],[[-0.08290933586710507,0.29757968985352495,0.5301797010278421,-1.611010815969505,0.2886559800168333,1.020534706385502,-0.4105017871573825,-0.10983668425824407],[1.049646203261108,0.5413522210647943,1.0466844386789,0.25894827375565016,-0.48947647216807355,-1.1748490733228563,-0.37442300125231825,1.1212843264375452],[-0.9487996449842927,0.005435315426400183,0.10050170729248543,-0.9171225415299183,0.6624815175923521,-1.2237845571219856,-1.651616032234592,-1.2279135928219778],[0.460070805596635,0.15752526920280663,0.09858455406738578,0.03681061082950955,-0.37475692971819197,0.8810788171394199,-1.6507974811777566,0.9425798781373654],[1.074204059141044,0.9750128972972846,-0.14688976088417638,-0.46304877746757356,0.2340950121975073,2.024971249360388,0.38378570819195823,0.10254286054984527]]],"biases":[[[-1.147611461608672,-0.32228016135939536,-3.2923430848285844,0.023607780194873505,-1.594660795417319,-0.4559910386790706,-0.11849208625574628,1.4297352837366764,-1.5810268682700248,-1.1779452786644942]],[[-0.30430541003246653,2.6725873813175367,1.7236520263467219,-0.5462225921315704,0.2353597025430834,1.2304689913365345,2.8330408359389554,1.6346388354604877,-1.2518475216345923,0.28578848552698694]],[[0.1386144064239844,0.8316603943196162,0.35605684319886477,-0.19517128289663005,1.6599930150660323]],[[1.0838235737832367,0.3702154504727256,-0.4262003626739018,0.15789182740666569,-0.6961806232190021,-2.600514723985795,-0.3958116749100753,-0.43369187034598267]]],"mem":[-0.9863339854317662,0.004465301888596948,-0.5358589592787947,-0.9959698234950828,-0.5245977583885009],"out":[0.9517962106198067,0.955970525741499,0.3815308617513526]}}]],"params":{"energy_per_cell":5,"step_distributed_energy":0.001,"initial_energy":100,"action_threshold":0.3,"attack_damage":1.0,"attack_energy_retained":0.5,"move_energy_consumption":1,"reproduction_max_energy_use":0.5,"reproduction_energy_retention":0.9,"nation_mutation_proportion":0.1,"mutation":{"swap_chance":0.005,"mutate_chance":0.02,"mutate_stdev":1.0}},"steps":1,"counter":1,"bank":-95,"queue":[[0,0,1,1]],"dim_x":1,"dim_y":1}}