{"world":{"cells":[[{"type":"life","id":1,"nation":0.04197786057698863,"energy":49,"brain":{"weights":[[[-2.121327613063247,-0.10359144504105725,0.1596100063653002,0.38972553384695213,-0.35353839911647006,0.535838267183894,-0.7037513414197556,0.2845870767913614,-3.60624134574473,-0.5299509141081234],[0.45960977047829005,0.5125675157664036,-0.29416004396461304,-1.2338393847695441,1.4110204397231774,0.6250447871727679,1.2000397389019215,0.4346577641828477,0.2391811925320004,0.6537723307734837],[-0.16244628643753625,0.10956381367860589,-0.7720331071610306,1.1601631593198805,-0.7549478935991096,0.9962768830151498,1.6875653112036395,-1.0533525023140233,0.23780240730073612,1.1382724599308596],[-0.9020506084761212,-0.375616854858981,0.6747414801477929,-1.9430626042158836,0.037640066269860294,-0.9826719671907846,-0.10090724583346072,-1.1173107411697618,1.178724039243532,-0.6032375899625104],[0.2104878515615625,-0.9465448423065351,0.22039442380116478,0.4625362245197677,0.9034268600611909,0.11532277703613981,-0.2232996440560452,0.3916182776861183,1.510271638077252,-0.09427962690687638],[-0.5153587995113558,-0.6693138541435929,-0.5073829061738783,0.7411966797396028,0.3439982176444238,-1.3194899545227818,2.261912328402565,0.948783292951371,1.1054429297892299,0.4600321394120907],[-1.6919439613517415,-1.0658001533009076,-0.8528830225068981,0.151808521351178,0.7000034346514029,-0.10868114020581802,0.12661248591682062,0.41604564118978404,-0.8325678722713572,-1.254409328757924],[0.3057587760867489,1.8010059799672073,0.18503262183860536,0.5704631686858581,0.3846661805777897,-0.6979486637763624,0.7541641915296514,-0.2622091608745833,-1.9328493439017342,-1.2825497247559918],[-0.7585939740230286,-0.6164418326621531,-0.31522125461097245,1.0537182536832053,2.2691019613573795,-0.7334548116272424,0.7764386234794046,-0.29942075807595026,0.18710392390127498,-0.11954071671961995],[-0.549738895306129,2.1948325450477557,-0.5818657589691441,1.776224205476907,-0.9539851664020477,-0.20467774662170682,-1.7723274834302223,0.5181010514843053,-0.1155232280513872,-0.3552363454893104],[-0.06131194849433561,1.4263665859932957,-0.7492501432268099,-0.9013671244070778,1.3980743888935143,-0.6359367371685711,-1.6709843362436392,1.1540285437082003,-0.2717035661436832,-0.7602318315809049],[2.3783328020623355,0.300879195801684,1.4687360720551932,1.9455980390316436,0.22988002394399001,0.12997669208186913,-0.06804402141053001,-0.7613137925145641,-0.9688941422403364,0.9069034555156775],[0.2246780859729813,-0.5100263375313558,-0.38331780185662895,-0.8679824074570291,2.0351690301131247,0.8147888185138529,-1.9586409757966952,0.4413350127614846,0.26083050633285165,-0.5594975049836675],[-0.5080879338374565,-0.17628893201856116,0.01628593890606709,1.5428466312910802,-0.4502480768550518,0.5940002316958657,1.5049915440096215,-0.8094494733784057,1.3273873834791046,-2.1318170807964627],[-1.192353749580603,-0.8339142844537772,-0.3665072700823146,-0.3511624692570389,-1.171821096746626,-0.44267047194927184,1.1608535862282436,-0.5813880137024945,-0.4767580810821642,-1.477160513248938],[0.3426476306129652,-0.205453172832374,0.13709008430772268,1.9115528350540392,-0.657163953781391,0.07675234334273033,0.37205495106873376,-2.1146636585635625,-0.997537627043015,0.5261841840577491],[-1.2407155576839506,-0.5030587848433451,-0.29330454110115184,0.13761014805441432,-0.37350819787248396,-0.9286849725093731,-0.7445482360799036,0.6837971524112945,0.3139887508224919,1.1491777650635215],[0.7267703647925775,-0.24640459229362274,-0.2654915726610145,1.1169061053171134,0.14472482623418634,-0.7986987005547509,1.4062753396762846,-0.49721081194740396,-1.3910224552275048,-0.6906794677185402],[0.49837119125545826,-0.532410263761174,1.7476342383810957,-0.0483981414290482,-2.320072773807603,-0.3585303345783665,0.23713322680688442,-0.6059954989617299,0.15017611050861704,0.5855008072615255],[-0.3385401811496973,-1.4256887959281634,0.4812851133884838,0.5277558907367147,0.5026399242259592,1.0574083894622628,0.08012802266027653,0.3099843625777241,-1.5966401734923308,0.6077379579325271],[0.887854622872711,-1.0094515789007439,-0.8431469132364918,-2.802147519139639,0.13546740162200754,0.9191397204313214,0.29585421702068987,-0.5434993107307413,0.12366431464588512,2.025044429795227],[0.7988962683955878,-1.2701110942481906,0.21377148014300837,-1.2189813663857398,0.20692748450160317,-1.2902668347241135,0.3591481763251984,0.4122619883570513,0.3469752613149152,-0.7028227953719752],[0.2786200349708948,0.6913650113326235,1.0723616131463094,0.9871318601467147,-0.5381600277220074,1.2611609136982516,0.7632013972499462,-1.4619290762473751,-0.9736418671661158,0.0260363078542799]],[[-0.4044251493718001,-1.8740604591184826,1.6063995139921368,-0.14446476145417983,0.5434275700478806,-0.02430925820348616,1.6929721070248656,-0.37029151546492367,-0.08101642463393939,-0.9537579569856108],[0.34628090594623145,0.9700535357884067,0.602451624662018,-1.1683767809468262,0.6963522120309433,-0.4909999339975588,-0.05173123095582215,-1.587424748120019,-0.9665231085172938,-1.4311237030068829],[-0.42673756921917083,0.04930083640150729,-0.5546820091959481,-0.13214005410823695,-0.8752540086625341,0.8608499950658669,0.17112272648770857,0.9468281822656535,-0.7747483965837053,-1.5377117156238878],[-0.17842046426338282,-0.6937803533517345,1.010762080627679,1.448728762568544,1.3760057753901862,-1.5460601339233355,-1.3898070635082895,0.6818522041321667,0.250033646460472,-3.190140298636791],[0.4407268549969919,-0.34155627275183187,0.4162796913701761,1.2342587501909035,0.5249244689158576,-1.1406449235069203,2.706029535061084,0.32120807261075784,1.5547190513250007,0.12321850918756544],[0.0029185840637284354,-0.2901671152074589,1.4167412149454333,0.9616573663261323,-0.2498614367268332,-0.1001262046744911,1.0666191645592984,0.33954556289931775,-0.5717424718184504,-0.814203622679265],[-1.1164470558288535,-0.2736745126462361,0.9763540502144761,-0.795868953702292,1.4244129476952794,1.329747440838555,-2.4153757292068336,0.645149179496833,-0.5370927312530526,-0.07034197643335158],[2.7769917253751233,-1.831475227087148,-1.5286839557511016,-0.19205930448050726,-0.6093485737356543,-0.4625767396789779,0.8619594264171232,0.5196662511136492,-0.7150636814227531,2.0421688662652704],[-0.19944016996878117,0.5519594065207786,-0.23126283850545426,-0.17264236229133462,1.2854021442202406,0.6622778777383109,-0.34075521492931876,-2.3765161169804085,-0.8045189832382884,1.4026712314060232],[0.9590071577109236,-0.4158551327063647,-0.8488049215303007,-0.3579070710995253,1.2477529057747974,1.229024677271111,1.9171431271463855,-0.32920642251784427,-0.5132447183933387,0.6418720234864026]],[[-0.9623627869125179,-0.40246731084513193,-0.8698988855022047,0.042366538209252576,1.2321110899028054],[1.0360017888547768,2.726010190204043,-0.021560447792095174,-0.08611607914636327,0.5102082723211177],[-0.930084397169704,-0.2697490350349855,0.3289306579372758,0.6651618058922447,1.6799809684259532],[0.012662854997172542,-0.28427231530204466,0.015280057196073699,-0.38831001071707505,-0.2990731089626975],[-1.645655575414295,0.5269263554189736,-0.8727566383864939,1.143742243950701,-1.8282105493316636],[-1.771700930913435,1.876811634086307,-0.43621799554690815,0.9753748421873242,0.0222326744713395],[-0.13887942973628914,0.8750786706668399,-0.5230406356931088,0.18122288648105003,0.11254099743045819],[-1.249048124716509,-0.7836261183403856,-0.08778085508092549,-1.1028390379622428,1.0861599906562973],[-0.1720656720468902,-1.0223489967400272,-1.3644124872209542,-0.05348127373328707,1.6609082456032642],[-0.865037086506621,-0.8097226760595616,0.00033404670892204217,0.24639374048832513,0.16583152535227072]],[[1.0468359823193059,-0.530366487929019,0.4642487259932372,0.3536449966139908,-1.9917453241060725,-1.0424843779353765,0.6306652878768566,0.8685634782314938],[-0.5353360212936147,-1.5970096721576807,0.8618350908206179,-0.7999781267287404,-0.1735043857567561,0.353696563519264,0.500384557991809,-1.0907863477232893],[1.361300766683966,0.6933071802201686,0.10234178410131069,0.1385214185384996,0.5061462228026087,-0.9252292878374125,0.5075633511579398,0.4067284720646883],[0.9437903858993713,0.36918634593215355,0.9947996502766261,0.3929497743320702,1.0599640696053199,1.745069808975054,-0.48278310365578864,0.5836480180965026],[-0.8469973098888463,-1.0356256371569021,0.04841913062884555,-0.36791891697880236,-0.9876745419212786,-0.05826545106277162,0.8538957067530751,0.632749829653754]]],"biases":[[[0.23662008064338044,0.6287120992743054,1.3436843810974755,0.21944296904054583,1.850520821081712,-0.5650023321537888,0.06549272484165711,-0.4390369566276592,0.7024728204170925,2.312772774422681]],[[-0.6806549549899654,-0.6892612763790118,-0.817218402503684,-0.04620378491900775,0.0956187702512685,-1.0695884404596883,1.0017279740404543,-0.19041256089042582,-1.8205139318080001,1.1194883994668139]],[[-1.4209292126394726,0.6900668887768269,-0.5840895735956747,-0.2263611992071645,0.7414904975265587]],[[0.933414715489339,-0.9492398501302014,-0.28666369032435224,0.018393204197168143,-0.3996584643987631,-1.4101030836999382,-0.5717665901477035,-0.16948029412685253]]],"mem":[0.4626838919534742,-0.09570616576186738,-0.9779873783215399,-0.9659635716216706,-0.7279627954636847],"out":[-0.24202875215604652,0.6526455813671215,-0.9837499601820243]}}]],"params":{"energy_per_cell":5,"step_distributed_energy":0.001,"initial_energy":100,"action_threshold":0.3,"attack_damage":1.0,"attack_energy_retained":0.5,"move_energy_consumption":1,"reproduction_max_energy_use":0.5,"reproduction_energy_retention":0.9,"nation_mutation_proportion":0.1,"mutation":{"swap_chance":0.005,"mutate_chance":0.02,"mutate_stdev":1.0}},"steps":1,"counter":1,"bank":-44,"queue":[[0,0,1,1]],"dim_x":1,"dim_y":1}}