{"world":{"cells":[[{"type":"empty"},{"type":"empty"},{"type":"empty"},{"type":"empty"},{"type":"empty"},{"type":"empty"},{"type":"empty"},{"type":"empty"},{"type":"empty"},{"type":"empty"},{"type":"empty"},{"type":"empty"},{"type":"empty"},{"type":"empty"},{"type":"empty"},{"type":"empty"},{"type":"empty"},{"type":"empty"},{"type":"empty"},{"type":"empty"},{"type":"empty"},{"type":"empty"},{"type":"empty"},{"type":"empty"},{"type":"empty"}],[{"type":"empty"},{"type":"empty"},{"type":"empty"},{"type":"empty"},{"type":"empty"},{"type":"empty"},{"type":"empty"},{"type":"empty"},{"type":"empty"},{"type":"empty"},{"type":"empty"},{"type":"empty"},{"type":"empty"},{"type":"empty"},{"type":"empty"},{"type":"empty"},{"type":"empty"},{"type":"empty"},{"type":"empty"},{"type":"empty"},{"type":"empty"},{"type":"empty"},{"type":"empty"},{"type":"empty"},{"type":"empty"}],[{"type":"empty"},{"type":"empty"},{"type":"empty"},{"type":"empty"},{"type":"empty"},{"type":"empty"},{"type":"empty"},{"type":"empty"},{"type":"empty"},{"type":"empty"},{"type":"empty"},{"type":"empty"},{"type":"empty"},{"type":"empty"},{"type":"empty"},{"type":"empty"},{"type":"empty"},{"type":"empty"},{"type":"empty"},{"type":"empty"},{"type":"empty"},{"type":"empty"},{"type":"empty"},{"type":"empty"},{"type":"empty"}],[{"type":"empty"},{"type":"empty"},{"type":"empty"},{"type":"empty"},{"type":"empty"},{"type":"empty"},{"type":"empty"},{"type":"empty"},{"type":"empty"},{"type":"empty"},{"type":"empty"},{"type":"empty"},{"type":"empty"},{"type":"life","id":11,"nation":0.665096848226818,"energy":99,"brain":{"weights":[[[-0.5374537153987977,0.025964719988493718,1.1537227244238735,2.070931537221876,-1.5679980120257397,0.8522852954399031,-0.9322991555790655,2.2986549541550128,0.463366792056126,-0.6577482306541419],[-0.5818984521204297,-0.7614390048013744,-1.363527977977552,0.7672944601172058,-0.47647100511109475,1.6294320482532347,0.4821707598411982,-0.10344464140365225,0.8054434993967546,-1.8931205335357113],[-1.05875082902631,1.407558882270958,-0.7304749215530832,0.1407481288293192,0.033998715527647355,1.1782574084429578,-0.95725946117614,0.33535088534108326,1.508942302973402,-0.29768397622424525],[-0.047401398517431394,-1.0148899218997596,-0.3980286118506393,0.2548523200160213,-2.0242946920093403,0.9834066153032556,-1.5582315759074392,2.5092115920304727,0.9368341004109703,0.6417461959524091],[-0.6558466669635513,0.8272599557619181,-0.3859547936557905,0.6920579835565498,0.9428608463500341,-2.545156478197847,-1.8767935361640877,-0.8665869894493671,-0.03828758084559081,-1.3498789478482147],[1.3869991391474221,-0.718448144883688,-0.23015008639527967,-0.8642095675217349,0.04252623076741221,1.0046927548089517,2.613767026056292,1.333914710586,0.7431703665289868,-0.6070833872040018],[-1.0138121992198192,-0.8349667055551194,-0.39123773561962943,-0.7072243002780304,1.8459109615734097,-1.9052681831321283,-1.1156141291369934,1.8381971864962365,0.2257347517245223,-1.639193398308975],[-2.270874330097927,1.25536417988064,1.4407743770672963,0.06978351418056274,0.33023871387658243,0.02921445943886588,0.19626481769826634,0.033270516786623024,-1.045565977765601,1.2049923529722588],[-0.6810880288614308,1.4142398215099672,-0.6719808567975465,-0.8711444164963228,-0.892585067531692,-2.165407939044768,-0.07871533488373904,-0.3435783932732907,-0.6297448752366369,-1.2051962167961598],[-0.21841924881890296,-1.2058339232410062,1.0045814397124189,1.1779953220717896,-0.06582052085098773,-1.3512470190061139,0.41078247938116985,1.2946500755680088,0.06816568021674502,-1.1091795386938166],[1.702447405279934,0.5546212047222009,0.5841269997459618,0.04679855060744163,1.9122279251217178,-0.04306812685856602,0.9404792533989002,0.9936080262445586,0.05084195053508885,-0.3669800903327609],[1.474027013499802,-1.6691725069760943,1.5669974133311082,0.6873944997602636,-1.1205414503313151,0.707452961672203,-0.6159711100711345,0.12331661346583446,1.8111529810494376,0.558477988685267],[1.346001518759243,0.7031360025577981,0.18357443891396602,-0.435928492568765,-0.16007390588679474,0.27701421615473726,-0.3235540541188437,0.7999069105733608,-2.393013110941195,0.3175713210267954],[0.03538504359561283,1.8044755664012329,-1.3418738436627065,0.35118467880628074,-1.7688750032832614,1.022758695202908,0.9508009177661296,0.5415212415802251,0.4233730087430395,0.18503214318958836],[-0.6861253103265266,-0.001432766149412745,0.5717313423570277,-0.993366055335104,0.1545045429175162,0.35581271735600234,1.3424034989973916,-0.08488837318134564,-0.2887679397847877,-0.1759964697653975],[0.8704949657893993,-0.0037263817027741557,-0.0340267721233647,1.4642285587600679,0.4723691078228023,0.41743565292854756,0.8713579608212131,0.13378035284015283,-0.15556453393949898,-0.6109634177518534],[0.659760145951836,2.048200803848605,1.4616000391368282,0.9601558864019181,1.2552501256013517,1.4262166033777102,0.18557265603050943,-0.5029152107188846,0.15183097735921125,0.14142433644361363],[-0.3748041929721989,-1.070363092205909,-2.130826297252203,-0.14138565514678825,1.045512580962089,-0.4314100980369884,0.49652164099404883,-1.8163600595100784,1.7325805151694922,-0.9552254396841514],[0.13579939279642442,-2.006202938389341,-0.5631481853525464,-0.24766300045413087,1.1821698001655199,-1.6924594410890437,1.2098724674310726,-0.9185647730682485,-0.9037495516311719,-0.8130031860230912],[-0.6169922213669687,0.302299810342944,-1.813164552495281,0.8633121190162474,-0.41924741753427364,-0.0915362395841617,-0.4780143347119832,0.4420111704453065,-0.09580740690831334,-0.9300941728096036],[-0.6946159739716128,-1.1685433261865859,-2.28951341392796,-0.43233726651385584,0.3660107846917089,-0.37717840490875015,0.08354828550383366,1.2984835282839788,-0.7423888038184172,-0.33838196797572195],[0.5655928836370753,-0.397400547020442,0.12254512696736217,0.8325327153259789,-0.542254820632264,0.6625051950028609,1.0145213701065627,-0.7531000347709224,-2.729679965953244,0.9313940479401133],[-0.8160082663222316,0.2940189561117707,-0.4256328557155501,-0.18485967972272146,0.4536576214931527,0.9184871648874098,0.7159960347858136,-1.6642450039443746,0.25791418635738567,-0.5223055425687156]],[[-0.3810952274275043,0.6870690519287962,-1.3821948201371317,1.3895747887005336,-0.41048889096526514,-0.23839391935260917,0.16492224840109937,-1.046262972222792,-0.051460999428568056,0.8890237370418004],[1.18715661412959,0.7569123809284056,1.0058362045689166,1.115261551305088,-1.5856424985468456,0.7975623690301313,0.5309938282170252,-0.5508313628277633,-1.8173461122609311,0.8577123900205129],[1.3781707552122466,0.12016508308101125,0.6209354876244938,0.05591555576809367,1.131503737787598,0.38008338058763574,1.0808937838471069,-1.0032647437647746,0.29915473729267683,-0.6693168602144838],[-1.3030854422437368,-0.8197191139604854,-1.099762876547562,1.1606794442500235,0.09049331536641288,-2.3589077995600682,-1.8546182525831174,-1.3941327372746122,-0.25180453137451275,-0.42914815872160594],[-0.3149101065657516,-0.511347026509115,-1.3890457601979151,-0.07277035010415195,0.22163308773225118,-0.6660676045069259,0.21686134047472996,0.5175317432962792,-1.1206676342210435,1.0530959097363175],[1.1344478855783093,-0.4878405229240248,-0.17443220338960647,-0.36081303237457446,-0.18692881469013828,-1.1934366803970085,-0.3163372493609224,-0.5663004515397215,0.5342405524041204,0.8307150594970041],[1.5726966038550876,0.32185595542731665,-0.712203045710837,1.11409552749884,-1.7518100162446775,-0.5190785140952161,0.9232552828717167,-0.7863759672663803,-0.31472506132603045,-0.020628796434028256],[-1.2367861107156972,1.4956064576557866,-0.06938371872593981,2.0122930005626025,1.1213908867570972,0.4925280307136697,-0.9828687743342593,0.8475402560257901,0.2912060258939431,-0.7009243079576364],[-0.19583767719611142,2.885684742808582,-0.4878882048738568,-0.5591780472251379,-1.44378195089285,0.7401199962270425,0.4255889522555391,0.8315986438254994,-2.6486421200443715,-0.16860431682135568],[1.4570064436999275,1.6793170568866571,-1.9077050955474562,0.48996308048809956,1.4407319130217202,-1.084147023981283,-0.2296677797837103,0.06679893163435895,-0.8623782435532268,-0.8499125566102477]],[[-1.0012703758272954,0.9021493240251827,1.3949108378679667,0.22402852159022418,1.6159526459755789],[0.18968752499076633,-0.5233495070926718,0.12144369292995509,0.6898137426207214,-1.0221906642316085],[-0.9679120103435229,-0.44831915382625226,-1.113192399823218,-1.0389385810668645,-0.18003821549247714],[-0.8296629547054254,-1.2494882265106737,0.13079397806902954,-0.22570934460523845,1.571010924432279],[-1.1175618280277106,-1.3688143411987441,-0.8421803228322026,-0.30495853890758345,2.112167488699214],[0.1318893006642262,-0.06829768466693108,0.21518615748703104,-1.0013770497326284,0.5121497073619551],[1.360154614400728,0.734411367380843,0.36922751722280556,-1.0853743138432772,1.0761600366244182],[-1.3362621970640147,0.004844796956797233,0.6431331978088201,0.036111926979911634,-1.1832144217253386],[0.43209342423922303,-0.09132041943805899,1.2966195719617757,-0.7416698602387619,-0.23295640626283995],[0.6876018872914342,0.1757606217278802,-1.8217189524868942,0.46549235538837225,-0.7040806982525226]],[[-0.6224020003617615,-1.6061083536205594,-0.8547625258109293,0.38328365849497764,1.6884600998209165,1.5870835293615988,-2.1078404666765334,-1.8746501323233649],[0.10917892812928805,-0.4846298891491375,-0.12348849596948228,-0.9908232420167403,0.399497725450882,-1.1831913415065707,-0.6402916147301382,-0.3987134243180935],[1.5019935453888857,0.6966488463169765,0.6530118129881751,-1.0898827659460109,-1.000335120142435,0.478784067559384,1.6819398701909698,0.7142691238603035],[-0.15730638474864989,0.6132109443370711,-0.11763330652111342,-2.0307950118614477,0.22991918366270875,-0.5863446652155778,-0.9120004549013939,-0.21835714840105655],[-0.8745313773696259,0.28235424003604953,-0.11379066254459422,1.6735809216045279,0.05676793377058513,0.6628522550635317,-1.5352304642227514,0.1710722538387409]]],"biases":[[[-0.2892616748624871,-0.8877323339682286,-1.27639777948543,-0.7194409353852369,-1.0017765576885367,-1.7072595807003907,0.9305402212880148,-0.3454103868902289,-0.34195472277722194,1.7260167130041175]],[[1.2979854866590135,-1.705169278116038,-0.5223487786345871,0.4725074507214737,0.5561521438949873,-2.026654759510958,0.0961876456825346,-0.3024891505938785,0.41652660870213803,1.7496187480541288]],[[-1.7434558978122012,0.7806876798023641,0.341597921463607,-1.169551075149488,1.3659497777828573]],[[-0.4449628543356707,-0.5655831118669429,1.0011666870399234,1.2238234034909756,-1.1343200392826236,-0.59885510263659,0.5728735969745232,1.2528204447419888]]],"mem":[0.987770374575598,-0.9985085362996032,-0.916213921441775,0.9959635917170052,0.9990781048591444],"out":[0.7747805348324683,0.7361310752660342,0.9831011488039583]}},{"type":"empty"},{"type":"empty"},{"type":"empty"},{"type":"empty"},{"type":"empty"},{"type":"empty"},{"type":"empty"},{"type":"empty"},{"type":"empty"},{"type":"empty"},{"type":"empty"}],[{"type":"empty"},{"type":"empty"},{"type":"empty"},{"type":"empty"},{"type":"empty"},{"type":"life","id":10,"nation":0.5692680517379786,"energy":99,"brain":{"weights":[[[-0.8111315521792096,-0.845556374073999,-0.35300944733199824,-1.7138711094426529,0.08848887241360578,-1.0161170935138257,0.3046331912457523,0.49702292031076106,1.4531344563423965,-0.977277590522138],[0.07982877633013138,-0.3962144518307415,0.6499632104653741,0.9580561823040449,-1.8844794909174787,-0.34935826032859174,0.012804194680597911,1.145185609115025,-0.861735308771628,-0.40630762192402814],[1.5474963815824518,-1.3261501716439774,-0.6512289089710002,-0.9005670132452774,0.7651085734856587,0.7395975830799866,-1.1867217822542973,0.5693127142906981,-0.1332479011418657,1.5748934482573111],[-0.5016979557230437,0.6902100442264916,-0.3873152922415119,-1.1894258875627093,0.7482078809212541,-1.4210254201815922,0.5289782750269486,-1.1822789402208758,0.3374963085097656,0.1622647562821092],[-0.06940122796009371,0.8297229560199163,0.6967104475803687,0.44056715184516304,-0.16205645872187907,-0.9515306492766014,-0.8869121716704697,-1.6293500598611883,-1.059823192980748,0.5814157845648893],[0.8268930304090958,0.8144413215293672,-0.8512848063228819,-1.1509219603342413,0.5589398711801,1.1508142280328213,0.10375630287066806,-0.7188742024675969,-0.1947816032881839,-0.44788085509897857],[1.4475377688017232,0.42579749893151764,0.5453053589904543,-0.17967565504100783,0.6075307051769949,0.6305891914186555,0.6700831432093233,-0.6460857441209457,0.49233859651853334,0.26313997398831734],[-0.06923404386169689,1.7034110106994227,-0.8469927647706487,-0.9067513769472982,0.5917039700608174,0.011877903155601515,0.5850540864970039,-0.9741753808048862,-0.9731108514057519,0.06472417989178254],[-0.43156500312288004,-0.8321612787312955,-0.6089343824262433,1.2659790194001068,-0.07819868987082448,0.2694553376705964,1.1213734807231612,1.3915394732908488,-0.5876301223950828,-1.0595580215437193],[0.012903466424574395,-0.37389857838419815,-0.46527436293158053,0.6572255022428043,-1.4675141399910032,-0.5317694952047757,-0.3545832279130148,0.6048498849133376,0.3871161767043043,0.1809600553817371],[-1.2291582168548851,-1.1549733578049057,2.1464233053145696,-0.6357338580183466,-0.326267843589322,-1.542049890251824,-0.018549369650945332,-0.06488847570559665,1.2273770342078514,1.0219106745983222],[0.48769178813476477,0.09305553319535392,0.4501611464257873,-0.04484671444598615,0.7807399384651198,0.9252642810478304,0.7487631196705894,0.17034644996884346,-1.2761704873515607,0.48488086407784536],[1.0146715244786875,1.955099582351757,-1.8908854883393957,0.6035867506305025,-1.1227208823633883,-0.7558673092505269,1.4933526037744398,0.48992967505465623,1.1128230767931913,-0.20729600461315661],[-0.36868182322429366,0.9721625394899285,-1.400705335707854,-2.1797612168903426,-0.8063420457786677,-0.6446916318788709,-1.4771296692451035,-0.8564123308386087,-1.0604730916939402,-0.3968193679243237],[2.117868890694207,1.0393813985210947,-1.6800534015534614,-0.38397845556250754,0.9264804979809402,-0.12108875534409182,-0.6800595021735278,0.5586254516600351,-0.3229361392644737,-0.3840723485366964],[0.9954736698950496,0.3662268582738927,0.10290514566318461,2.027808752137825,0.20932947613426184,-1.9149964379199373,-0.03296726470947719,-0.8651903299822163,0.24615227031333256,-0.09456665547468973],[0.39631118864405124,-1.722796994058479,1.9570746932034682,0.31094302610847924,-0.5329715153783035,-0.832610919007296,0.23270539581745292,-1.0820350055095218,-1.2835418414010709,0.2838902002470163],[-0.5211270087039299,0.5974844743378633,0.15107079690782205,0.5979622524950411,-0.39131594896623306,1.1301874231020168,0.7141245747341024,0.8371486311635935,0.6835513210047335,-2.614010485499014],[1.6614813486737534,1.8074656286526671,-1.4410397328972697,-0.7135133664877646,-1.6059894240382446,0.5445749804676645,0.536602192761359,-0.9649472955483177,1.0294218011880167,1.2558446333188256],[0.7745691809306822,0.16681030899727053,-1.3224138469081703,-0.012279405909085104,-1.0359271678074533,-1.3410492842916906,0.004393967805104187,-0.6098938907912338,-0.30312591604693107,-0.48531180169168286],[-0.5478519988304128,-0.3760995037432747,1.0065842066994513,0.8966211290258592,0.7307680993709014,-0.3188218267795963,0.8872980557973785,-0.07107797747259335,-0.5083297780548643,0.32013916612832793],[-0.20731252729725752,-1.5573354085216002,-2.1700038231038756,0.711637910214453,-0.29557516486608426,-1.5853518255024521,0.06998910980273877,-0.05364852453068258,-0.015229537243154722,0.7986569804127488],[0.07229145535884275,0.2810060601343269,-0.47899586331438254,1.0402043535125252,-0.12242730755484126,1.1996732510801849,-0.5936404946202923,-0.16929433713774195,1.896683851731214,0.9240639536579136]],[[-0.446673241923154,-3.3477737197652635,1.0591112306276438,-0.21919776904982513,0.6562641404311191,1.0268517673483661,-0.10348772520121556,0.6611438684708136,-0.6194606128036207,1.0263911919709932],[1.1145516514658296,0.6280672320510972,1.4682839338283622,-0.59291512858099,1.146621284733948,0.32896201041839973,-0.2743439118823357,0.2712783808946049,-0.9623034206669279,0.9173571676185378],[0.32645551111455473,-0.7083263438330012,0.575967190486647,-1.7943240460923597,0.8360723426801074,0.2681742933931856,-0.05066150438941752,-0.9529036569029469,0.5504943150659136,0.020894292314030727],[-0.662211426490374,-0.9482136064861759,1.7468029262065987,-1.1134012930860577,-0.14485795502619297,-0.05605433180771044,-1.4338538952584332,-0.3533709754076745,-0.1958363571747203,1.431546648490807],[1.0118160918945729,-0.12329594470243894,0.6610987458817977,1.187591782283847,-0.9733050970865121,1.201456422913879,-0.3197657037892319,1.5430344722211173,-1.1359587592169516,-0.5904890370993984],[0.08522403839279577,-0.5545052035855793,-1.2153530981542984,-0.3125643506239471,-0.08676682657417993,1.453064494443343,0.6492066942498762,1.0945392014023154,-0.28562776251516064,-0.3870940786753744],[-0.36939935867762463,-2.304763313960848,0.22746905100727177,0.1548178259631682,1.354618307202191,0.8063299381652697,0.7040551909204706,-0.6783880100482729,-0.0838480493763253,-2.0676965136805507],[0.3788773227844411,-0.37902124365950757,-0.4405458498260354,2.427122218861989,-0.5919279468045862,-0.19057887375123053,-0.3800531285537128,-0.7662655151654805,0.6694349154401477,0.6569816523264687],[-0.5174457650852565,0.03149714144566661,1.867038448854459,0.9112421875805701,-0.8939111753664483,0.8515416370735821,0.3334596537325524,0.8443797132569237,-0.6926000439114833,-1.177338214068547],[0.5056340523338788,1.1548541880352068,0.11205891366688028,-0.5902912811441209,-0.683789205920951,0.9064596570369097,1.9449879801229732,0.7131764481819398,-0.2994374805949194,0.7338004895831043]],[[-1.170682098264838,1.2315184881643106,0.5787524044266364,0.8236398194030176,-0.21070228642904737],[0.4477157693651711,-0.12637745497020525,0.873862302724504,-0.12610230300990602,1.007410599042759],[-0.4896806818071353,1.0690438317894995,-1.042230348868356,-1.1023673929559221,0.9912479996732146],[-0.9478671633961814,0.4411304515744419,-0.8032971625184354,-2.5151157810940385,-0.12925916503466067],[0.25747897520850616,-1.4700493871600226,-0.13543704586732308,0.8950572247063749,-0.06456249207179229],[-1.0477474603956174,0.7905505638402802,-0.016386421409257286,0.9319738256469147,-1.234012603241244],[-1.1725310369015685,1.8188959294141382,-1.1038712012286362,-0.4599488088022284,-0.7087419221045768],[0.49656268863795033,1.4350732423071273,1.3745687600144587,-1.5222719541869312,-0.23172593425049562],[-0.2038224029348327,0.8487777006938741,-0.028292905017059368,0.7402233879032234,0.31689788755777],[0.03685192089707137,-0.20251738137127742,0.8594120783457064,0.4153792553038427,1.4521356586872518]],[[0.4916542036742627,-0.8220162704790182,-0.581861467612663,0.05001285872428581,0.16846431605683979,-1.2311436586572089,0.5023492054881367,0.4443255208669801],[-0.07998401768072912,0.9052478081282016,-0.2202735730659568,-0.43723602543989787,0.06335818091832994,2.443937041488643,-0.6346832377157064,-0.9814624118318032],[0.46483168808359226,0.6317008663615529,0.506725237973738,-0.2683494825599763,-0.6794633198193988,0.3191246154874306,0.09995219881648118,-0.14592738337152833],[-0.8129302082129508,0.4067203328107348,1.1842834457728415,0.6057849920970152,1.346013673952456,0.7867519170030421,1.5202498824468096,0.8313684554363174],[0.3460208936034965,-1.4388883012375937,-0.11571430794642881,-0.021708555469100617,1.6882241239614446,0.8559434832723785,-1.8789476573230117,-0.6556551917847591]]],"biases":[[[1.1198475404093868,1.0551520763944162,-0.47470873840202804,0.3926163137809873,1.408824692540726,0.4305500001526517,-0.7772115430263753,-0.8472774382060164,0.6447343120727429,-0.12118359056249374]],[[0.3421070590830588,0.18289760204633432,-0.7226414822987951,-0.38011564672646914,1.233851083827814,-0.9338791558055823,-1.4529727121559264,1.6207559409945491,0.8835733867799391,0.4415706065322798]],[[0.750138312704643,-0.18617059388322893,2.221327699664051,0.18903284936797357,-1.6603623720411878]],[[-1.6166584370407298,0.9656860773052975,-0.68880043207471,-0.4080279801596647,-0.7532389489018811,0.9516766627647698,0.2900995274365235,0.8651174115678586]]],"mem":[-0.9234324056565655,-0.9995509021412734,0.6452171965610574,0.5195752492123441,0.03573531081172934],"out":[-0.2954804106616182,0.9904018013635171,-0.9624535666049611]}},{"type":"empty"},{"type":"empty"},{"type":"empty"},{"type":"empty"},{"type":"empty"},{"type":"empty"},{"type":"empty"},{"type":"empty"},{"type":"life","id":6,"nation":0.4192992517225996,"energy":99,"brain":{"weights":[[[0.6231485270067858,0.31346893544294496,-0.34371548627712945,-0.28103230543856866,-1.4495462421217282,0.10548470961403164,-0.045398446304350776,-0.0688179426441974,-0.23461563797391174,1.1675370961250715],[-3.524745386770537,-0.39235387040381065,0.15683914198939358,1.3036463973531411,2.2594093103470714,-0.9152112024467866,-0.6531413976081227,0.2123911969636712,0.26046557775910884,0.5065074772698204],[0.4907180222457073,-0.33444226380825864,-0.9009364890830286,0.08021742476548155,-0.9731065803579265,-0.8586187805713845,1.2435294659585612,-1.6964727529761896,1.0573283105105744,0.6668401253008688],[0.29455680002600404,0.5335052091618576,0.8471731673188663,-0.7446950648941103,1.0234636413788245,1.0978444456594088,2.5657766143569574,0.13162119395652513,0.20083058797675707,0.7403072048429042],[1.4202120849396156,-0.5813281407914882,-0.309601617149252,0.7097287284333715,-0.8602191894110354,-1.8128566667366213,1.0666236041893826,0.42820084738426445,-0.6201857701696701,0.29263824288758544],[1.1197949434143548,0.44129526629048615,0.41124121169268374,-0.6441116981721617,-1.382988758447139,0.6844555298418405,1.1132186517510356,1.5869621284016697,0.1843100902071387,-0.17171122929322732],[0.9717588064869502,-0.2263387853799999,2.1700046406242532,-0.20157691838616829,-0.4219255562741038,-1.2482325540821622,0.16479621580024453,0.004788616730133505,-1.006788132309136,-0.8389700588357144],[0.9231324442463243,-0.04530628740465986,-1.2426909009536424,-0.43289802598648053,0.39426719077665334,2.1632868129765157,0.4802887056524503,0.4621688339027745,-0.7246615900670325,0.6591614119432773],[-1.7993383883303864,0.3382436057268922,0.7205370041954778,-0.02130030654908812,1.3784208899944765,-0.3410168293425716,-0.23553761364105208,0.8581059862408358,0.05062258775344756,-1.6433101769830214],[0.26382898543552896,-0.1911976575571772,-1.1928353206381532,-1.0758030412061614,0.5799941422362132,-0.21920843875112292,-0.10741237585591133,-0.8039048467826528,-0.08325709187842446,-1.6329525916656626],[1.9101475011363414,-0.3094237795021321,0.22149886874361546,-1.221732059345602,-0.03301439052877991,0.3159113581752717,0.40056993145648584,-0.7991777088627808,0.8977412414948407,-0.3414962130313384],[-1.2465561398975955,0.6220846733177093,1.8133058990751543,-1.6218191702400342,1.6005500622937139,-0.2971720266490125,-1.0241050288521951,0.9773349420984602,0.3409350138361921,-0.028924569920805946],[-1.5982675292071686,-0.44452771371196304,-0.18098520721708136,-0.33715691404230735,0.8066818297901412,1.429625959825249,0.2411779763350969,1.4715921441418587,0.8690952673189352,-0.4280591780555709],[-1.6991989857344583,-0.07017908447337522,-0.4364836695557265,2.217469213339142,0.7618955688458195,-0.6776206238732564,0.5352344373993221,-0.0014483904637151968,-0.22903405231340054,-0.3169262447879947],[0.8652081718054399,1.7273922393151466,-2.0160864575098225,-0.20229880460956742,-2.339164748066548,-0.9874387372893287,0.5136081317017549,0.5377474679973048,-1.3504945403525999,-0.15645337393762362],[0.30025122100844515,1.9673900108696105,1.0574747388217218,0.8258917164883111,-0.6529090132706652,-0.5503699962716765,1.6479669439763043,-0.493965028704616,-1.5851616418998327,1.1307549695886587],[0.926519382808685,-0.5904480959486222,-0.3678247541088554,-0.14084071230956247,-0.5351187678608202,0.7155045328029853,1.4073079564210134,-0.3038945850075504,2.1273087967908326,0.24397378318599194],[-0.3677594899610419,-0.6068049112228742,0.835809919075667,0.269691424888634,1.5338859651834789,-1.2824919505924994,1.007359884142977,-0.36969843906326144,1.142365779814927,-2.6247076163966723],[-0.09657629846663338,-1.4014450596273076,0.6520745693552449,-0.3347170095893248,1.5228980081404209,0.03191015912764088,1.2811839681781545,0.7615745423918338,1.9648313156157666,0.47571923052763776],[-0.10460219804687151,0.7590808175800363,0.26841256330351665,-0.9530930675016672,-1.2235486425552642,-0.46267012705758703,-0.507605242288236,0.9028777361803626,0.5132324613630568,1.5746912614024577],[2.034510407314704,-0.029798178402073848,-1.1147471605807053,-0.8727677879951692,0.01138035855766798,-1.4516541645926782,0.5846614589726972,-1.1296995887502135,-1.823705702230206,0.09419302269990519],[-0.527062397870403,0.28817467141388364,-0.35489693611396417,0.4477384632165876,-0.29432774028754544,0.006125497259361493,-1.3016405845529198,0.6096091026914161,0.14736015557515117,0.46866218071650834],[-2.179661178377659,-0.3149907951020164,1.4601671489646266,0.059639528658488455,-0.5981556300940269,1.528271188553899,0.6089606993546559,0.4452699664186735,-0.07047419272034137,1.3809245402576062]],[[0.009312973587792591,-1.1312266962360997,-1.0813598041814587,0.2751367349538394,2.2347553719702815,-0.7648523434068367,1.6889843860791427,0.24786147756307605,-0.2563027530525685,-0.21544755758623982],[0.8698161977201874,-1.2199649071531498,-2.304955598685579,1.6171562120655283,0.5698142005707181,-1.7052136702311758,2.221015196644059,-1.0908650320010247,2.1790161629850764,0.17542690690441728],[0.4357296881088246,-0.9472269524292767,-0.5241701606994074,0.7454382787516413,0.4311278498429357,-0.7538862308910144,0.2538868582946445,0.1271685794681134,-1.1705728532767379,-0.36153334035283047],[0.6155100341259429,-0.3367683698836048,0.22134017209081921,0.4725351805352619,-1.8812463259934964,-0.24703456050709544,1.2890610191853753,0.8627438646093116,-0.49365620723441916,-0.5954480128212752],[-0.014631181413175025,0.9814688734374101,-0.5812874588676521,-1.336211372076349,-0.6807110311103328,1.4593660705978226,1.0410883980441246,0.8434831976618786,0.9262704548517838,0.722922199955041],[-0.8578778825919068,-0.9427421215770014,-1.2398628923408677,-0.69337509363092,0.3375638017076743,0.2573962714746197,0.5030471216957423,0.09288980278296136,0.9049345960422746,-1.1411675563349375],[0.9388397892514847,-0.2698707660242577,-0.788508253151135,2.143502992210746,1.4777043220574746,-0.9846137402466413,-0.36180845215439433,1.7473994999818097,0.14970848082880275,-0.30587726652996533],[1.1915914042924145,-0.46705694248781404,0.3996331327614524,1.8611754436493468,0.2728908040304865,-0.33730287093325784,-0.6531265647905585,-0.1027341139528513,0.44929539063429325,1.490278734262847],[0.5061324856799868,-0.4329529362574142,1.1265908570296268,-2.2058601473628756,0.19491396253631157,1.387235482245606,-1.0241729959077663,-0.9041427665686917,-0.2967111410649107,0.3464628819511653],[0.6760983145547101,-0.22426524461474803,-0.1480188943105593,0.8645924171346395,0.8972436629527626,0.37787747475840683,1.1355448491876012,0.5341234256060388,1.127132165031073,-1.2339370411336967]],[[-0.2028559716962844,1.5411956588519506,0.6917221251902691,-0.5139278040175457,-0.5484614862107146],[2.1188667770737575,0.8251381706912811,0.7216359686862441,1.8260758112052213,1.902597173847868],[-1.4065222415613359,-3.0642263031404315,-0.7514102664312907,-1.89853662522194,-0.9277994359805074],[-0.9888013522694097,1.2396116442003964,-1.4752401562418387,-0.08083139553702139,1.527445010106944],[-0.2636478650986453,0.04151300513644491,-0.37709489214160935,0.28783622327635333,0.08518609453144853],[0.2864526034920463,-0.8098222236021868,0.969404609975749,-1.727363586227078,-0.567668534695546],[-0.4967589848889193,0.5176178772046727,-0.25210050230647574,-2.5201222934288388,-0.09743334433595388],[-0.22928589195402976,-0.6288931237573474,-0.09875894975364888,0.9125100973058424,-0.34245802016225396],[0.7644024140142586,-0.38286058340979023,-2.1176652233846256,0.03451018455567372,1.6696600069536613],[-0.2835159433525579,0.08238015899420635,1.8260278296512582,-1.3540810839108945,-1.366321065167165]],[[-1.421608253807743,-0.48727970874619064,1.2323301788165444,0.15502025163793642,0.43160561863500035,-0.18689029465489687,0.5848993420106718,0.794963083641512],[0.4411631673737562,0.9778298664757515,0.4779299474856048,-0.12087606828862288,-0.3046030613097,-0.29845904638565907,-1.0578077027479111,1.069055017825491],[-0.24107723314297533,1.044904906269055,-0.7619453775472835,-1.4554534484384023,1.055217974834014,0.8727982805294668,0.2811138929690549,1.9994897651438528],[2.7692442948572147,1.4370660821214305,0.08534075188655629,-0.5930271373188751,-1.1259248079991955,-0.6642398653305913,0.6045527138480506,-0.34666386852541226],[0.04023467143267941,0.7314236143353751,-1.0234902674102588,0.3847619170091543,1.2664119539741447,0.8058191369504829,0.6502999815003584,-0.10460954495964794]]],"biases":[[[-0.8369480154085192,0.6086753227715759,-0.66304313403758,1.7576889864858907,0.5510419726096952,-0.323907046716887,1.3535694721022522,-0.9909510593638864,-0.22204788281071755,-1.2377512002452509]],[[-0.3663246213958299,0.79571408141014,-0.2817088684386191,0.9885799606528388,-0.3023688562282342,0.4594962594347254,1.9810308628120952,-1.5743671821398249,0.9421733361679934,1.4028467175854502]],[[-0.8406616562269356,0.543684455511709,-1.0431586996589182,-0.1334623535051785,0.902670173723928]],[[0.9493744530400677,-0.2954478156324781,-0.8175620736678878,0.0725221655779285,-0.09037036116588887,0.36989883580668825,-1.480710543205905,0.8606165292455724]]],"mem":[0.9912352526400052,0.9576586929889845,0.783418409331517,-0.16013918994848242,-0.7961231996141301],"out":[-0.9967476656756247,-0.9974857600806764,-0.4084944716306073]}},{"type":"empty"},{"type":"empty"},{"type":"empty"},{"type":"empty"},{"type":"empty"},{"type":"empty"},{"type":"empty"},{"type":"empty"},{"type":"empty"},{"type":"empty"}],[{"type":"empty"},{"type":"empty"},{"type":"empty"},{"type":"life","id":8,"nation":0.7279885762058825,"energy":99,"brain":{"weights":[[[0.852246183715729,0.009359950200638395,1.3193470303869017,-1.1981733514801658,1.1005716671282368,-1.0673742206245647,0.013040665427638513,-1.7387617362588759,1.6854902828177534,0.4291556626448625],[-1.7100708832605414,-0.09792251017268659,0.16505677493779053,0.7988630967454166,0.5219146795937469,-0.8496543729386136,-0.35628675735727533,-0.3593684159075516,0.8403398854614293,0.41175998855158996],[0.12127327566251374,1.2367969319662155,0.16353905986613296,-0.10832453332788632,-0.6940128596793046,-0.6118281229454033,0.3067245919502012,0.4441886472986682,0.6132611939129997,-0.47126567652078655],[1.29444175047128,-2.150266580451132,-0.7460533051544492,0.150960932420197,-0.2837072132680681,-0.19674698543768238,-0.07243315475222095,-1.7377898022482963,0.35358207625058596,0.27162237985787496],[0.654488202598091,0.04083592443906116,0.6446565315871432,0.13557496603835512,-0.4643060922246934,0.39424482920702236,-0.5692003771186995,0.06172780546480424,-0.18442513354696977,-0.5954751460852873],[0.22217265222022833,0.44633137334034867,0.8702678862092049,0.8396658546335176,0.9915881829214329,0.8686681241234414,1.9488409297708338,1.9436035941313703,0.6806932863378173,-1.6154839132837675],[-0.8386853387802582,-0.03021316214070921,0.5708302734526378,1.0262165347246095,-0.35911367358103485,-1.1395573864124444,1.4355271990556568,0.5971126398854698,-0.2791389279105278,0.6953732513851821],[0.3427445143920124,0.21512885713296825,-1.593833593983274,-0.6626162623123508,-0.25385159064445856,1.0096562170455827,0.9723517800238997,1.5818705138077531,0.9867636952890725,-1.4966855197669544],[-1.1946153416397154,-0.45463028926441285,1.8282822219181587,0.6246331684528705,1.3822296890120203,-0.35680315794377354,0.4579368130081902,1.2175361713477706,0.3895567921849409,-1.07997332704005],[1.0980583539369044,-2.1303499887269473,-1.9066874705722223,0.6885774364550349,-1.2560623575789327,-1.5572412874679713,0.9588955102513381,0.1884026883003452,-1.538758670668169,-0.18669250923357272],[-0.6633505582335436,0.8713586628188446,-0.527633657396623,0.48344641682510636,0.6580795038330657,-0.14451639647543796,-0.16572471754069346,-0.9860651303174451,0.2625561938730804,-0.00480624009501988],[-0.9525947820049762,-0.16635595764159725,1.110270414255512,-0.2524097563252839,-0.383869607746966,-0.013194797875994795,-1.2371756689670363,-0.8508403276544412,-0.28684404172797007,-1.2493015223088517],[0.9957850737887443,-0.1790094496916933,-1.6097342282512683,1.6233545755798602,-1.264406458964301,-0.6670280378227044,0.6242520787810852,0.33954699666215893,-0.14668710052006823,1.7337290187572398],[-0.012701363069239885,0.9839400149702368,-1.4413702218199649,0.289198272579975,0.7114044404520135,-0.24591016046902778,0.06299158330115907,0.3586564889381117,1.586644061987653,0.6159419155504199],[-0.6618794161870746,-0.8017865882180364,-0.821681909795933,-1.1749865290409418,-0.41967040058135197,-0.9933622829225242,-0.5749631478933542,-0.3890988393084006,-0.06217545515545765,1.2738906163741464],[-0.6751310270298967,-0.38753894164592356,0.10327736708995729,-0.5179005399902357,1.2584217433891518,-1.7688717217569634,2.5663760389731562,0.020839746910817684,-1.8951844056440972,1.5129243975388762],[0.13348084191954326,0.07033641819848385,-0.6375420123808514,0.6125883986664351,1.3508135608651468,-1.1978716347785892,0.3927372339650183,-0.9526172522858319,0.670873229732566,-1.6286238022952342],[-0.7577090305760475,-0.00986569238638927,0.6364804186498078,-1.3209498547554663,-1.2588303728926857,1.8849719859313532,0.7873788949847833,0.11439212659852499,-0.7806187359097605,-0.3435855383099632],[2.1020866973897414,-2.675629804719354,-0.5449813654472379,-0.08235355566981777,-2.2250484038938727,-0.25802547048294516,0.34831214552301415,0.05697513902414845,0.7226560774177002,1.2886329198192519],[1.101238480486506,-1.0508462435344121,-0.0690916169613503,-0.1700019375590503,0.6224246335740794,0.390917355300836,-0.268941460421406,-0.2068431177174879,1.4372418622888048,-1.030097477598234],[0.19832645534303323,-1.6159997106803567,0.8740720971208475,-0.21732442882190708,0.9108850458914366,1.5036367738408432,-0.9439481768047902,1.0525608629319394,-0.48946772121223225,2.022251287525393],[0.2604878878678997,-0.17560852813680222,0.6641642826559304,2.088655441148378,-0.2925844602490059,0.09692595672628768,0.790061623450699,1.3173118492625449,0.06366254578318954,0.31114326055705355],[-1.1101304678846253,-0.33355294282313763,-0.6189620861006435,0.25731550822995264,2.125944384798057,-0.4732843631593203,-1.8481036354367149,1.7247796686947432,-0.432799936022561,-0.14899426430652096]],[[0.4366732379744519,0.7576298360820217,0.19329459691514536,-1.2589376678986015,0.48272285957795946,-1.2770218873570856,0.5594304621201194,0.4374205646317134,1.2106140206006824,1.3870014285538508],[-0.47099398191312813,1.211033345971146,0.26539633547150876,-0.3477736947553143,-1.6750583221659758,-0.8549719094361381,-1.5673706072816143,0.044704800899406615,0.2202467993369364,0.2814171464677149],[0.35537864490554383,1.5561025282476737,-0.5496214707123303,-1.4147337578289154,0.6159787143229526,0.6347329417050724,-0.8250436890036107,0.45783698102418124,-1.294948155734453,-0.7703592221319177],[1.04824710859458,0.505627708771764,-1.4520500273581196,1.2285159652283941,-1.9349194079181853,-0.7254237603833301,1.393266412259747,0.4916020902207509,-0.03709102773244166,0.34313550736198944],[0.14579799436355592,-1.35871366208112,-1.2686073100620634,0.4587764419771418,2.589352280306816,-0.4703615615530829,0.6349450270992484,0.4114025607202933,1.028208014296119,-1.0512049275490079],[0.8368508096583661,0.7295193071687474,0.004736715594887659,-0.15778252928825143,-0.41946394115596763,0.2239156142805535,-1.406114484246246,0.22917731983680206,-1.4497429824306793,-0.19940037137829797],[-0.20951174996116181,0.8997548862436355,0.8630896947553238,-0.5863263439258221,-0.07687508750004365,0.5628776542501834,-1.9232596384931038,-0.3327439052321177,0.44306599520020107,-0.6324291703174524],[1.3323391493349885,-1.186141133763677,-0.10345939066152618,-2.086747516052446,-0.06649309250707162,0.4383629769233877,1.2430278256058902,-0.4972779432352943,-0.7587081417174553,0.2512694520022366],[0.7454248290316423,1.0949445221110767,0.10521620977882523,-1.623317556617523,0.7865467338732213,0.7265995168145594,-1.3506162096017902,2.03737810296733,0.5403307917888609,-1.0352857864619167],[0.510688176121201,1.704640678288179,0.4492229137103578,0.6670397530003853,-0.5820072638484971,0.7354771845059919,0.7686605165847568,-0.5234209423696591,2.0399397643077046,-0.2926338612859332]],[[0.02121901752115812,-0.6285319299191842,-2.104390450278608,-0.34054466912868153,0.7712437289690952],[-1.3200791328144306,0.396126197727361,-1.7917448170887151,-2.1814040036279274,-0.7679904958950352],[-1.572321113224554,0.3569536273107813,-1.4266424035580527,2.137451631876157,-0.6174714697960367],[0.23458700847390343,-0.8007476739408548,-0.6318607407087813,-2.1996473353023296,-0.4474153115462771],[-0.4306218732392411,0.0320169334799406,1.654976343357576,0.0695932480441936,-0.043130273284002],[0.046698404345008056,0.11409736258918407,1.3318817010577018,-0.624161862460697,1.3752846859369487],[-1.1095723744072956,0.330184628637639,-1.578608468524439,-1.6709335143639916,1.8723364461825591],[1.7994914410673968,0.5745625676192069,-1.2888003211600059,-2.2485753479005166,-1.2540051141736817],[-0.6188601272367936,-0.3204768126438408,-1.2865619023927009,-1.1963546648458905,0.6375359145581742],[0.2726924495611701,1.307973734294471,-0.5561791349277356,-0.6463111085671284,-0.8277910382983351]],[[0.9710296081695027,-1.1316534810049448,1.0072488949247935,1.3736161054821299,0.8547988969036605,0.8214153980428326,1.650326443937322,0.014492658146870166],[-1.4182950237909968,1.2507781951176726,1.491898411176872,0.15180938731292873,1.450921832386759,0.8880020533408373,0.14269639135025852,1.002549329871406],[-0.6861562230218423,1.6577488295170746,0.20373839648694747,1.8634243868437896,-1.4716248835176682,0.30440367075776603,-1.3126992984606232,0.6629621150648717],[0.19652738651656715,0.8057724371372472,0.1257766752550574,-1.858192623505039,1.3555604140793491,1.676496789979701,-1.9668936430822554,-0.03347434977420206],[-0.009287673400416209,0.17530400429494591,0.506882151153961,0.5464027199860546,-0.7789557854773208,0.40920763034749713,0.2892460844749868,0.13917475262146392]]],"biases":[[[0.5150999632394717,-0.6470851035573799,0.21420294381472227,-0.6449065637114222,-0.22748732435881436,0.4862572748901594,-0.8686519403356273,0.233595570461925,0.07670332770505868,-1.7918978522285531]],[[-0.8799860588291467,1.5992101663148415,-0.007686269348655355,0.03412397447444952,0.7047109501517528,0.01808632288929638,-0.48712405759398625,1.1705280911778522,-1.0987448139756557,-0.5780460555544411]],[[1.401312180919001,0.28269226250586554,0.5480633395829652,-0.13558495528247455,1.238353700766679]],[[0.06335198342133133,-1.1262689732750641,-0.3812491542867708,0.8835648901449094,-0.031183693391817365,0.0160418030965322,0.9028282925116667,1.1738015377922013]]],"mem":[0.9684797137813044,0.9843672202754669,0.9900560254540145,-0.5394328392523479,0.9902839447821417],"out":[-0.7927573679168713,0.8388425049382249,0.9344060185917905]}},{"type":"empty"},{"type":"empty"},{"type":"empty"},{"type":"empty"},{"type":"empty"},{"type":"empty"},{"type":"empty"},{"type":"empty"},{"type":"empty"},{"type":"empty"},{"type":"empty"},{"type":"empty"},{"type":"empty"},{"type":"empty"},{"type":"empty"},{"type":"empty"},{"type":"empty"},{"type":"empty"},{"type":"empty"},{"type":"empty"},{"type":"empty"}],[{"type":"empty"},{"type":"empty"},{"type":"empty"},{"type":"empty"},{"type":"empty"},{"type":"empty"},{"type":"empty"},{"type":"empty"},{"type":"empty"},{"type":"empty"},{"type":"empty"},{"type":"empty"},{"type":"empty"},{"type":"empty"},{"type":"empty"},{"type":"empty"},{"type":"empty"},{"type":"empty"},{"type":"empty"},{"type":"empty"},{"type":"empty"},{"type":"empty"},{"type":"empty"},{"type":"empty"},{"type":"empty"}],[{"type":"empty"},{"type":"empty"},{"type":"empty"},{"type":"empty"},{"type":"empty"},{"type":"empty"},{"type":"empty"},{"type":"empty"},{"type":"empty"},{"type":"empty"},{"type":"empty"},{"type":"empty"},{"type":"empty"},{"type":"empty"},{"type":"empty"},{"type":"empty"},{"type":"empty"},{"type":"empty"},{"type":"empty"},{"type":"empty"},{"type":"empty"},{"type":"empty"},{"type":"empty"},{"type":"empty"},{"type":"empty"}],[{"type":"empty"},{"type":"empty"},{"type":"empty"},{"type":"empty"},{"type":"empty"},{"type":"empty"},{"type":"life","id":4,"nation":0.70530400422956,"energy":99,"brain":{"weights":[[[1.0668474672652848,0.6170198950703812,-0.569943832298528,-0.1303018101042459,0.665211150712464,0.1885069869297748,0.4946935415866636,-0.5029922144831601,-0.5502508344291649,1.7303494146095653],[1.3803625431998277,-0.28403322890819277,-1.159560846959251,-1.7451247535888477,1.4289334297025618,-0.47769472680525193,1.2768274332328462,2.3735509361730616,0.04469555205743397,1.0468375442232067],[-0.24623997395004857,2.072379351851235,-0.7497953405852672,0.537158737915698,0.0562311262473561,0.6031215744897113,0.08202804032018206,0.20123836956286767,1.9571770986319466,-0.02625982714571938],[-0.7565008722190645,0.3701004902078857,-0.352907166258738,0.28646910787289137,0.14352015948219995,-0.9516523707953118,1.8208733089204272,-0.5708063717293449,-0.30817123016497505,1.6353127801085248],[-0.09534686207823614,-1.5263987708047078,-0.5290091613846819,-0.4319684737550666,0.1904720208223349,0.46742031204394724,-0.2702886831530504,-0.8852930801266958,0.7055818714680276,1.387442050510431],[0.11045859252458481,-0.602917765352552,0.19874030268512446,0.607052654866776,0.8993378806216638,-0.25580973554599196,-2.190676980465221,0.08038303773691498,1.794478143266034,0.049080045596535955],[2.8388846204648313,0.05137288411245304,0.27611545383652614,1.7639103797457019,0.09877429491993124,-0.08394693896939472,0.38354020371740094,0.824940142199287,-0.45643252346199314,-1.3947930314537555],[0.15218624692154983,0.728159584751517,1.158196056973006,0.74649200212103,0.11417236271349075,-0.2631377389292381,-0.45042420597078475,0.5067710487291294,0.5371077719858367,0.383777643594558],[-2.405957314959405,-1.4401234224382953,0.4195513090318402,0.24762196319075788,-0.38502361891532916,-2.0539692811344628,-1.6944611448339013,0.6706583515653883,2.6184264062444873,-0.24096656427579663],[1.6522468177805345,1.5469956884090938,0.04756267269583525,-2.1631674252767237,-1.2832135152896618,-0.2113478190174379,0.43826672618696344,-0.125482680139346,0.2691834195609344,-0.24814626309628704],[-1.1029295040763178,-0.735603027022406,0.1599440280664121,0.43872026712234147,1.6235872475652757,0.6733060875418938,0.2719968768593253,-1.4726045696382166,-0.5565537953959993,-1.3730117556081722],[1.348739684661573,0.787325857248904,-1.4555556245656402,-1.3828593280166823,-1.1515084060584273,0.4212153197530884,1.9923579223178272,-0.5854914483534086,0.40459761906403857,-1.7710095869120723],[-1.2890530145306505,-0.7454170851431482,-0.061934549310239236,-0.2201514869347258,-1.1972023556401137,1.967090649983743,0.10774907296367404,-1.4435120422920087,0.9013921058957521,0.06773576623668645],[0.7279750293180036,-0.9575050722716809,-0.3176962472264175,-1.094970516644932,0.3280980874258688,0.4738590569180666,2.0168333296000958,-1.3794204296577068,0.656911694618506,-0.6781091712079047],[-1.474137864228388,0.06650328519072306,-0.886906253131865,0.05402864285927633,-0.7272810377067226,-0.49235321058474635,-0.39207106741669273,-0.06492617464314768,-1.7029372672542873,1.3438899069740522],[-1.0429194805227082,-1.5758247720374985,1.930381020350195,0.10812251462396873,0.28437527881567526,3.142746889374615,0.23651950553894677,1.107029593261799,-0.6941692831341507,-0.718858024035499],[-0.45071723127778984,1.5897552750551167,-0.5221435136606563,-0.42559845113344114,0.21633282966971046,-1.759871380299608,0.032880561743779124,-0.4153128716719268,0.2968490216379555,-0.6602512456838631],[0.7451468562836142,-0.22466678974562282,1.586341605452391,-0.2916242688134637,0.4943027987591171,-1.0980858836877014,-0.9068175254023212,0.09771832870403686,0.34532635326092653,-0.7485267394807384],[-1.076125363165578,0.6561204418622281,0.728453089998757,0.22456941167237163,0.6458124584411996,0.9783222926810058,0.31988283608056994,-0.8097605711748328,0.9270451800844448,1.377741022749031],[-2.8050687053317294,1.5046159949358406,1.3508635446451855,-0.5075704338930765,0.5052797727166697,0.2903003384787557,0.6836802467611186,-1.7090388908975294,0.1123945193427869,0.7003234745426721],[-0.916116626215305,1.098443807399286,-0.3094455929423632,-0.9768757980535636,-1.356190677877711,-0.16213898341348457,-0.9788667900172258,-0.023471898156003014,-0.9774117833931975,-0.8816577071140622],[0.0575337328092109,-0.3548439417769096,1.7381502377919769,1.2304348564097978,-0.4225096011522093,0.12113053221222417,-0.1625325031221712,-0.9314458264025731,-0.5369040527560184,-0.34867653369339774],[-0.6073519106174251,0.2089172248066988,-1.182086191120126,-2.303635071468709,1.0450845054974567,0.8932802395380481,-0.6718474833895681,-1.7491170994413021,2.079682689476915,-0.9589055704403404]],[[-0.1976597361331391,-0.16018473796366803,1.681405640925068,-0.571395998328265,1.492917685374441,1.2041468408995104,-0.07226240827222216,0.03243131129880481,-0.2589035912284889,-1.9574084606430593],[0.00027338003111025786,0.12178236443694002,-1.0024306795263078,-1.4818273684648204,0.4019352245323649,1.5013412790134784,-0.2180183188522152,0.8570900989953788,-1.0447932201384602,-1.0998082872302362],[-0.6447225920932206,-0.07654058602843508,-0.6347785080053099,-0.5899695563817829,-2.5920963131933754,-0.13713377743240368,1.0190583430293014,-0.961987246082421,1.3084195162736867,-0.1861302531512497],[0.3398671742971196,-1.8128774866559743,-1.512709173110262,-0.4110557151397715,-1.891838838172564,0.6639221712449033,0.9079295535617299,2.1413196467087277,-0.2553939172393463,1.4732484535848482],[-0.3343568712735738,1.097984431437545,-0.7368870266105493,0.20935494508419455,0.15323292740776595,-0.13770117703136792,1.0078375755647335,-0.3523277536568698,0.07616738438464644,-0.013310323197446476],[0.9669234452634577,-1.4233797937866493,-0.19876734645060196,-1.0565820338588927,-0.9414263641489234,-0.4770621586249747,-0.46015516140814994,0.6610186458347558,-0.4039050876238761,1.721249523765309],[0.04900836117907805,-1.4905868942101104,-1.1841016870590408,-0.22272696287546523,-0.23900936944167492,0.7494435102483812,0.8815679661515979,1.9200183171320127,0.8086891960198604,-1.539003467423821],[0.8951128075724543,-2.3096046895935927,0.46836929249964293,-1.0334458389745564,0.5575465128977659,-1.1666059433483877,0.2424863708714918,0.7799862003661462,-1.7833882706231048,-1.0096279351732687],[0.238696041424981,0.9943091043341119,0.014438312596479522,0.7002945602474628,-0.9245806949558665,-1.2874568633269878,0.6869204555355649,-0.5926301617552826,-0.3022714295031316,1.820807703358981],[-0.5789363710337229,1.326193843106391,-1.1141594301184947,-1.4676324281429847,0.09026761305314449,-0.639703879269328,-0.17989206494255022,-0.08128588790363969,0.610570265547699,1.1748020068553175]],[[-0.636532007914787,-0.44447276116051504,1.21305412319022,-0.5557024392114522,0.7315937542445047],[0.3843255045990151,0.9758680688829139,0.15185591463735817,-0.44181426527538215,1.053004737682014],[-0.14071823831097804,2.4520735559512743,-0.6469236362426607,0.31045690902029893,-0.916497879284251],[0.32923778048483004,0.28370443892686614,1.1042466066667,1.4259316996136873,-1.4702076303395335],[0.4322774754288018,0.6375577036954075,-0.7291496834830328,0.5776802460552041,0.4809260734491157],[1.860550247997424,0.31802756211886385,-0.8322628948623892,-0.13724426054110947,-0.7471363635470687],[-1.353099261625017,0.2404057421982162,0.21600909443411523,-1.566026524648646,1.0487266158427178],[0.41339462280982037,-1.2709966914350885,0.29375358741062757,-0.6172644888057247,-0.0603185950861742],[-0.3113383260580576,-0.31449253588531706,-0.5529429070148344,1.4264311849462694,-0.7560016100889713],[0.2881458162313197,0.5892698738465406,1.333300121895987,-0.33956769259179154,-0.024819987643583705]],[[0.1460789745888012,-1.4398507796195315,-1.081837636100978,0.022433818617130872,1.3968701557620278,-0.4490362019601162,-1.1652408322371375,0.7498308984394236],[0.4768178606992764,0.23458737463802715,0.5956230737724288,-0.9179863013912972,-1.0723667788052835,-1.2736977126651314,-0.1690900482339629,-0.07693417226151948],[-0.6409139383027523,-0.15734617201000922,-0.6202018415223991,1.7547959842775696,0.6525081312288188,0.9110088365515879,0.510489896650804,2.4231622190632516],[1.3841241643175681,-0.48272874065963395,0.3580266674229638,0.9952144085280371,-0.8973544562328355,-0.06787425022409596,0.0714411468559831,1.1775446805989593],[-1.092083116680511,-0.1332128238248778,0.487798809569056,0.6508502012276047,0.9625916980361789,1.6276661802583752,0.1096877927537397,-0.6839305571790542]]],"biases":[[[1.1081460479201477,-0.6636748556891998,0.1180520535536137,-1.3155033033588013,1.099987963568004,-1.3763933318439503,2.254127516052139,1.6061376030895704,-0.37794681440828004,-0.8408916479534391]],[[0.720650755537149,0.2040453922358827,0.20555487494192826,-0.7362515715980759,-0.6856998546019136,-0.5787238664628676,0.6741014538870969,1.5391237469243464,-0.9924040080323263,0.1007443504816286]],[[1.5366028522732817,0.04759218695289808,1.5277119959136742,-0.12100516574333925,-0.36213700171772173]],[[-1.4935199360905373,-1.141480069296154,-0.244304597025919,-0.23258924705472703,-1.1666001363156522,1.0631814253096854,-1.017773663090733,0.16475968915986444]]],"mem":[-0.998655510506013,-0.6622939532199607,-0.9501322215140513,-0.9939996853940718,-0.972853211618389],"out":[-0.7658687980246224,-0.9484721965580944,-0.7315185198015313]}},{"type":"empty"},{"type":"empty"},{"type":"empty"},{"type":"empty"},{"type":"empty"},{"type":"empty"},{"type":"empty"},{"type":"empty"},{"type":"empty"},{"type":"empty"},{"type":"empty"},{"type":"empty"},{"type":"empty"},{"type":"empty"},{"type":"empty"},{"type":"empty"},{"type":"empty"},{"type":"empty"}],[{"type":"empty"},{"type":"empty"},{"type":"empty"},{"type":"empty"},{"type":"empty"},{"type":"empty"},{"type":"empty"},{"type":"empty"},{"type":"empty"},{"type":"empty"},{"type":"empty"},{"type":"empty"},{"type":"empty"},{"type":"empty"},{"type":"empty"},{"type":"empty"},{"type":"empty"},{"type":"empty"},{"type":"empty"},{"type":"empty"},{"type":"empty"},{"type":"empty"},{"type":"empty"},{"type":"empty"},{"type":"empty"}],[{"type":"empty"},{"type":"empty"},{"type":"empty"},{"type":"empty"},{"type":"empty"},{"type":"empty"},{"type":"empty"},{"type":"empty"},{"type":"empty"},{"type":"empty"},{"type":"empty"},{"type":"empty"},{"type":"empty"},{"type":"empty"},{"type":"empty"},{"type":"empty"},{"type":"empty"},{"type":"life","id":5,"nation":0.6854510372581495,"energy":99,"brain":{"weights":[[[0.445124654077742,-1.032183709151947,-2.0920011923669453,-0.7566884704882308,-0.8714648691745797,1.8911946133988216,-0.020700826819563103,-0.3648269634962243,-1.3817694610505746,0.4600364562019989],[-1.9338021431013492,0.8933472238649434,-1.9442804688481916,-0.7993024195443397,1.0672678121828676,0.5811897778089333,0.5778512439789257,-0.7673356038065168,-1.7032005297876,-0.29897235548223666],[0.661121119179355,-1.2216064358035401,-1.5371241925915098,1.2758194495633142,-0.45648218218909825,0.19656702579272453,0.40945896687554895,0.14258143736819046,-0.8783640783495854,-0.7739646680832543],[-0.4060779762276206,-1.6392158639348116,0.04671677462323595,-0.36307283522186135,-0.1594029483285701,-0.5448450119142101,-0.542123773243799,-0.8144800878557557,1.5945325435646878,-1.356988761912356],[0.5072112566770738,0.5176035902847692,0.6375439211838732,0.6690222880496136,0.6670502211774214,-0.36492651035969,-1.5087954636778216,1.2321777928088844,-0.6019175146954207,0.10461150173824878],[0.07072273071832057,1.3479807843123974,1.938487775272191,-1.1354097905881004,0.6177602127062253,0.415758479553706,0.6601389501563298,0.48830362248362946,0.5321300781525891,0.7128637418157534],[0.44267156222716797,1.707872944604031,-1.2331216055436534,-0.9407000340760511,0.24966169921359951,0.5815567784188715,0.8104133343297489,-0.8358811458736867,0.9428074257649667,-0.37976484315300335],[0.268177890956689,0.3788270501662384,0.07068528661173974,1.6613549348322918,2.011175369442142,-0.343655424374287,-1.1607338632872404,-1.583725521470129,0.6314561967476063,-0.5555890696504919],[-1.3645307621995395,-0.9684140021395164,0.48509136316056994,-0.509997546908395,-1.500544703898602,0.6048894354812764,1.610130667887194,0.9911466500714876,0.6491075511841465,0.08379167342906389],[0.9410367664423219,0.9488816808763838,0.32960344192176455,-0.31020900411490077,-2.0314746000647053,-0.04075913313626188,-0.160782573032225,0.7941697262476364,0.723628950522755,-1.0205294570816021],[0.48112074726316173,0.2093570360167956,-1.2446761509346247,-0.22796490610940345,0.3836895786283679,0.7683550650357067,-0.003481988575527914,-0.8369822115167853,-0.04106289485686101,0.4593094609830183],[-2.109122440098783,0.4116253348222133,-0.8810711055210221,-0.24596080014893995,0.08023938886062107,0.20405030219291398,1.2532977813497141,0.23488142126571354,0.7796752699685859,-1.3853819781933456],[-0.5629986459271081,-2.227207887560309,0.11325243498084687,0.4310682168472697,0.027462723365772653,0.6964337737380416,0.49001425570899787,-0.2382690330710972,2.7910932946631797,1.6757120150132319],[1.307871843936454,-0.5952813173794265,0.9256684055358119,2.7699377494471613,-1.1201393736657237,-1.254398429409205,-1.113856156883358,1.0058789235344012,-1.4282644629607097,-0.726251714566487],[0.4902177732241938,2.2164085847619117,0.20827196471578685,1.350520743411748,0.31625205468236167,1.5288225534819355,-0.04353418441772195,-1.6906998596417766,0.05822445720698397,1.4519365615224085],[-0.6537512508292428,0.07462720691223367,1.1190969881145718,0.3750447801505415,0.6962346680972855,1.366092253488464,-0.31832124257438643,-0.08790035712031617,1.4924750799802569,-1.0035440432352782],[0.8480629341878004,-0.13670116697250637,-0.3575864152448631,0.052206356833163305,-0.13584953419279513,-1.4043177764369197,0.43353167056902614,0.153213176675266,1.5434818120094234,-0.48222506741752025],[-0.4884623197223994,-0.46630112711121174,0.031221015911362397,-1.8936941938721024,-0.5341655468804782,1.5129545156395938,-1.124610368116305,0.2759597347943718,0.746399329953411,-0.7919297588002052],[-0.5042927979268632,0.36792176915524566,-1.4311386752996595,0.7743523526487724,1.1223573778273825,1.1247189606664363,0.3053815792759756,-0.09220518184221164,-1.0352603635261162,-0.48177040932378257],[-0.6320044260142473,-0.7756588543136693,1.3533675941315342,-0.8494458877074069,-0.9154019551007063,0.5624885324065928,0.23107037973963093,-0.3086133218584423,1.918067366213015,0.4207716570532764],[-1.2218929914499244,1.1192499669812066,0.6108791260862453,-1.0017228465066588,0.07086925482119975,-0.3601513642433638,-1.1227699374036002,1.883004401403651,0.18328831106513674,-0.09756264675975108],[-0.4344577081941585,-0.5652222067148678,0.6554744446958709,-0.923628697231705,0.06932057050971975,0.8101276031384315,0.2358519669873623,-2.646613796672252,0.7530488621009401,-1.5669126534320965],[-0.48844150867300956,0.01732278667027774,-0.492824925447585,-1.1573637803709649,-0.6722033327266266,0.547077952381523,-1.3525944018064755,1.4420299759186166,1.4497851078390023,-0.8504000984868481]],[[-0.21132488936632007,-0.24284263180412471,-0.5692148035826917,-0.009535303264393577,-0.28371445028629116,0.9960494892959536,1.1999080399623945,1.508586233341012,0.4396404171109536,-0.02394970482056121],[-2.2324718923594395,1.0323931831388706,-0.009737523865286379,-0.49257707182795973,-0.2792312291207139,0.425184537381086,-0.135278616348175,0.47808901571657464,-0.43367859599700215,-0.646486817024965],[0.056985830385487934,-0.7135535560667026,-0.9962243325290662,-0.8308632054215714,-0.03139982191937058,-0.2086134350508306,-0.8574334158243745,0.21979894558514843,-1.4616425835084776,0.16650060285735044],[-1.7023763852870706,0.48552172612345623,0.8143447134773534,0.34293205268617594,0.14410442310009533,-1.3517777235304116,0.011916667367768845,1.1317344650593522,-0.22069003754395636,-0.8971068389727203],[0.9285115205401274,-1.5642881444972032,1.407497773305696,-2.05145361855376,-0.2685724825409507,-1.2197111441865356,-1.2677559726133503,-0.0692231059313185,0.29595883119049177,-1.5296099994991124],[1.088299805269098,1.5037561147030911,0.6032291545326868,0.8076688257519427,-1.6910617221394737,0.3385295216173819,-1.2525228971651565,1.4072506600242731,-0.3454492480194053,-0.11673225310599085],[0.365613265212513,0.5436675777734105,-2.629308949920864,-0.615308599477625,-0.4187316218003334,1.0805834747403003,-0.530310707323021,1.6504810504619758,0.11259667952009153,0.6682756526549148],[-0.716160570140267,0.7442219050945333,1.5977364502665854,-0.6777190257929038,0.557421756986892,-0.13971133105459935,-1.0669029787775126,0.2515756517748438,0.08622143236435771,-0.4234656740463664],[-0.09651839116854537,-0.4564465815371392,0.26274575606922745,-1.3172413238495846,0.2665302689967739,0.45578097592396644,-0.32726413492476203,-1.03428634600834,1.0665350925044494,0.8861578569663625],[-1.8014218913172666,-0.5114118240871594,1.4064548094803848,0.2535983751778891,0.17483120217413126,-0.4093463238127309,0.8041039163712257,-1.0454290940687472,1.955273963751154,-0.48430862315469625]],[[-0.09105121037507992,0.8070744652817509,0.9643265888684683,-0.6046811586865577,0.20240824574280236],[0.1694821333024734,-0.756496473068993,0.2810028268010221,0.02750637726520318,-0.7012031240647648],[0.9263790681534472,0.5111928205011483,0.4159852970494435,0.12737850329465236,-0.2895102915531671],[-1.2001241880737081,-0.13006376719434593,-2.061125312269804,-1.256180753049007,-0.14215957388940148],[1.5786296679409921,0.25919828835850184,-1.0383235163491658,-0.03741490392562289,-0.36069576066712217],[0.8193705870082569,-1.3986099586828469,1.6296185224439215,-1.7138418108152977,-0.09375543309300087],[-0.7669796707834001,-0.30986147627846433,-0.6457512426354731,0.6099092714480214,-0.7098475103835616],[-0.1412130965179614,0.3323016288573645,0.8195892830128362,-0.09683829939962099,0.6583059284600006],[-1.233478657522142,-0.09539548152606588,-0.1704443880143328,-1.1453493502883743,0.37303661407866795],[1.0004736909017409,-0.04952648232784571,0.13814053021747416,-0.6722973503549684,0.2646348325852568]],[[-1.8802393193289857,-0.1761638455879151,1.1441748848149325,0.2172835915831882,0.24811448202367023,0.7366714370269206,-1.7110931958568252,-0.029691576821439827],[0.5647927265760444,0.8822863340421395,-1.1940058566316791,0.3613128950650445,-0.11300843139802605,-0.16996570816992462,1.5383374476391862,1.417746588590029],[-0.8238907213355683,-0.5768672029792367,1.2022959967989562,0.2588832327916627,0.409160905755181,0.5785106220310106,0.17532208002754426,0.5164877517077566],[1.358966024029313,-0.9542446743562497,0.8685800392567323,-1.2431010141833676,2.179523184665609,0.8709462062238745,-0.05015757032778363,1.0428893771822514],[-1.4123726365391889,-0.8036394402432339,-1.2985212873628826,-0.4493291419845548,-0.25304235174439205,0.4129665087266826,-1.1094694031428958,-1.1850255212081544]]],"biases":[[[-0.6376224864812213,-1.0018483205456192,-0.3734955402266113,-0.34791665297457897,0.11005451500478394,-2.070454219588219,0.2078674268865216,-0.8886558620196838,-0.022643738302046832,-0.6359601466815115]],[[0.19571600458861418,0.02073408836938188,0.9720986516204874,-0.35800940973670436,-0.05393763056964148,-0.46013771992962865,0.21978562496719223,-1.6083063923313505,0.6910215858100721,-0.1126346216225587]],[[-0.763540169222656,-0.2657268619631294,-0.2353369175075779,-3.1130400864684082,1.1181242943888254]],[[-0.2062102875027507,0.7589990795109914,-0.39023897384767975,-0.3355158679745372,2.2747290956584583,-1.2258193438704195,0.77677778338576,1.9626880172840944]]],"mem":[0.3508645022447553,-0.18865967153514038,-0.9893693179706444,-0.46842110018894484,-0.6238455687939718],"out":[-0.746112002453009,0.9217699131639774,-0.8519820445421955]}},{"type":"empty"},{"type":"empty"},{"type":"empty"},{"type":"empty"},{"type":"empty"},{"type":"empty"},{"type":"empty"}],[{"type":"empty"},{"type":"empty"},{"type":"empty"},{"type":"empty"},{"type":"empty"},{"type":"empty"},{"type":"empty"},{"type":"life","id":2,"nation":0.8607489870542615,"energy":99,"brain":{"weights":[[[-1.1319961926942848,-1.6265731658254248,0.6691239228393104,0.8557192231148983,-0.38221351424810496,-0.11580969887228502,-1.2218552506319025,0.19430087204928442,1.1177529993988526,1.3712891979075255],[-1.682705565208048,1.2162031975030179,-1.3232159978538334,-0.3105952452028638,1.3040156514108598,-0.4291603043963129,-0.9561482231412161,0.45046847908915805,0.10641255525429463,0.10340562689188662],[-0.7736312728522357,-0.9821117435074488,0.26114173061438756,-0.20861534368531515,1.4889184403638016,-1.0092579334040526,-0.8481562625231917,0.09333020733667874,1.0866404268553576,-2.1431949496397484],[0.4376594755951531,1.489551288393693,0.35734977756452463,-1.6419294728477751,-0.5463767979518609,0.9641907735404046,1.4205419082313644,-0.3668586256360028,-0.23239445577800596,0.027985271260406744],[1.5163581617378126,1.2660117581517987,-0.2936236185843048,1.2848858990581586,0.6740223398106585,-0.7156569425507791,0.558203356622758,0.08024002674672419,0.5817657710301791,0.6548334236863346],[0.5599065238661997,-0.3239974999196751,-2.793559485504786,-1.1296947876646628,0.4088014167798164,-1.515921682454136,-0.6084196500593422,-2.963227485626626,-1.2108913229681908,-0.9585049150018846],[1.4836504120859253,1.6252727522271517,0.9129864394510444,-0.39389640294124423,-1.164186134056544,-1.6744669717241978,-1.7151635192018964,0.5606124611770392,-0.15701941320566903,-1.5857419430825006],[1.2854603882242897,0.3708378869177242,1.138849337400563,0.670559002947509,-0.4307507510411157,-0.7538598750117536,-0.4727197323116012,-0.12586852932223774,-1.0429851251616693,0.6848686323418169],[-0.3946016028969734,-0.14476173657632194,-1.783431798359969,0.27044735912792517,0.022957933249365924,-1.4761980423116705,-0.10091915305542463,1.5646273481872053,1.2917032491778089,-0.45386149059940273],[0.6504071141237617,0.13495736012851073,0.13661813543479898,1.8850997211407416,-0.559067204707537,0.3988336026357523,0.7161483030687877,-1.1429754328754873,0.3672143104892052,-0.4644359031436983],[1.0504174852468082,1.8034323950991586,0.36001253166069724,1.3630263429702454,0.6946630426371642,-1.4455667915256651,-0.5705751063969585,-0.2401338538636751,-0.02355749285099414,-1.5278494919000585],[-0.4441145148592489,0.43157024480897177,0.22453616123119097,-0.9379794102678516,0.9515296396774936,0.2778525108821024,-0.6244718876131262,0.18088741119888818,-0.9280039134143241,0.5042183446429072],[0.40622973840247145,0.9716124525403046,0.819116066108163,-0.5351719734174739,-0.03541102907950275,1.7533447718321045,-0.011179974554289063,-1.2873303642705618,-0.5708990514128666,2.361760995600932],[-1.0688663338306204,0.09096109544901633,-1.218150204839332,1.508895232660593,-0.007788326046573621,-0.1950437819457448,-0.12900470989279578,0.2766507980869368,-0.7529948697633296,-0.29068956715542554],[-1.77490616769408,0.7728870899764687,-0.2731309765049407,-1.2678913970698076,-0.23659585839593913,0.40931058677769794,0.7269072599725968,0.05024111557353777,-0.40859698739287165,0.9599134689717905],[-1.3472617330780923,-0.7871913627643197,-0.7037409239612494,-1.1670078966387414,-1.2370967796877288,-0.17498617002105818,0.02483697152215197,0.3082058043334608,-1.0102220229509258,-1.792823952382015],[-1.356900581951569,-1.1951618322721267,0.9687608568934877,0.6301695478672233,-0.015755756439610386,-0.19139962711085728,-0.3023041629069407,-1.0911029463480388,-0.5445400422629443,0.4113411104177057],[-0.9743309494541881,-0.33319088618710624,1.0666581975636473,0.7536795376053239,-1.6648818768773417,-0.7570698136209955,-0.20324217393519825,-1.6759871805314597,-0.26563508967381505,-0.8302600630843342],[-0.9581581915641577,-0.265928979166705,1.141337298834429,0.16498027325111705,-0.23471850590412455,-0.8776871878859875,-0.19240175967744866,-0.1332394022966493,-0.20720289803855516,0.7073863000590276],[-0.3339828137435664,0.6130205028729339,0.030780833402318998,-0.25135863385179574,0.7526035338426633,1.0729398079801058,0.9324233762951463,1.5578573911974205,-0.5346263045193494,-0.9817187685544607],[0.14601506666496042,-1.240163638369141,-0.9499579046212595,-0.625402969388957,0.34960234883753977,-0.7960631715054524,0.030247755423341658,-0.02254852795911229,-0.911228797897468,1.457669236374599],[-0.025182011983764723,1.466288989062811,1.1230446940510888,1.6823656403887723,0.5591144585565735,-1.377756082757189,0.04143357444305024,1.719302285801374,-1.401793840369146,1.2385906143715628],[0.017275373643160962,0.03371039981555793,-0.22217968677793803,0.40846249777914784,0.38067801311660326,0.36021138471023,-0.5016326966537799,0.9439488577686639,-1.0599025760567842,0.5664581567280218]],[[0.6713314076383287,-0.21248720208631655,0.019200811708935797,0.546753962555738,-1.0505140014916385,-0.27069118425725985,-0.4619491240638514,-1.1187225942202148,-1.5769125715199284,0.09818258372751389],[-0.8627010689541151,-1.082713816780833,-0.0840845322899967,1.0823897349193152,0.35112070932751316,-0.9390128119328146,-1.2422936554005268,-1.67703552972733,-0.6296921657469544,-0.24877760574923222],[0.46021741160309343,0.06333108796051275,0.4479067863710199,1.9205992389081392,1.3995338958079964,0.8377223136422354,0.31589507675710815,0.6777298044456155,-0.41175745653302775,-0.3062973386160572],[0.20739461685886829,0.21127234189552566,-0.8927652500499608,-0.04589305157242497,0.0496412377320137,0.5680361354627993,1.7900550331331608,0.8690821815530499,1.2820082482172526,-0.0030228631599356244],[-0.347066026434776,-0.8414230492320715,-0.6556514971961848,-1.2306711542524782,-0.6084958790056799,-0.16810207626046486,-0.2694571427669419,-0.5657622729385358,-1.4818684166050968,-0.5672452321803211],[0.9366308834916562,-1.5765814850781266,0.5622920783701953,-1.6497706255107991,0.42249269600584427,1.3467740794655017,-2.5126377361863312,-0.8864006889309761,-0.04323198234670908,-0.2373692786936076],[-0.7344897428882716,-0.31028173265925657,1.9708687680355579,-1.3335438428776807,1.939199748400707,-2.2307293671724135,2.281679354587767,-0.12325976722900989,0.8996151028806961,1.2902308125159394],[0.8625464698323512,-0.9411355925029603,-1.7105036560830496,0.2811436430097224,0.35156621231912727,-1.8112415691259465,2.0260968130071872,-0.6991919733918015,-1.0022112951815894,0.37981403688697546],[-0.2756685076492249,-0.9725237940411561,-2.090959971428328,-0.573528103009516,0.20464959333797386,0.26688875311899357,0.43992179113143254,-1.0715362904901173,1.919422401895041,-0.6700597852069426],[-1.4708022578033257,-0.4731853688278782,1.0277057645620877,0.4021126938800727,0.7411708203961972,-0.6643379757556175,1.2449430667332377,-1.373677157491586,-0.9027953900342811,-0.010128771106187612]],[[1.0491091569344124,0.3123127455547511,1.0788588156587138,-1.6334861061385109,0.44951748611777304],[1.4505081203708512,0.14515078439585072,-1.3641297023881869,-2.0941543972005143,-0.5757995428311309],[0.39439036598110666,0.8498571295576069,0.5592808288757301,-0.1920305882190476,-0.4830748140711025],[-0.5961729537840776,0.9364793724332353,-2.100247353371014,1.3092266143991969,-1.4442504428826302],[-1.9247221208324616,0.9004264769768964,-0.0964091918371294,-0.8738180412739248,-0.060689447112740255],[1.4725464675534228,1.6007327717475115,-2.0139912995516793,0.3928491323784545,-0.7733991779812613],[0.06121812015777195,-0.007850876315556293,-0.7915132975893282,-1.3588629130694236,-1.662525438225753],[-1.1966962554916096,1.8350314696756396,1.5126949539472148,1.6266510113738613,0.4140313953578399],[0.5325335756489402,0.16838919978338204,0.814989640470197,0.4785970736262492,-0.22882347045603477],[0.531615501450999,-1.6156821000326758,0.5967164424767066,-2.75796577292322,-0.3649898254994013]],[[1.405665036663156,-0.9139980713383493,0.225335881556426,-1.0870403376495408,1.3793911651699828,-1.116893355008909,-2.4506015205019365,-0.7866405169990036],[0.31570780415646427,1.0461110578024624,-0.40089247170049974,-0.3132739980371192,-0.5062435019020463,-0.011533429041280555,-0.5342258950179466,0.053152831066717095],[0.057970756660068325,-1.100166715110546,-1.7489637246113388,-0.7956747171100039,0.18704988145046475,-0.46138436232560076,-0.5824921129548374,1.1791057869874948],[-0.5904218259135858,2.274224720561317,-0.49298726308390267,-0.16907303430021534,0.10642439810204189,-0.34920368372767946,0.7847542792481267,-0.04771557973621569],[-0.019186184009593297,0.273183163618135,0.5643667322123658,-0.33265389363750997,-1.5329296764951146,-0.5316403914292135,-0.8352842497309213,-0.4396338403232636]]],"biases":[[[-0.04448511696637257,-0.2173850684433303,0.13621902327686153,0.7924419281583467,-0.9460819264456573,0.42287742276295437,0.15584384711842614,-1.9771213570884354,-0.5725857692841141,1.000867959247882]],[[0.7457084160051409,0.5456773991898268,0.5996560311138506,-0.13040967122746366,-0.9243801698634394,1.0975118638675367,2.599774373778846,0.9856576441780929,0.20879676678850206,-2.132447888874238]],[[0.07810111795899792,-1.1037282713496779,-1.27998689985945,-1.1357147144731854,-0.22999615143861574]],[[1.6578031753785485,-1.8378559520317659,-0.32771167431740106,-1.249292375329228,1.7184593847920546,-0.2861505190850857,-0.7537904574575477,-0.5534555939803167]]],"mem":[-0.8592878576582631,-0.011627921793124576,0.42049471798257027,-0.4589180060414875,0.8707521650613554],"out":[0.8649364082230904,-0.9958461770930127,-0.9732252405152978]}},{"type":"empty"},{"type":"empty"},{"type":"empty"},{"type":"empty"},{"type":"empty"},{"type":"empty"},{"type":"empty"},{"type":"empty"},{"type":"empty"},{"type":"empty"},{"type":"empty"},{"type":"empty"},{"type":"empty"},{"type":"life","id":9,"nation":0.003776837430775333,"energy":99,"brain":{"weights":[[[-0.7187630332377822,-2.0200610569444684,1.127644857901841,0.6250705087328104,0.2996225507774015,0.8460026761891866,0.6223626411650801,-0.32862080515101466,-1.8151340096797748,1.3380205005810026],[0.34337212305613896,-0.09769459892262143,0.7986002167946099,0.4412342080859276,-0.10619562900341817,-0.4752560139211752,0.4621958436276871,0.45780468000022306,1.8666721408777782,0.42073280567520466],[0.31218224902102204,-0.33530024619623666,0.2389323009992677,0.9555979790716834,0.287304205768358,0.6005787416393201,0.29815990244184803,0.3962188468787042,-1.1493851802122985,-0.0555347193654016],[-0.145042367145661,0.3372681524220024,-1.2095784895184687,-0.2531654498063841,-0.7981184470883708,0.7120098538515097,1.6546520740771762,0.8478421877533459,-0.6926009868367806,-0.06155985183581419],[-0.23160561219942877,-0.039185566892706754,0.5417934570067245,1.5069554114508081,-0.8969208884318471,1.6240067652255976,-0.36604787107708947,0.4736014758963523,-1.8919762935376123,0.44746540012799046],[0.1935902321033065,-0.5225063372356686,-1.554441884261291,1.917968795927597,-0.5441785545915147,0.7334502352319294,2.583960679194789,0.8894847535914482,0.05851778028244642,-2.625674876936588],[-1.925677460778393,-0.15068225225599788,-1.8425964509914383,-0.17253611969504476,0.48022429415984863,-0.8474060193912097,-0.5970167066390644,0.38938147187652683,1.57554954330592,-0.13824585193171138],[0.30164687368815474,-0.3041139747580286,-0.9361358639824934,-1.1671864129398024,0.16831224200245723,-1.000341548606291,1.0305768555442232,-0.26278562662630955,-1.261564463250217,-0.22698016369908164],[0.4290256575566181,0.01302994700004547,-0.6737490073709588,-0.11703373936820967,1.9175423260827824,-0.05944255546870023,-0.7765241215408243,-0.6433406530062615,0.5417809150210899,1.0029213997133974],[0.4281441030243245,0.5792309406015369,-1.1030023689516988,0.056140991424450705,-0.7092477150766558,0.7399395898646752,-1.6903657441270845,1.055807512822406,-1.963771826274418,0.21088305242485555],[0.8992827276449674,0.6573322951722174,0.19213439244503683,-0.36942844649892814,-1.7036522496212434,0.40415143018040744,1.1543749628786453,0.3673379978101761,0.3394625984959157,1.1929864167544462],[-1.8858485114499,-1.5513938964667857,0.07261377116994802,-1.0718674860338897,0.7851036983400653,-3.2940788926686793,0.46390778225911383,-0.5315154719619206,-0.5198936508321642,0.30007569200470446],[-0.10831161049959735,0.050970583514404436,-1.2217867670782367,-1.9968912942919301,0.9065812017673605,-0.39000667604234845,1.8202920150100672,-0.3623559006162546,0.6546134990430648,-1.712863684011778],[2.383956434923189,0.15632826699819832,0.5215916807482286,0.26011086525340743,1.8231108953765045,-0.8117620557049118,0.31219831323434805,0.4679189913600533,-0.24903542498303133,-0.05478743520848713],[-1.313879751079559,0.013084935660444096,0.28993353766716135,0.5167040789530083,0.09522993301375914,-0.6841792321147991,0.48209066087419333,-0.26760661911204126,0.4464539977223098,0.38958111127147904],[-0.19791434677648193,1.0306421352169919,0.7602891346046645,-0.30818631016697334,0.2974142281673351,1.73404554991755,-1.327591528281511,0.8638098847379776,1.1981348211712786,0.9397530872291308],[0.03113256652875285,-0.1046292537001616,-0.7362570224562058,-0.6536082633801237,-0.38601324484105265,-0.08109083991048334,-0.8011920138852353,0.4728590611201572,-0.33075967957231445,1.120493892299025],[1.0401753549643036,-0.8056417054016157,-0.23597667585688392,-0.6008199094728893,0.6788751365590348,1.0502701425709267,0.29313554206211484,-0.28390279257899426,-0.7198504794873331,-0.23339098414507595],[-0.7570987723813806,-0.5376130775706903,-0.7673691495463685,-0.5137345856576906,-0.2716164968823678,1.1008854114114537,0.38492497285846666,0.8984338299337387,1.039752474908413,-1.8887942220698122],[0.209678198479845,-0.35758727956455394,-2.5916842692453224,-0.5331624520429473,0.6571967189433597,-0.5647802414211628,-0.8857515495204699,-0.5443011381799425,1.0229987370764904,-0.42966737356405094],[0.43383934552323355,-2.1218666884651816,0.14546240470433128,0.8192905636989704,-0.7017950037717029,0.24408394669486683,0.0707138463430364,-0.4207997166117193,2.1239205312082468,0.8006647579149873],[-1.9151862390601113,1.4067592919045038,0.211150402095567,0.5972604463909887,-0.6961965759662943,-0.59078684553091,-1.4553820324723366,0.12479496168453746,0.4959086027095506,0.7835091101735125],[-0.1263041490556389,-1.1756399435743505,0.47113399650560034,-2.287094906755935,-0.46419249953323183,1.7474300698008798,-0.8779697776083597,0.7403335598825391,-1.4404295931684905,1.0420656803947237]],[[3.1351594665615674,-1.942411444739313,0.570015624197156,-0.33330692842536735,-0.5426953012826257,-1.4742492834404362,0.6003970100376016,1.2464358547309844,-0.15944955078994297,-1.8462283194199107],[2.1994483257015562,-0.30867807979000056,-2.0794129131655184,-0.8887737078235111,-0.06016898582496834,0.290543313417764,0.5365398133255342,1.2524628871354309,-0.4736205282352437,0.8692005266957001],[1.3230819201721151,0.9218211710639757,0.07861414919034021,1.2654602806630195,-0.3873827323218371,1.58521020605696,-0.3062879046997477,-0.7927137910729229,-0.12383687560169154,-1.208559497179358],[0.140987937094809,-0.28653453263279344,1.7648705256215074,1.23762746460663,1.0329581990475643,0.5185674580042204,0.155606025450977,-1.0337078136531734,0.874942029493938,-0.7203409391947779],[0.14956874280913435,-2.2084842274463763,-0.34059755000179925,-0.08847553874617252,-0.10006709362550038,-0.13887684841705367,0.947817463550386,0.024430776850792608,-0.24793455813306223,-0.20232326994111555],[0.12332968841287414,0.02469395245759543,0.5297391067263487,-0.9467937009405109,-0.883378764592473,2.902501564802039,-1.2452086218538374,-0.5912019055528672,-0.552515941676232,0.5832805206987859],[0.873617104900968,0.4202816766895952,-1.0196112670542814,1.0542746674639492,0.7435060182468236,1.4120922048511597,-0.044950939801512796,0.15792665741399606,-0.17271972985069944,-1.5512872455352296],[0.2451558250638977,-0.4126796807215171,-0.6830595460705722,-0.7780465727784032,0.061856985819116625,-1.1692770465937115,0.4474753868524066,0.36752130071109435,1.1259962251148579,2.311967775318959],[-0.2035363948912846,-0.38462593257936073,-1.3917368055615544,0.07535265943502507,0.921093280593107,-1.03009597735508,-0.49869319437763937,0.47814124519673523,-2.140510119032804,0.34025242298096225],[-0.6773569528196676,0.5568825725408745,-0.22870991612523742,0.15873280626130962,-1.3014679382319183,0.5359946881237327,0.17061861037896298,1.4847848101409016,-0.016270404097722835,0.7047610353728889]],[[-0.36160843571779044,0.79820126438092,-0.5665209327997545,-0.39908345604921414,0.959748569228361],[-2.01827674347781,0.2914906673173923,-0.034868550077615135,0.5541141187426151,1.4800998431962258],[-0.8448650667804152,-2.785272413225738,-0.5275239019758592,2.015654307823096,1.5970681223706973],[-0.778173002152555,-2.631346896279875,-0.38131724740786305,0.17728249530252038,0.5274593120197372],[0.6883594266991503,-1.8712826653316998,2.2197655830515055,-0.9589209980352024,-0.125996618098092],[-1.1022253884361866,-0.5412025054964621,0.7981370879523857,1.1518386221650678,-0.27555869660826066],[-0.558194145950561,0.1942825632606588,0.2571821063205175,-1.246704402023402,0.5428029561637877],[-0.32719053759941924,-0.8413131535249287,-0.22188898360701376,0.09294615546176689,1.4962825293751698],[-0.9163587697541784,0.8963375370406428,0.6359250543554772,0.30899958997746585,-2.252154526754683],[-0.24645649838956862,1.3839725362629929,-1.209858102428043,-0.9082340209716127,-0.9074483527742427]],[[-0.09275185559481817,1.0880852974369801,-0.06049875859373548,1.3879468757130846,0.7909450875224577,-1.0839722647897831,-1.0507368682697877,-1.9530472047043632],[1.3475200537694745,0.006573461865350385,-0.07353726235110784,-0.40296475417166605,2.0595986482671247,0.5483256141710519,0.10639652501597002,-0.3410808990501445],[-0.1099760834880474,0.2089770331728135,0.02461654442088741,-1.447384032604027,0.5653526116485091,0.4617449295705773,-0.008265556590965176,1.2708219680349084],[1.4433076819775807,0.5856153280560632,1.9746050258559538,1.151697251974528,0.5055026398056851,0.8718809044956081,-0.294790595987617,-0.11436509287913502],[1.5606269648691327,0.23834937486447821,1.9297070584214029,-0.21142824739942404,-0.06613644531991418,-0.3489255179183452,0.730917619338511,-1.047682185770185]]],"biases":[[[-0.29100936667690974,-2.2058335556961026,-0.4063865476012503,-0.38315803670553694,-1.079485180899293,-1.975957006021043,0.5352294685001683,0.4418046044953868,-1.0580354927976354,1.4696501467054455]],[[-0.31563614266894424,0.007116684473318565,0.26169656104791317,-1.1218259671504016,0.9919956021902433,1.7596460093446198,0.7062270764661533,-2.635340773650195,0.22391217521421294,-0.5714829664727933]],[[-0.17443632010161617,-0.025467251102600175,0.30750905316721344,-1.666788008771259,0.7498223833238125]],[[-0.17737822189875568,-0.7969196560516688,0.5699957050242993,-0.28157219910942405,-0.5522175923452003,-1.631065161924431,0.34974990957309615,-0.6959435278558765]]],"mem":[-0.8862769608224449,-0.9833503645040028,0.19451829771320153,0.7510618391569555,0.9899370332518309],"out":[-0.12172091493980865,-0.8090895445126013,0.9902052636804225]}},{"type":"empty"},{"type":"empty"},{"type":"empty"}],[{"type":"empty"},{"type":"empty"},{"type":"empty"},{"type":"empty"},{"type":"empty"},{"type":"empty"},{"type":"empty"},{"type":"empty"},{"type":"empty"},{"type":"empty"},{"type":"empty"},{"type":"empty"},{"type":"empty"},{"type":"empty"},{"type":"empty"},{"type":"empty"},{"type":"empty"},{"type":"empty"},{"type":"empty"},{"type":"empty"},{"type":"empty"},{"type":"empty"},{"type":"empty"},{"type":"empty"},{"type":"empty"}],[{"type":"empty"},{"type":"empty"},{"type":"empty"},{"type":"empty"},{"type":"empty"},{"type":"empty"},{"type":"empty"},{"type":"empty"},{"type":"empty"},{"type":"empty"},{"type":"empty"},{"type":"empty"},{"type":"empty"},{"type":"empty"},{"type":"empty"},{"type":"empty"},{"type":"empty"},{"type":"empty"},{"type":"empty"},{"type":"empty"},{"type":"empty"},{"type":"empty"},{"type":"empty"},{"type":"empty"},{"type":"empty"}],[{"type":"empty"},{"type":"empty"},{"type":"empty"},{"type":"empty"},{"type":"empty"},{"type":"empty"},{"type":"empty"},{"type":"empty"},{"type":"empty"},{"type":"empty"},{"type":"empty"},{"type":"empty"},{"type":"empty"},{"type":"empty"},{"type":"empty"},{"type":"empty"},{"type":"empty"},{"type":"empty"},{"type":"empty"},{"type":"empty"},{"type":"empty"},{"type":"empty"},{"type":"empty"},{"type":"empty"},{"type":"empty"}],[{"type":"empty"},{"type":"empty"},{"type":"empty"},{"type":"empty"},{"type":"empty"},{"type":"empty"},{"type":"empty"},{"type":"empty"},{"type":"empty"},{"type":"empty"},{"type":"empty"},{"type":"empty"},{"type":"empty"},{"type":"empty"},{"type":"empty"},{"type":"empty"},{"type":"empty"},{"type":"empty"},{"type":"empty"},{"type":"empty"},{"type":"empty"},{"type":"empty"},{"type":"empty"},{"type":"empty"},{"type":"empty"}],[{"type":"empty"},{"type":"empty"},{"type":"empty"},{"type":"empty"},{"type":"empty"},{"type":"empty"},{"type":"empty"},{"type":"empty"},{"type":"empty"},{"type":"empty"},{"type":"empty"},{"type":"life","id":14,"nation":0.6734089288002547,"energy":99,"brain":{"weights":[[[0.9995072822398949,-0.7806640573074426,0.318246571590146,0.2455000357509683,-0.30148212530495616,0.6436856723395999,0.5775716067292536,0.5654041759994687,-0.2241386448339532,0.611050662895274],[1.3027916530655204,-0.31936610008456506,1.887616003833485,-2.6057277653351405,0.8040582220106721,-0.2290421633750811,-0.7648898150580177,-0.44273678138419487,-0.4883974296923506,-1.4721313813055747],[1.082395574602603,-0.5808484298411011,-1.247334052927362,-0.4333419834684126,0.11565429743620535,-1.360950158411292,0.6824278134093391,0.09538584244245193,2.360786777102931,-0.20636367541891534],[-1.684763637905755,0.3510102010693438,0.23813589726472562,1.1611005702511121,-0.09191564705092796,-0.11715451341781256,1.031727752361511,1.091877915783147,-0.10653593548214031,-0.2870943708844536],[-1.745605913346099,2.7756687004364626,1.125683402520883,0.7635303401280463,-1.87924897002712,-1.4534634263492712,2.2447528552955394,-0.1164971021814252,-1.812361933620452,0.46094678659135535],[-0.44256608836150707,-0.6866776746638433,-0.6432272047185231,0.6403518429198599,0.9898585031260556,0.8539411454854241,-0.44505318822462725,0.7808338147996794,-1.0112126370313737,0.8848741830870234],[0.05062268926618731,0.5771402516940551,-1.6360042806417348,0.9967004424930704,1.3123078612398784,-0.21196998243493378,-0.08341197763218616,-0.42168427186247415,0.21724825702329348,-0.06577575457074454],[-0.794595598551338,-1.1630507337478897,0.742237702975877,-1.1174874700995387,-0.4680291778066363,-0.1997559613606529,-0.4859814753396338,0.4542652433151924,0.380960587202998,-1.4057061174401329],[-1.1743664059572205,-0.7978007735799043,0.570502237735903,-0.462731442262607,2.2521912959774006,-0.9284232455282666,-0.004756516810969715,-0.4290578598336313,-0.16437170031271825,0.53404175821924],[-0.4712620159634836,-0.26225808436181136,-0.3249625808009321,-0.5993670300632935,-1.984113210168552,0.7138309738860215,-0.3095469838656601,-0.788818235362285,-0.5642321477791553,-1.5413493971115524],[-0.4688385965799742,0.17056121496706234,-2.116768590883146,-1.793634139617077,0.2684558089814362,-1.120988401486831,-0.16898468632311356,0.18014133803316,-0.12444183944935312,1.2179439986368361],[-1.08883934226189,-1.4412362058347938,-1.0638293425980871,-0.517696960990543,0.7764973283907844,-0.9756859756061612,-0.23134350396010228,0.5055321308855468,-0.16366072321016248,-0.08911810360383764],[0.3570570552858633,-2.233079796924595,-0.5603997108636838,0.018941145167661502,-0.3036643291899305,1.8752000603184904,0.08646727729373593,-0.1226415478365008,1.1517956727194383,-1.7919450421169032],[1.7555495189109303,0.07423857272240064,0.5902702054029162,0.6234578432093104,-0.6483148425700415,0.7086304299939328,-0.7275581159834307,-0.04581337140311556,0.028801061059793638,-0.20411661728646865],[0.30052548982478633,-0.38420337319724507,0.052765887607783966,0.5067977647164957,0.01145472038566072,0.025780950442336335,-1.0976667914469689,0.5867467443902764,0.8732167449847148,-0.24801084944152715],[0.47232675188930867,-1.0478315372070428,1.3396856420120367,-1.1298684556860232,0.3637662033784635,-2.0403510391544666,-2.386507834232275,0.6775794428648566,0.5757521188066913,1.4166872348516275],[1.72892644167998,-0.7451553354200429,-0.5002777391836023,-0.08854663254724596,-0.6338639290387268,-2.2791722169409674,-0.23806880802455926,0.34230294103403325,-2.335558083444541,-0.37587015736675516],[0.026213463930681916,0.1696358406648335,0.9400207149418841,-0.046176014169509165,-0.6798273204210554,0.9906461083567191,-0.22301831333743222,-1.0042053341618506,-1.1290951470526942,-0.777449609559199],[0.7534629366265464,-1.1915202166105172,-0.30057505641374166,-0.5276546015416635,2.0600355995860022,-0.9968507956752262,0.1052830699265323,1.544568483580468,0.9716372442983925,-1.1467432081492397],[-0.5258967003762375,-1.2714655068603191,-0.5487583149765519,-0.5057425983854462,0.46665196221215294,-1.5559719346846903,-0.8028364971329626,-1.3315170511865329,2.008905198774805,-0.29075639957747773],[0.49793156372521513,-0.44692968026335733,0.8567207010963023,-0.6635448723659113,0.5859235253306099,0.31332674586316595,-0.036901301356614714,-0.7484888413847103,0.5807152171392801,1.4304596934915752],[-0.07175751586480685,0.06270194382000818,1.3883234804144333,-0.19771692290952217,0.8017378246189452,0.04216027059344633,1.0104821107728068,-0.6990079883569943,-1.9269340908226407,1.7125051031649345],[0.2525702933443135,0.21190044216130458,-0.29467728984351743,1.2481553913820074,2.5225809373228483,-1.603192303091753,0.2884671506865497,0.22511197200894228,-0.17954309362378612,0.5649194061175937]],[[-0.8739040154493399,-0.43758260675076566,0.687633982301867,0.02910516568797108,-1.3308023761895815,0.16975188390664614,0.5750705748399082,-0.025530112614308462,0.9568621039658519,-1.07383584064625],[0.895038122359882,0.35090518165143014,-0.7365433579786554,-1.050251719868765,-1.6080401602331509,-0.2633653654637384,0.39987137478657436,-0.1614749940330215,-0.2561261566876483,0.5855321311763212],[-1.3546221115675188,0.5607276650990503,-2.09434962246997,1.4434643594905243,0.5213625864187208,-0.3230314737627284,-0.40744341865643874,0.15888013988215172,0.8521565297856342,-1.6531176901341704],[-0.6696258921015544,1.3394865717647992,1.17179159493574,1.525802126825399,-0.7992554279943582,1.3790761173618957,-0.2839150338283203,0.8332370757517861,1.2234031169871225,-0.3315324802871165],[-0.8435889449161615,-0.8015022586281334,0.3234011236579226,0.891701204922158,-1.0992224853944288,-0.2562312842250683,-0.8655647182579381,-0.9011685246913546,0.05356715924808263,0.03568175231379748],[-0.15689266270042315,-1.2265695387029436,1.0454689899793266,-0.5770025006916789,0.6345920949907007,0.6476709568141084,0.814525284492661,-1.405403098788888,-0.7828323788909481,0.9554897853546582],[-0.6031016362180811,0.5109226863155497,2.331680821331649,-0.03067087985140411,-0.14667452584053223,-0.19181540587294207,-0.9245122158187137,-0.39302638358197756,-0.6701006216388437,-0.22170954699960824],[-0.32352102283116857,0.6364142368746771,1.6270225367789644,-0.25041953933347855,-2.3463998607415313,-0.16096610619589583,-1.1659485888887757,-1.2571080052110597,0.5628192618308713,-0.7903283282450496],[0.07621300275077768,-2.5777095266990253,-0.834876625309775,0.409673044475975,-0.8469117813055188,-1.122996165613504,-0.31452557167973383,1.137911393832223,-1.6820155438434465,2.353021755823377],[0.277819857737016,-1.1220337224269856,-0.34118850927068606,-1.4910479872521436,0.5011970611751668,0.42429741274173377,0.05848862004727162,-1.083632873584441,-0.8570600809709111,1.123022097547407]],[[0.14458291073378293,1.121861257763447,1.4905495836500422,-0.6658328621880026,-0.3117595319938071],[0.14097072730340077,-0.08639129559712591,0.9431518888570463,1.1472221997489773,-0.3243456373836133],[1.3314804562572686,0.8932894465480941,0.30596605338765237,-0.6709804743259979,0.4460472250982306],[-0.32016606685831805,-0.44609311716732963,-0.9805645420045584,-2.2892926949076857,-1.4178598216281166],[-0.639098543502613,0.9032721207238029,0.49276975211891993,-1.601203399926484,0.5858641242188833],[0.20050023814113038,0.5510088352099674,0.07650251916859015,0.8515633802614869,-0.24927653791384222],[-0.5896274806569151,-2.1162090008014323,0.90410210446902,-0.9797655751018988,-1.2829557077369849],[-0.009150630523668065,-0.30753662105590585,0.944306038096648,0.09742125768409413,0.6152355156187879],[-0.5659535344879869,0.7157302203551905,-1.9186589728420362,0.3998828264592983,1.4556630423100507],[0.2533700752557993,-0.9638078324906196,-2.0583391199424086,-0.37772840903317567,2.0285892656225077]],[[0.8649142938428729,-1.4327133763828246,-0.8719317544038709,0.30065035096278875,1.5662307976705996,0.4956325878404178,1.0435715728901338,0.9868493838028342],[0.9275583124527212,-0.45886755152224085,0.11555144993608946,-0.030483874380789814,0.16369763933322037,0.526593831009935,1.0016016600656468,1.2267536973369568],[1.1182058850549803,-1.5583510408879275,1.309373311485564,0.9764321267553616,-0.6113649142921318,-0.6606701571600485,-0.998376756642993,0.8765339759315082],[-1.4392588441626017,-0.5242427108448897,-0.17165399102786197,0.09796969004091349,0.5517789647862126,-0.878863081880487,-0.3572967459091054,1.7270165733276233],[-0.4962910797880731,-1.4165082665130415,-1.881181100978597,0.9766528999090073,-0.018579259138398994,0.4722393830539402,2.1509483566109555,0.6079109658563289]]],"biases":[[[1.3955734362268424,0.2415723468410084,0.8631204775839814,0.6235278045176629,0.7747243534923658,1.824109352041805,1.3556495275289653,0.5826882104570221,0.5087841177275886,0.9589228073686513]],[[-0.9720271222882843,-1.4899068148742671,-1.1496318414265445,0.9782727140561502,-0.1784948835321143,0.09065956772443937,-0.1958068644712476,-1.0453568360915373,-0.3169186254930659,-0.8914905694223726]],[[-2.60256131369127,-1.0881533209287169,-1.8397804368711737,-0.9175307506751085,1.6005758621651989]],[[-0.6426643854976176,-0.7516640876778017,1.5032621631085592,-0.07137673406616471,-1.624189656653781,0.9640513094733042,1.950602132817188,-1.2825347117262251]]],"mem":[-0.8983727841137112,-0.9971178404869373,0.8906667589862757,0.8127550973348621,-0.9999892601229007],"out":[-0.9725620967282378,0.9971486955905413,0.838113808679373]}},{"type":"empty"},{"type":"empty"},{"type":"empty"},{"type":"empty"},{"type":"empty"},{"type":"empty"},{"type":"empty"},{"type":"empty"},{"type":"empty"},{"type":"empty"},{"type":"empty"},{"type":"empty"},{"type":"empty"}],[{"type":"empty"},{"type":"empty"},{"type":"life","id":12,"nation":0.7754335996072944,"energy":99,"brain":{"weights":[[[0.543301289971904,-0.8777743796600548,0.39198092042703736,-2.322908383730832,0.9632778910621993,2.72568173923411,-0.9688853138055245,-0.8062427316606423,-0.03535166389644436,-0.8769875282183598],[-0.7793744635264755,-0.19036240604540425,0.6663382716710087,0.9088201916830235,-0.5884457889157377,1.4517691970232338,-0.5789445441955302,-0.15379506928581416,0.4567013031208237,0.15598933008598534],[0.7344830379682601,-0.9912985622645017,0.5741054754579396,1.0801473190711584,1.5352466003151655,-1.018291691022326,-0.15664459158828828,1.1721626107361687,2.7925336987087115,0.8302224745221632],[0.8792076138100435,-1.2285172947513439,-1.3448317469741058,1.005786217497737,-1.3656766512241223,-1.6650462202968759,-0.1810792517644823,-1.1186514953393303,0.2574698191100415,-0.44890715160896133],[-1.2819142344666767,-2.351520362868989,-0.8995787970778052,-0.77599136397309,1.056601472663541,-0.36150028306504906,0.4584525950669442,-0.20312296822117887,0.4869575789665069,-0.3100431747074732],[-0.7539754972068691,0.042702452243857526,-2.0384110975407244,-0.08317911746858984,1.1898322872689557,0.41751921853941165,-1.5912426786946066,0.5200123649347075,-0.23993131422971894,-1.1471934581923353],[0.6567147950942663,-0.33182220714416516,0.6329265849382554,-1.3518043438374405,-1.9167267913855581,0.4017828349583552,-0.43382047695677434,-1.0016280836988078,1.5265214893542935,-0.31974554789944254],[-0.2663977360040097,0.864225814087592,0.2568332832329639,0.884199177848473,1.784574845197811,1.1524452446835605,0.2585251134175798,1.351675925286272,-0.31891691836703134,0.7526438710535223],[-2.008849232594767,-1.2527547577708993,-1.079777146536113,0.28149870981676683,0.7112615619341482,-0.6790761413349167,-2.5920695602279746,-0.16862944177583514,0.2524334332868899,1.116146077975575],[-0.5190181423527807,-0.5004566167014857,-1.6720148878595704,-0.5203113719694688,0.1297223387129638,0.7312502969761157,0.17608410255037754,-0.6200265139892192,0.23562958396831626,2.447259824228135],[0.2461079572853289,0.24800237892242943,-1.4527700472374732,0.44906508509367205,-0.5737022487006757,2.0654446245642473,1.0238201828318343,-0.4592306886883663,1.5577282760639206,-0.23254113817227173],[0.47422102052067333,-0.32017069435528794,0.5632894897306655,-0.6048559697344461,-0.7199918775687013,-1.6905445894899576,-1.7727528874671175,-0.32724238319168786,1.9186054767025185,-0.7936912186438885],[0.878786005650704,0.29757529312314007,-0.7885318600538738,-1.2793108410787197,1.700039063883554,-0.045287812862958805,-0.508532447913818,-1.510848987305558,0.8159799273914122,1.3147958573554104],[0.9307695230855917,1.498241113548118,0.856464637418347,-1.3649098267221094,0.3094695766813646,0.8969592887519491,0.5349472449760011,-0.3303471585405717,-0.7151467025152283,0.344052255737853],[0.2622621851046085,-0.8230771816323967,1.693041861845056,-0.6604751178411513,0.27653128414010036,-0.9851798706936604,1.4201087067464209,-0.1965830706300342,0.8121658183635913,-0.9879479694980992],[2.019636719004454,1.1170198068044435,1.1363271708435545,-1.8342594355756021,-1.7775423554352119,0.08032264084117996,-3.0347920138192097,-1.0874957814443376,0.3115326982049403,1.418275820532758],[0.31393687819885124,-0.5897846119437773,-0.8904845017007583,-0.661140241092107,-0.9184447055600765,0.9700523437872088,0.3639605275385656,0.29821726211303823,-0.2817966646977308,-0.5277658533302448],[0.9505667591955251,-0.06913014323068629,-0.5761138290559357,-0.5434396934896178,-1.9300006660970408,1.8026155374483288,0.18852338563049767,-1.6307632688902791,-0.07893335083193488,-0.6464533644868024],[-0.26240602686580544,1.0587128163859605,-0.6009259359886596,0.7639585889967553,-0.8446886611746648,1.2908052761092796,-1.1747869024512032,-0.451568718649568,-1.3703001752993804,-0.17958327612735367],[0.5558389211615113,1.16511553406645,0.03646234177368045,0.4614521334445847,-0.8043897107535783,-0.4700892936251508,0.47481318355370766,-0.8982306478005126,1.5644462100000833,1.5821380945521586],[0.09251167701660531,0.17511101983757116,0.8405849865894004,0.32990889707802057,-0.7574829805254932,0.486643319031274,0.39508398828003266,1.6478643179666788,-1.2756974592296628,0.410176987727334],[-0.68930482611453,0.6551585766955665,-0.5335585763377421,0.25444654411769696,0.905203035574318,0.16828857254213128,-0.5836454582885628,0.033976991219118506,-1.5148063089348978,-0.34251996186972655],[-1.0542677291756877,-0.9692028738211756,-1.2723887080562803,-0.5442298521462905,0.5656518642152935,-0.43049817602139545,0.18281257149365487,-1.6181645521114374,-0.7502863532975574,0.2604080364063908]],[[-1.336356354853656,-1.809781133831463,-1.4916904726579079,-1.3378264386918306,0.266659371621944,1.1359678559814281,-0.41486465521383,1.4695654802188594,2.041075299067494,-0.7988201656531864],[-0.44560414643245383,0.07428677986273709,1.7718126234034046,-0.6512599986686504,-0.3995760335337721,-0.07860350365786052,0.8869195837849347,2.55956334080622,1.137973047863509,0.2708839750958026],[0.9295471156862769,0.4951649905686558,-0.41978521202685964,-0.19421487227437742,-1.882731028913355,-0.26726973204042803,0.5306782813336696,0.3969095709455791,1.4687336370093287,0.8237595985150375],[-0.587683237167096,-0.3430593667702632,0.5158182054839234,-0.6212333132315903,-1.1094987391412852,-0.11030169203649311,-0.19409422840297308,1.0621506961408338,1.3569253576391476,-0.5006049164766122],[-1.2170464735234334,-0.4003511342153416,1.6571661865385616,1.5363254684676277,0.8263781147539041,0.0241811048065829,-0.1487331612117839,-1.2689111472497452,-0.6189844261550712,0.21555084321429005],[0.3878497827817275,1.6860980610092218,0.6892991023691796,0.7247354386088503,-1.381633317214104,-0.7665855072625523,-0.8882729794891137,1.5165104796774207,-0.24072080639777266,-0.4785726245465692],[0.9232622506275451,0.21456554617281512,0.03459338851192247,0.8000793134800501,0.6113673080635855,-0.6952281552530614,2.5003495764601493,-1.8365483549111308,0.18012235066508822,0.6863586382471135],[0.005403910090467673,0.8490384246986101,-0.8732913705221972,-0.7049926086230184,1.0484102337247831,-1.2179133358440608,-0.8719273163727222,0.5944285630101891,-0.9700621793799645,-0.3219798624858401],[-0.2225572730840072,0.8365233345417711,0.4562347614384818,-1.0217375568537115,0.009137552042728626,1.361234646605138,-0.5324457793018174,-0.3637414925015048,0.9639958920699343,0.9063433501670034],[-1.3666003615602675,-0.10884419110910658,0.2988494127663361,-0.7740297296220454,-1.068458837620633,-0.02833811929893271,0.45856839179057807,0.22567505088079448,0.5491640329566401,-0.7400126612272258]],[[0.9267948368728277,-0.032171259995022794,0.614667304763442,0.36920246879389357,-0.5713635002213162],[0.4298167022572955,1.4728797103969842,1.412038067006997,2.5503276407451194,-0.8035342128035216],[1.0634772540615394,-0.59804927859476,0.17072895607193342,-0.11827070191801728,-0.047805720605364754],[-0.14051671398403906,-1.0991037053669284,-0.6019138823736594,-1.3122625408686948,-1.1892730155138935],[-0.5050429651740829,0.6717351407994929,-0.19176218175455184,-1.0525418613625874,0.36357649069574477],[0.12328711258002936,-0.29046390782248527,-0.7178816863936853,0.8201836300376654,1.8750837764315804],[-1.4311068543937069,-0.7113466240935371,2.5439927666626447,-0.6914520627956872,0.6722938319168232],[-0.4792282228408225,-0.8370183943764666,-2.093830742290348,-0.7610453634131205,0.7399023533582866],[-1.6034276201884454,-0.1308136360987594,1.6131480514660819,1.301448277602672,-0.5615820077709369],[0.9670811743902685,1.4742919343188665,-0.44685576031919116,-1.3379714592806142,-2.9775893250846392]],[[-0.8938760525650847,-0.5933014288798713,-1.6339909913779398,0.5961558691530563,-1.3713559387695993,-0.171616022401157,1.5634871814213864,-1.6734643358662311],[-1.2443497996997699,2.2372384208733442,-0.05622914722124443,0.2726547468138202,1.806534991621641,0.1922229648796712,0.16367417270828,-0.3869615227690069],[-0.9034321574456182,0.6012401970075097,1.6670599251998475,0.7657114328188852,-1.2285345383387474,-0.4245603054789506,-0.4803703972453685,0.8188446108820808],[-0.9474368586989685,1.2345054473164947,0.635569475305931,-0.6914786535439175,3.269149985116651,-2.364751347632724,-1.4432770374461024,-1.5998983467988792],[1.6611438024652245,-0.15940713872780082,-0.8826089162876815,-0.1637831858838475,-1.5735014489096895,0.62658797364463,-0.30788527746073335,0.43050698375829527]]],"biases":[[[-0.032929888363693094,0.23620742395222713,-1.5424334380763511,1.4004096521904472,1.0874804940869762,-1.5573783863323893,-0.20432232680397255,-0.9803512619827049,0.021776886311734904,-0.29991759094445897]],[[-0.5632633101052723,0.5204715816074098,-1.3900008909376824,0.11559518155281383,-0.44721055872160476,-0.11440679496876568,-0.7909230650353301,1.2384674363441335,-1.6433751769557237,1.7040696465521195]],[[1.4133888463449322,0.2544796359139373,0.10567734639112805,0.31871158345754674,-0.5948163623124183]],[[-0.7114065685194094,1.140653919642985,0.8797093153816363,-0.2440135949737668,0.575398609902314,-1.091626747359423,1.5552617208155604,1.3588824848798313]]],"mem":[0.9752127734329411,-0.9732242793381553,0.21725711991790203,0.9997705818676279,0.8683712722810275],"out":[-0.9996058529552297,0.9619464678073167,0.7930545210383044]}},{"type":"empty"},{"type":"empty"},