{
  "weights": [
    [
      [
        0.1765795248969585, 0.19206460051072471, 0.6208998834656472,
        -1.0075368942940723, -1.3620558789304358, 0.13688994810412983,
        -1.343527716007284, -0.7329000853417778, 0.06135046190660773,
        -0.3496600289056425
      ],
      [
        -0.3806394223019888, -0.08952331442107971, 0.5331241869190767,
        -0.9862369116225823, 0.008449505401089255, -0.9903505380574338,
        -0.4849792260464152, 0.039088692656437496, 0.2784252670559712,
        0.030854488657044103
      ],
      [
        -0.35008623304772357, -1.3928438758085018, -0.31361235572903484,
        -0.357567948501612, -0.006208527683452925, -0.2586151173329564,
        -0.25884575018105316, 0.16108690322824587, 1.4453154775678254,
        0.1438701740297047
      ],
      [
        -0.30822735501779114, -0.10915234554596942, -0.36126388699166434,
        -0.39737730884475886, -0.22853196139158627, -1.4166729611077415,
        0.8958062670177178, -1.2422223313523393, -0.1302825804748421,
        0.46822861088173556
      ],
      [
        -0.1192773116721238, 1.1736389729115417, -0.36168941099372315,
        0.07290222020753578, -1.086959783258729, 0.2601127274225071,
        0.28314476098722485, 0.5697592197301422, 0.27950260112851444,
        0.6973742197712876
      ],
      [
        0.5884510328149776, 0.6366403507674427, -0.7626936004633158,
        0.026785037084019414, 1.1028265450220578, -0.9602657740969587,
        -0.9501283602894978, 0.07866301927978303, -0.31849772055096887,
        0.5552593793971029
      ],
      [
        -0.23648475808555858, -1.1365652979350487, -0.17931939915077177,
        0.08710715578999476, -0.1797685555548656, 1.2929803044496775,
        -0.3878501206759841, 1.586106697270998, -1.0512503916712952,
        -0.012980656934965529
      ],
      [
        -0.13557091015843048, 0.2237789140879528, -1.5292637551262387,
        0.33593787211630116, 0.08642518953500158, 0.7387759653245369,
        -0.7476878370684549, -0.7497583749169671, -0.7178942487893778,
        -0.279851468989614
      ],
      [
        0.5548327764047032, 0.08277341201348062, 0.2666523616887121,
        -0.15931951142208745, 0.16690147547087386, 0.256826255890614,
        0.1834788873495616, 1.0576840320689753, 0.020567150327090375,
        0.13461221747244495
      ],
      [
        -0.13172620869330273, -0.15832459944232224, -0.6547157875729825,
        1.0466488632482198, 0.9641370161548348, -1.0479381793382077,
        0.46174640239995157, -0.13863317078622797, -0.10139681889666108,
        0.8358874815791256
      ],
      [
        -0.15410888399738504, 0.0023050421427752432, 0.8554734883643175,
        -0.7608357598513709, 0.20020841754959784, -0.44892853165476804,
        -1.591205941541415, 0.5090648641515232, -0.26043885328960537,
        0.2915889518201472
      ],
      [
        0.8926984334198366, -1.2593372412597263, -0.1986795560489026,
        0.37170559311880014, 0.7642142468662956, -0.3359507321594824,
        0.2526185925027568, -1.0341874344635988, 0.40350102934311777,
        0.3736055374447941
      ],
      [
        0.9166636884275495, 0.9810942263188046, -0.6795020325508448,
        0.5442198714461456, -0.05311048598017876, -0.7782178200508638,
        0.44419521068909096, 0.25000162895555095, 0.3591431060862418,
        -0.916371344166371
      ],
      [
        0.7370741460997821, 1.06552050355065, -0.23499409253677367,
        -0.1549158394974133, 0.7237999566983173, -0.6471280378503402,
        1.0750491087184133, 0.5988326777940413, -0.028295922775532723,
        0.14002738459355235
      ],
      [
        0.4603431295819893, 0.16717856152125288, -0.09546510703512624,
        0.593020712930958, 0.7680696585354434, -0.10324170207703862,
        -0.05995739232658165, -0.17010692027700292, -1.1401308076336576,
        0.3501666899496354
      ],
      [
        0.5984477710751948, 1.3878196840266557, -0.700384728575048,
        0.19456333113798202, -0.29943941010052233, -0.8243477970364752,
        0.3890311400913829, 0.4840643871135292, 0.6263566078677347,
        -0.06968511767792879
      ],
      [
        0.4811093022654165, 0.432278747141535, -0.4275805039409119,
        -0.9074114330487082, 1.3506675400580417, 0.27756028372186115,
        -0.6532141204435986, -0.03053993226261112, 0.32876301079393727,
        0.40058375746617014
      ],
      [
        0.3371600579590037, -0.7326395004897672, -0.09187653757442221,
        -1.6502817362038296, -0.8359277299445601, -0.08669331327519589,
        0.7378053422523854, 0.9407391648298201, 1.2590587979533252,
        0.5499724808050622
      ],
      [
        -0.8097169430137634, -0.013842922162390886, -0.7471566943720311,
        0.5884913451545115, 0.07942066858413099, 3.6113538655204995,
        1.0732233991474929, -0.9965201588098235, -1.259104186967766,
        0.7421807439700254
      ],
      [
        -0.4677085815219705, 0.9248340898329935, 1.0649208977647342,
        1.0802695448433481, 0.4200003981287705, 0.10447434075043366,
        -0.04191862561239476, 0.017506919727027892, 0.2577412560034889,
        0.963958271469337
      ],
      [
        -0.7344597246078104, -0.13563688174869104, -0.34086317642899183,
        -1.202117159475974, 0.3540646231028166, -0.6430425366078211,
        -0.8539630935887956, 0.10270454476073457, -0.18754063294795897,
        -1.7789625671772897
      ],
      [
        0.04223884485415702, 0.6473253791835624, 0.6217487092359884,
        -0.46070434323510245, 1.4796100640844985, -1.173275087690574,
        -0.977052072603374, 0.07583013442068554, -0.09731312356599786,
        -0.8010800318779069
      ],
      [
        0.47061287679293834, 0.4178309881586046, -1.0391375024144764,
        0.04363672442373954, -0.6013619741636178, 1.587531047883538,
        0.9321963876029874, -0.26388449962737304, 1.33293433238146,
        -0.16412623707661486
      ]
    ],
    [
      [
        0.8982008878115681, -1.429174049784352, 0.12256505382481941,
        0.8442838736617827, -1.180259590035583, 0.5312265375015681,
        -0.5996997648044377, -0.3460645018658045, 0.14961130260189148,
        0.14544101616062732
      ],
      [
        -0.6196951596191433, 1.9016741979843668, 1.4667044056242742,
        -0.973935090470649, 0.3941098581757324, -0.4532444348112563,
        1.1178876198610403, 0.7206681368975749, -0.41633986135795226,
        -0.4730103555458283
      ],
      [
        -0.17547687185720112, 0.8392474648824668, -0.4722591385993298,
        0.6020082175456463, -0.9041494958024143, -0.5605382537518633,
        -0.7481496545395819, 0.8416531154623949, 0.3897401057856995,
        -0.5254000004401099
      ],
      [
        -0.002596567052666702, 0.9328035342686014, -0.15471264877371277,
        1.1906577350835847, 2.297321130343699, -0.8424806040339126,
        0.7435739551105074, 0.339655678507218, 0.9012660968619084,
        -1.408536386713255
      ],
      [
        -0.683865331837283, 0.8179801111594556, 0.9632091151105742,
        -0.4864772414415858, -0.7552170798983989, -0.6638961475042003,
        -0.1118642127958186, -0.7129014164727496, -0.15618546460083893,
        0.2933407281565221
      ],
      [
        0.5035231277611179, -0.06883808418828485, 0.08208104225636415,
        0.0003349406235868685, 0.9845547742492683, -0.8702229900333783,
        0.7463957797272764, 0.8987447198736909, 0.058848918094248026,
        0.12057741334150777
      ],
      [
        0.4213175820807162, -0.985538013929752, -0.037741707582083034,
        0.3221902705959133, 0.29891641919852424, 0.9278969851823295,
        -0.26108248198985096, -0.270178117884114, 0.7218668637082937,
        -0.35755983060564756
      ],
      [
        -0.062400339601980076, 0.16843924909238464, 0.7916070648421216,
        1.0530895998692915, -1.338308593134829, -0.09079015578214102,
        -0.285708555053633, -0.4709359383456614, 0.0617889687234955,
        0.44110898337429194
      ],
      [
        0.6384410584589155, -0.5849400461998467, -0.3829190727780325,
        0.1314872768995315, 0.3544317400843383, -0.26055629990631696,
        -0.08695089795375116, -0.7152827710535345, -0.5474637313857222,
        -0.1567952780296607
      ],
      [
        -0.2348311254139134, -0.0059191514730782616, -0.7679756644229969,
        1.3371937825566806, 1.0720786404596647, 0.2885379824573917,
        0.6366374289980338, 0.4246279988430216, -0.4660161927239622,
        -0.45886211494739504
      ]
    ],
    [
      [
        -0.6237285066704702, 0.17325893918984597, -0.653024113208394,
        -0.10527245711181801, -0.6747765004427072
      ],
      [
        -0.832992120362533, -0.3750518684550893, 1.41610629997127,
        -0.05854368376688199, 0.1060195756446522
      ],
      [
        1.1007554493937648, -0.19835171562439835, -0.7359801732886807,
        0.1052096379541721, -0.10329844756587953
      ],
      [
        0.4639332872318003, 0.5282887569818576, -1.1388143318293809,
        -0.9972820166768656, 0.4061685943992655
      ],
      [
        0.23910783591162393, 0.14132493525462755, -0.5916641599960921,
        0.9102810998717812, -0.3178958587624026
      ],
      [
        -0.6842253173210565, -1.23651209182478, -1.106183460055221,
        1.7788889918533317, -0.6897374488706708
      ],
      [
        0.15979656818581517, 1.014665096492199, -0.06833569678911661,
        0.9072756343445449, -0.19316703076162467
      ],
      [
        0.6434113697141981, 1.04551475051797, -0.008738472372023021,
        -0.36449664245901453, -0.02770663136104451
      ],
      [
        -0.27265113795191476, -0.2636870955554929, 0.10651740302792306,
        -0.10577162215807903, 0.2295074615854163
      ],
      [
        -0.7032653744448729, -1.2929528468066471, 0.7265691118834205,
        0.49201306409898643, 0.002382312405118825
      ]
    ],
    [
      [
        1.0513645303257286, 0.4476108725539496, -0.44454833691053275,
        -0.5673519699629108, -0.4908968103193213, -1.1843875133671227,
        0.2644846141364692, -0.13871089114766152
      ],
      [
        -0.04491178528072935, 0.058861763284023816, -0.35053336299833704,
        -0.08978598518515457, 0.5564534525950047, 0.9468618065131582,
        -0.9750403361625302, 0.5877124505921861
      ],
      [
        1.300225033721333, -0.6345673425179853, -0.6648733957515621,
        0.8874142450647332, -0.44679692789352177, -1.176388636275812,
        -0.5924690648357722, -0.43014026816471085
      ],
      [
        0.6083038425008038, 0.13976778893376873, 1.440405170450061,
        -0.132958825578823, -0.7251013093512839, 0.3431023884968724,
        -0.5089968106873153, 0.4960148545703352
      ],
      [
        0.3392372319831575, -0.5041178344071547, -0.14819457525284965,
        -1.2180832687012162, -0.3773218466239087, -0.1366147301562003,
        -1.2926688992490691, 0.30642136924313385
      ]
    ]
  ],
  "biases": [
    [
      [
        -0.8074505619369251, 1.3447687538137953, 0.6519053076865575,
        -0.30773388291498377, -0.1987522574707749, 0.14518889599222773,
        0.294069440300424, -0.2761915299610629, 0.6078478404536291,
        0.34225200107534115
      ]
    ],
    [
      [
        0.018708226893343283, 0.7635385070380462, 1.277264492989224,
        -0.9353861582977587, 0.20502223028777428, -0.0844928108722727,
        0.4345678459187421, -0.9070673142722779, -0.0888126516993798,
        -0.09511058218725246
      ]
    ],
    [
      [
        1.1977007246653324, 0.5210353826059648, -0.2303928641888302,
        -1.0839979074233639, 0.4394858706867063
      ]
    ],
    [
      [
        0.21339563558128669, -0.14021000936852168, -0.5747762583478535,
        -0.11277560896814504, 0.685917900598248, 1.368745061833609,
        -1.2651600926849451, 0.7031362558520886
      ]
    ]
  ],
  "mem": [0.0, 0.0, 0.0, 0.0, 0.0],
  "out": [0.0, 0.0, 0.0]
}
