{
  "weights": [
    [
      [
        0.10254286054984527, 0.38378570819195823, 2.024971249360388,
        0.2340950121975073, -0.46304877746757356, -0.14688976088417638,
        0.9750128972972846, 1.074204059141044, 0.9425798781373654,
        -1.6507974811777566
      ],
      [
        0.8810788171394199, -0.37475692971819197, 0.03681061082950955,
        0.09858455406738578, 0.15752526920280663, 0.460070805596635,
        -1.2279135928219778, -1.651616032234592, -1.2237845571219856,
        0.6624815175923521
      ],
      [
        -0.9171225415299183, 0.10050170729248543, 0.005435315426400183,
        -0.9487996449842927, 1.1212843264375452, -0.37442300125231825,
        -1.1748490733228563, -0.48947647216807355, 0.25894827375565016,
        1.0466844386789
      ],
      [
        0.5413522210647943, 1.049646203261108, -0.10983668425824407,
        -0.4105017871573825, 1.020534706385502, 0.2886559800168333,
        -1.611010815969505, 0.5301797010278421, 0.29757968985352495,
        -0.08290933586710507
      ],
      [
        -0.6041357639054481, -0.6784567504325685, 0.27299258274563915,
        0.507787107652471, 1.7929102753435164, -1.43387743387035,
        0.37459204250635586, -0.7661386588268938, -0.8475828404938057,
        0.9064698405547293
      ],
      [
        -1.3424955546103268, -0.8029436803161972, 0.5322658513623243,
        0.35004860171834734, -1.174066749412332, -1.4014524799802264,
        0.42170689955876645, -0.48951811036877185, 0.5146345141397373,
        0.01711997291927868
      ],
      [
        -1.0568316430306526, -2.4808007394910407, -0.2644937231899537,
        0.5652393426593596, 0.2784712449152522, -0.766949683145607,
        -2.5127089612303424, -0.01440905085426342, 0.4334290531880522,
        -2.1370250752537707
      ],
      [
        0.9855044389580865, 0.3535453474210553, -0.1429079211315326,
        0.3907517658844063, -0.9484137515599647, 1.0450818505570059,
        0.7398224841410287, 1.3345423708897388, -0.2539827695964678,
        0.3033856353750797
      ],
      [
        -0.8429282188542336, -1.303268324533365, 0.683951989058063,
        -0.40785648516372064, -0.29868704122588896, -0.026416463777622117,
        0.20332776022147567, 0.3746917722923625, -0.5742490637918271,
        -0.2426068786026048
      ],
      [
        -0.1327620446584253, 0.06156283707876344, 1.7128158469684138,
        1.0232918588769937, -0.24355885304110808, -0.5296097201289407,
        -1.0594083953939328, 1.0842382741550376, 2.0385671632609785,
        0.9162533984236457
      ],
      [
        0.6412242719317278, 0.035732131516472754, 0.4205538965840808,
        -0.49151332982451634, 0.5042053575128144, 0.6182912746483358,
        0.24669569943383876, 1.26161763458881, -1.1939007322511714,
        -0.9207721005685666
      ],
      [
        0.8379629233498309, 0.935718766140241, 0.4630225969122765,
        -0.23746189982951305, -0.6365608538817221, -0.015962816758524366,
        0.5499694249635151, 0.9969593751702079, -1.2710975756452214,
        -0.7335149660135134
      ],
      [
        0.39320568899079705, -0.3871550338035276, -2.630592996172782,
        -0.6720913327116197, -1.1010260090455033, -0.43045002610107086,
        -1.3420274937911205, 0.1399057373134974, -1.2209783028619972,
        1.5429335465309184
      ],
      [
        -0.5171834149678208, 0.7286111872028835, 0.40454634941285345,
        -0.904390654961855, -1.147173727194326, -1.6585960800939905,
        0.7048709358357543, 0.56294936351944, -0.722773907901195,
        -0.1907633783486313
      ],
      [
        -0.10116769470285686, 2.981897084674364, -1.2754444560507525,
        0.6455146997140587, 0.14847581426089626, 0.28737245056225985,
        0.3453673292970432, 0.6147151519371331, 1.0228437290445864,
        -1.3579546361265349
      ],
      [
        -0.29779470563968197, 1.1278767931314433, -0.7503320680151679,
        -1.242733356378277, 1.1819356869152942, 0.8453574746941052,
        -0.18452659912782088, -0.839890248693974, -0.19854420946859547,
        -0.14068293136351323
      ],
      [
        -1.3321229423316538, 1.4496300220618314, -0.43186233841036165,
        0.6465653329811186, 0.24982638571714746, -1.2222767114431405,
        -1.4494584943175746, -0.22095078516080044, 0.13313347617916155,
        2.3815506583254455
      ],
      [
        -0.5890042099235494, 0.21913306620839662, -0.5045159320937619,
        0.08072184827790502, 0.038792980504761106, -0.9313284312432583,
        0.27036632125864574, 0.157133684205486, 1.3359462468781609,
        -1.5322126944236913
      ],
      [
        -0.1126971105067348, -0.4070652355768884, 0.33034123975781554,
        -0.0332246932180639, 0.16941950752544876, -0.22516843109493256,
        -0.9143750797964177, -1.514297554301968, -0.1510428915422855,
        0.31127657122963354
      ],
      [
        1.8177868032271052, 0.5137495157641475, 0.20622617850368682,
        -0.23264949253059092, 1.0208640774670548, -0.47972502239975146,
        0.3690832316580158, -0.9725149525578332, 0.005523297094989185,
        0.4559864789340376
      ],
      [
        0.7352444787562458, -0.7220496962400001, -0.8726999563263221,
        1.5435068213995602, 0.2935026678774568, -0.6757205780063033,
        -0.0701973507205092, -0.860075075620976, 0.8586737091431893,
        -0.4730780306905155
      ],
      [
        1.9450278926982991, 0.15882687471644874, 1.28977485166084,
        1.4884746731377265, -0.3207939752522479, 1.1586181269403726,
        -0.47143535425578215, -0.28599082559952044, -0.2964324525211314,
        -0.9124454043684116
      ],
      [
        -1.1033709331680683, 0.032726571875818594, 0.5723962858089849,
        -1.1593350212104743, -1.8185009943056238, -0.17046290333200032,
        -0.03377613563852059, 0.33764515192388567, -0.21129185048756668,
        0.3825416457926893
      ]
    ],
    [
      [
        0.11624929602853454, -0.14395840160442047, -0.2920028375202194,
        -0.4481953301501204, -0.06668232112487417, -0.3688416805341692,
        0.7114746168301915, 0.9274152599261841, -0.16899393649545877,
        0.04263256961028289
      ],
      [
        1.0840993715510918, 0.6224314634959651, -0.10953346434200664,
        -1.1354859081634285, 3.2886947185517648, 0.16564792907177694,
        -0.8750796264483571, 0.6839659944106616, -0.8271895355670248,
        -1.9210564069766727
      ],
      [
        -0.8412946623260152, -2.1933254807953775, -0.7965689292722944,
        -0.6902070920167112, -1.4895535635717618, 0.6085093000298331,
        -1.02146345744615, -0.4557658284676086, -1.0206607640204515,
        -0.6797424958660544
      ],
      [
        -0.7049038666027735, -0.5943053169803473, -0.949920479338982,
        -1.3346722035955638, 0.277386470418515, 0.8659251674999756,
        -0.39242462293710145, 0.5772005789319985, 0.7535164034255979,
        0.33852407433403975
      ],
      [
        1.6945375605604494, -0.34774522599480817, 1.7298069830467502,
        -1.1615800915033108, -0.3374888674415734, -0.10437877037024493,
        -0.5057729222339801, -0.19851554667316818, -0.7142855335260917,
        1.1137820428133784
      ],
      [
        1.3920848153583698, -0.5621961372867508, -0.6009988506581612,
        1.9283043705778988, 1.2947028163871583, 0.1820533247683233,
        0.9649944841684515, -0.4708579064639801, -0.16559021870374568,
        -0.5928433834412894
      ],
      [
        2.1595496353920813, 1.23605512045441, 1.1991843588023072,
        0.5743843583832243, -0.028631451994482512, -0.06270950852602214,
        0.10291004241281806, 0.9522538356133439, 0.36210031439978324,
        -0.82725912391559
      ],
      [
        1.6960444621402966, -1.8341452108275214, -0.44260898765844,
        0.8544121473840848, -1.7381823941570216, 1.8137490611056142,
        -1.0287110537683184, -0.07642738332657215, 0.303934882705086,
        1.0377533197186304
      ],
      [
        -2.4803148106193413, 0.6020996197252265, -0.7956543846966203,
        -1.4164902068201408, 0.6194358804711273, -0.27665479745429383,
        1.1779678134696854, -1.3332769162042337, -0.17615637316858182,
        0.3976102982094678
      ],
      [
        0.9377111071183941, -0.24052480442385984, -0.798357240514337,
        0.2749127231466436, 1.5829680122710692, 0.3529273666272616,
        0.9333025543452317, 0.9711274577585893, 0.16636736627344453,
        1.2774192297376736
      ]
    ],
    [
      [
        0.34257427906553806, -0.18448263175224897, -0.8956683015527765,
        0.257046221255155, 0.8411134118323672
      ],
      [
        -0.10417379217950762, 2.6867587049364534, 0.8164417456261642,
        0.0446654993380196, 0.3342520023920637
      ],
      [
        0.17788196953328675, 1.3917766948898334, -0.08958242586075874,
        -0.17551053515193876, -1.370277122434014
      ],
      [
        -0.3082038824627248, 1.1955121664871353, -1.6178213515417703,
        0.6472838091451329, -0.01501592122482215
      ],
      [
        -0.8403429933170803, -0.19559999768061404, 0.49389034685387023,
        -0.1417694155385594, -1.3202251883228093
      ],
      [
        1.4876254923715173, 0.18294002756651218, 1.6788522130745964,
        -0.5270304874239355, -0.39618770295878125
      ],
      [
        -0.7325161077058613, -0.5451340602446721, 1.6073540035830327,
        -0.5131115188553304, 1.19096190998373
      ],
      [
        -0.14227884335718693, -0.9369796772767295, 0.7437427027761677,
        0.839003242298846, 0.08049418706454686
      ],
      [
        -1.8272394527562037, 2.223150263151022, 0.03958068035678041,
        -1.1582335422604653, 0.42785374552796007
      ],
      [
        1.5905234520155023, 0.8287505633054348, 1.9472288663259099,
        0.41412003184978324, 0.7234392319684533
      ]
    ],
    [
      [
        1.2753932084965955, 0.047730669628394104, -0.9453865903699925,
        1.610650576146009, 1.6534852833133806, -1.8133256068823183,
        -0.6935508980043811, 0.34714468940729465
      ],
      [
        0.11048300943794932, -0.8089074700648723, -1.2002744436100212,
        1.7580692277008563, -0.07085704172878227, 0.5689826430756022,
        0.5620091516586785, -0.8310099496172464
      ],
      [
        0.18884570371971796, 1.6259210277149045, -0.2899842843396244,
        -1.2809457436479426, -0.7599653613664765, -0.3468087461460612,
        -0.9291224555684262, 0.7030534877408671
      ],
      [
        -0.8250889313125082, 0.8852422328629722, -0.23105933990101138,
        -0.7655677804845598, -1.2180665540976825, 0.3534366403476599,
        -0.8298826206790474, 0.565706118024248
      ],
      [
        -1.157014804499164, -0.06489114373980714, 0.2764300251628797,
        -0.8782578140746419, -1.6170293155157636, -0.12295457078670945,
        0.13066044367966317, -1.941396295839494
      ]
    ]
  ],
  "biases": [
    [
      [
        -1.1779452786644942, -1.5810268682700248, 1.4297352837366764,
        -0.11849208625574628, -0.4559910386790706, -1.594660795417319,
        0.023607780194873505, -3.2923430848285844, -0.32228016135939536,
        -1.147611461608672
      ]
    ],
    [
      [
        0.28578848552698694, -1.2518475216345923, 1.6346388354604877,
        2.8330408359389554, 1.2304689913365345, 0.2353597025430834,
        -0.5462225921315705, 1.7236520263467219, 2.6725873813175367,
        -0.30430541003246653
      ]
    ],
    [
      [
        1.6599930150660323, -0.19517128289663005, 0.35605684319886477,
        0.8316603943196162, 0.1386144064239844
      ]
    ],
    [
      [
        -0.43369187034598267, -0.3958116749100753, -2.600514723985795,
        -0.6961806232190021, 0.15789182740666569, -0.4262003626739018,
        0.3702154504727256, 1.0838235737832367
      ]
    ]
  ],
  "mem": [0.0, 0.0, 0.0, 0.0, 0.0],
  "out": [0.0, 0.0, 0.0]
}
