{"world":{"cells":[[{"type":"empty"},{"type":"empty"},{"type":"empty"},{"type":"empty"},{"type":"empty"},{"type":"empty"},{"type":"empty"},{"type":"empty"},{"type":"life","id":3,"nation":0.14381267862368624,"energy":100,"brain":{"weights":[[[-1.3561006937047102,-1.499745738838735,-0.4133080937112319,-0.05394512001369264,0.027716136919061923,0.9679556464565381,0.24379574334259108,-0.8370790125902247,-0.3765980782707736,-0.06236300367418349],[1.475424578626962,-0.19583327925602975,-1.3593600918706485,0.14677103310124487,0.07839881230153443,1.5529289293741972,0.42508855032942133,-0.4655458680382047,-1.1284443975027376,0.735934943711916],[0.11972789357319427,-0.07769934392984661,1.6500325894593568,3.104613455942009,-1.30214784749537,-0.821473473740437,1.1323939429752943,0.5215225211920275,-1.0304892510486394,-0.07493221162407721],[-0.37841803777424676,0.9273746775989511,0.12747814867080023,1.1217402056104873,-0.7356853587466584,-1.5255832358185681,-1.1271734152617379,0.28652898325410775,-0.4508243477357437,-0.003923766963855963],[-0.6265540406354715,0.018030779819837653,0.3283246790914946,-0.2335067545547454,-0.010005501924775645,0.792306257318665,-0.6927663936470821,0.5740247160744165,-0.6554502609218275,-1.0442603120678924],[0.8391497500562004,1.3440523723377187,-0.9842370242518417,1.7457927743834947,-1.2814575529625534,-0.27176280185415336,0.07737471490626686,1.2924662540365632,-0.05043820313552257,-0.6609604790936924],[1.1919450114091275,-0.2938685843919461,1.4653551852788165,-2.744399700640059,1.1013131099262998,-1.319800949231212,0.8450830674657077,0.5050757093417104,-0.2634935930832671,0.5924790872312438],[-0.7111036748906567,-0.49998598558500945,0.33216968614906417,-0.39558227272163987,-0.32304809854882977,0.7262211560577959,0.357700119791833,1.0587982065941135,1.0090418098709881,1.9491667877493293],[0.16737053725858914,1.9863479857722788,-0.30572734874071433,-1.0344026398969384,1.664839057648186,-0.18940270009293342,-1.3724333622331086,0.7354574100952762,-0.013930612946771684,-2.0892220332001665],[0.24242778568135526,-0.8191226100188753,-1.2588060636094165,-0.09327542645584996,-0.9775193868569445,-1.1732580375798605,2.089824727032194,-0.20078354401537193,-0.6625364663964743,0.8342805451654139],[0.29877470852164817,1.027763308128176,0.5366982614592181,-1.7497316476362774,0.9406251809046799,0.8420559445242704,-1.0039128639013637,-1.5799945994389926,-0.4683751655199047,-0.09429328828384909],[-0.5547374359960093,1.4810485448863286,2.0702557522797247,-0.755636633689114,0.6197628983601354,0.4537548974884357,-0.617998862939784,0.3522857223578963,-1.7742843622591848,0.35936406997985393],[-0.7087977955027482,-2.9305288474650997,-1.3002190517347545,-0.24521913379657692,0.6795910856198899,-1.7123865968668837,0.5776819257691449,1.5892479996567588,1.7547338968370483,-1.6877918906161224],[1.1198958883258388,2.0142234762436684,-0.0017257461413407607,1.2577231470661783,0.7307030460890671,0.4834191126216581,0.962195965738288,0.26185413174148575,0.73439713215919,0.49316821466807],[-1.1215806097254362,-1.1189351323191652,-0.8178033427951095,-0.012878057186853236,-0.1368571274269264,0.06088885133638117,-0.0967002116560312,2.4905626645847705,-0.1919062050187453,0.16840229143602833],[-1.512878033799689,0.23180343083213625,-0.9126134877690286,1.6271827642845973,-0.054711431649452844,0.5471477530489842,1.994407168079019,2.0490322941973766,0.7983113713562179,-1.1042187520503848],[0.1598056161099659,-0.03353729598904085,0.6312252731108344,-0.6764964617553403,0.34888533396409005,0.3518166674122782,1.053187038602215,1.5109336016689625,0.8328179501017627,0.9595588099843686],[-1.5282828316239039,-0.5163669713968009,-1.4272905787190924,0.4545031461470238,1.8357421079266847,0.18866586217885997,-0.24228819468747023,0.09766331719742247,-1.1655743839657589,1.063915653327699],[-0.9892846433118969,0.7440481289422319,0.725494025294773,0.418225058799136,-0.5229534360473315,1.5936325734003722,0.7869735936088943,0.5560187387896773,-1.1812170495280185,-1.2308755612045974],[-0.31409658072043495,0.7473555571820922,0.5230230051736989,0.5000286036668646,0.9830527033449656,0.6690244408417146,-0.9200015739365899,1.1784499249365297,1.9273206476250064,1.3666801419922103],[1.4456328369748057,-1.5674922647789515,-1.5562251641381069,0.1643658137441986,0.5612117991598777,0.5257403956462944,0.7793190643762975,-0.5530470139218513,0.5594341291176149,1.25197184287196],[-0.1170237152338076,-0.6783631259778024,0.7609266762125205,0.08570779278225413,1.0179870228711672,0.021708881246988602,-0.6049407439624001,0.6721094003800079,0.1332182587141246,-0.1572405726006018],[0.8836444970904058,-0.5314104770337508,-1.1161134430199195,0.0933644998098091,0.3295303001507638,2.360097747970128,-0.3864627031976354,-0.6329180386548899,1.2018966517134069,-0.6818815542972766]],[[-0.16772032152486271,1.5840585791849886,-0.41803448283270517,-0.6053257447999854,-0.41631011029974907,-0.5170356415017255,0.04135437774539107,0.2642438480194904,0.8154971500427725,-1.0800915425702549],[-0.5624108503933324,0.8372855699934685,-0.3250207305153749,0.6045348273817156,-1.2835409998657004,-1.1866722101655858,0.11788569619777,1.514334221547054,0.3862118410775003,0.11582740456557833],[-0.4105386207789859,0.7184379647427755,1.494453560303364,1.6094176015434831,-0.8131529850283546,0.5832525964661114,0.7185688686256702,2.10337677872303,0.06739712977464067,1.4198790033449826],[0.37952870374228653,1.5441928936077614,0.7966146185713417,-0.597453982416,0.37523559786581007,0.20338708356706328,-0.4782926160363554,0.4668242427864037,-0.41200660199094474,-0.1069032491719343],[-1.3834207137508108,-1.4600150236318898,2.8744341317963804,0.07038048327679342,1.0119686422910712,-1.7973089651388434,-0.2370909083448895,0.09074300278705397,1.166113998026777,-0.9480832910417545],[-0.7767672027220165,-0.6530065068500642,-0.6376254090832939,1.190026734386681,0.12059295285095352,-2.8656227565962595,-0.6793424663581542,1.2523013566208454,0.22103205738839884,-0.10300877586876925],[-0.6376294924595887,2.936284846069404,-0.6875472918745654,0.6085902347015277,-0.5919570122942138,0.11048978446435993,1.7711314422343656,-0.6965420998010993,-1.7823550518053553,-0.4712817411166044],[-1.5606605311390447,-0.8581057230879459,-0.16974210786356686,-1.3272994251210937,-0.9099304496279416,1.1910959137127102,0.44872420232816146,0.6813700153482404,-1.0484689306366888,-0.24720166575827726],[-0.0045151448595979055,0.8790013460400348,0.38852976521829574,0.8503147452617281,0.4151260252257219,0.7161495470115881,0.11342563344082522,-1.8220582107221506,-1.2133567044331968,-0.2402046797747287],[-0.06626142038928545,1.0597069065274398,-1.4922617660846098,0.683619689746695,0.7088354960829324,0.25273376268893055,-0.03445074405636053,-1.232242626169867,0.05590171494038977,0.5169910486299871]],[[1.2438349379249651,0.401995067099703,0.07087079686420684,0.3277841617001037,-0.7224921301238713],[0.07252513568438843,1.1713454827097889,0.5162451140176832,-1.0422465928623892,-0.36086280645253066],[-0.694068863171166,0.32799985717060126,1.408371205288615,-1.3118893341586477,-0.23024280109571027],[-0.507203009551128,-0.1768195162136467,-1.0543274973847494,-0.24165396461921265,1.1885554105094107],[-0.7950957777792504,-0.45981974112213836,-0.18672574041536513,0.1735440806238397,-0.29082178821921517],[0.29814676954263825,-1.4247434780226127,-0.5037420595891979,-0.0490482746888449,0.4599643721456643],[1.6954901764721837,1.0955782612437042,0.3909473265365205,-1.7356975626070992,0.04772504123173796],[0.14352017758576482,1.6537234267883958,-0.4040637761749421,0.5246008389614627,0.418454633994322],[0.6205384994552068,-1.4451571619009007,-1.9379554562522088,0.056782921800290646,-2.4521719144990914],[-0.8477525211200363,0.7864741416109934,-1.00818135056913,-1.4507958971986092,2.7395287527635843]],[[1.8614210523459607,1.9371681275981183,0.8508922840100398,0.057310370533053503,1.281329622101163,-2.0102187550271946,-1.1565713047104151,-0.9937767537882105],[-0.06436990801630343,-1.0553340438591798,-1.4913156905386076,1.795645010589328,-0.2903271952217793,2.710360789674278,-0.4887125924418329,-0.2905215299798959],[0.04289317009447009,1.3841825328714927,1.3013371162057719,-0.9963541952500871,-1.6074917852156803,0.8756313031541717,-0.5608649230927378,-0.4061482187260482],[-0.1549516677943911,-0.09175920197233323,-0.18847912803074526,2.6367680883044744,-0.9202813196649022,1.9035623678770608,0.3058556093361663,-0.6011532693914664],[0.36408891928565823,-0.5130702500842438,-0.3651452375308549,0.8869020971093255,1.0623837164891041,0.6379765958166912,1.6580639766575072,-1.0675129901415334]]],"biases":[[[-0.19967247316214382,0.972045227237283,0.5580208319306611,-0.8271826731353212,-1.3645653569150793,-1.2014771248927458,-0.5070387328569352,0.5869539112229405,-1.2958325045906105,-2.165681797698815]],[[0.767504678789187,0.5119279970570914,-0.05921371513628521,1.1476435586970763,-0.5577760662050141,-1.0697132320492435,-0.8556258608245082,-0.13199925411965835,-0.8395884473506383,0.7052977742062621]],[[2.189716176637043,-0.09879903664520022,-2.075328800106313,-0.3926804531635381,0.8896547896508121]],[[0.2967607598004154,-0.02474088063210645,-0.2790546217347891,-1.8966171812654564,2.603698064795001,-0.9305282744130852,-1.2252452649098455,-0.341525063235437]]],"mem":[0.0,0.0,0.0,0.0,0.0],"out":[0.0,0.0,0.0]}},{"type":"empty"}],[{"type":"empty"},{"type":"empty"},{"type":"empty"},{"type":"empty"},{"type":"empty"},{"type":"empty"},{"type":"empty"},{"type":"empty"},{"type":"empty"},{"type":"empty"}],[{"type":"life","id":2,"nation":0.735203583552221,"energy":100,"brain":{"weights":[[[-1.6157511401041404,-2.0613718757205413,-0.9723118215846674,-0.2927902450362132,-1.000997984135747,-0.23145669418127385,-1.8268198550293742,-0.02165633360973662,-1.306274176619355,-0.5094488083060814],[0.10323142151322472,-0.7318797555518224,-1.9869075565597,1.0096397288240173,-0.6156987769663379,0.6527524607525632,0.7037010022776287,0.815498778403143,-0.7895550067151298,1.7617179739544269],[-0.29073585390298734,-1.5547107628820083,-0.2818493287605375,-0.4887792365412303,-1.6035744706651316,-0.19267170280143128,0.799686757215576,0.7116468422858881,0.4600147752815355,2.83751994465395],[1.8318607655038288,0.6901419150526351,-1.0969071523232978,0.9013164295218696,-0.47561916972298385,-0.836825683531197,-0.3280559189411674,-0.34470178375506333,0.3135375164423509,-1.8111615078928722],[-1.0162276834125208,0.858606386109792,-1.3722914562139867,0.06337387480994951,-0.45046613031016247,-0.6706610270294069,-0.0018445055313412713,2.3429291165973325,0.5166552106283314,0.3448494442596054],[-0.624693396793213,0.7636237831705013,1.084705860674889,-0.2494257537188572,0.5676335711409759,0.5008890811445821,1.2199886632274333,1.6868217385255635,0.013755138689560213,-2.2493717741224644],[-0.007516224539703475,0.31680397889449796,-0.9330071298867207,1.1822442098707744,0.7486900196369635,1.6114548416262648,0.012827780166631256,-0.7746796731073653,-0.4411507786999135,-0.1352649376393173],[0.6981170208544535,0.039381347754486214,0.5879824503544505,0.9337385705696754,0.2863867749123477,0.9019393997508603,-0.12244119989757568,0.10437616575896132,-1.412795519602176,-0.9157479426135245],[0.32130282800169724,-0.40194841894269323,0.41071291898760864,-1.2288561942299647,0.7713645168761155,-1.4305955940517185,0.36538597628367353,-0.26329457803637285,-1.575031089699579,-0.19207944766566515],[0.0527621260378752,0.5275068691478711,1.423259224754479,0.5115810395870439,-0.1696965502563422,0.7637764904550994,-0.3418639584136331,-0.44527173440336976,-1.1001484763850984,2.372507886341914],[0.12418149798760633,-0.16570631256342405,0.4984503772265434,-1.0727147596943876,-0.9661028685876806,-0.46989561989209416,0.8146067497315171,-1.7662683501084535,-1.2589873823911741,-0.5126239243838187],[-0.21788946905601636,-0.3850142521873666,0.8649871318966907,-0.777742470915051,-0.7274883994611678,0.5156601970076971,1.054253779341323,-2.6128901136817957,-0.8788800576084269,-0.9304810154579678],[-0.8701927791869127,-0.40912228203286966,0.5705629944734772,0.3095267945675566,1.8455483041058183,-0.14212508259557374,-0.8099291023790886,0.41333259507727216,0.42524737004353136,1.1840330014622127],[-1.719799379403747,-2.069129638504831,0.6975116982929976,-0.8092640267366994,-0.3801470135873059,0.47979175474484326,1.4523514238909228,1.6772371906921566,0.1488940765357586,-1.2806295244623902],[-1.018148353219144,0.36426979671307747,-2.3602566122924236,0.10373275272421782,-2.6520994979280186,0.1776656489069482,-0.8447008324466435,0.6245125813445115,-0.7031607284196394,0.19727299119847905],[-1.2580435691712353,0.5652223766819251,-0.389884477209969,0.17971125511122862,0.6520694274510814,-0.441568128065098,-0.29370643776174293,-0.6971189492922737,1.1668395290234894,-1.7041677108804922],[2.152181894018701,2.19745936875417,-0.9196533942374894,0.6719669598428603,0.2133432825049278,-0.4381260999979293,0.6402770563592487,0.776757657880592,1.4403129197249906,-0.5011001798530872],[2.16032985637362,-1.528888372893156,-0.037624111824768956,0.2521747273805598,0.33695663622411515,-0.821480648826284,-0.6355753977455023,0.24493934315258992,0.7477314281408592,-0.05444433023144101],[1.0142220074699433,-0.5065616530642399,-0.2807003041269772,-0.5644659251258065,-0.10164816849396195,0.3643676792237732,-0.1708443801598657,0.5955521609938939,0.17731034717911495,0.3362272198755238],[0.6697887608924463,0.7622212440649376,-1.931614117896567,-0.2294232618544144,-1.6747700487127022,0.7590145105492624,-0.37551223365226255,-0.04623735873465389,0.8585013384658944,-0.41782234985207084],[1.189089456123839,-0.01566682102732745,0.5473421973288134,0.7277472494648373,-1.2767189281643034,-0.04735795436579974,-0.897353089242534,1.4154389532663538,-0.5621668697083843,-0.950788690150514],[-1.0645833256098305,-0.5406503502094614,0.6985241608945323,0.9855551610547731,0.531830274439936,-0.836165860276516,-1.8022787536284401,1.1629231806031302,-0.5508798090746551,0.6752586796087309],[-0.2981318690016567,-2.4202314971839405,0.5664704245021058,0.6733531556804458,0.7805870642244237,-0.27333228195118836,-0.6370139092798172,2.25322505423788,-1.832340713720279,0.5556199691057754]],[[0.1436345460063644,0.12193616287388372,-0.053816351661975764,0.6471161087744319,-0.7684237535145277,1.5406365663578299,1.1441813357147,-0.7363138299737734,0.2894240503461263,1.0931770304635977],[-0.21348437059476186,1.8365749395194084,1.229192099822001,1.2551431708534346,-1.8518260135496332,-0.5435354502255687,-0.8823366709404543,0.06555953017762264,0.49019882485544697,-2.1265634540510825],[0.7779236018031956,-0.06566521163253879,0.08234759625281381,-0.7848002184266353,0.12780477462794523,-0.04298806879155445,2.2599129860810563,-0.7696083225368503,1.7728917622833689,-1.0712624306420622],[-1.1023520079925817,-0.4803763213574119,0.7529851937922427,0.3026771940632631,-0.2553235537355449,1.0581422490293309,0.3183229111346938,-0.2524974783965885,1.0015193311548347,2.8245507402391437],[1.6724618920940748,0.6924883967731288,-1.1480079717140723,0.452653782820858,0.5333619048613523,0.6452972115086274,0.8545707600714829,0.6496047159493086,-0.01294292593424476,0.09269888421281425],[-1.297987192025181,1.8920385282925432,-1.241369904565208,-0.15216333446063693,0.14394820094294683,-0.5220534804956665,-0.07483919002872763,0.12025718067083563,0.3114223964926897,1.0372065794044398],[0.012027575240799573,0.5110612190895676,-0.42955695034690516,0.33481444341983185,-1.0712690526905173,-0.3553194012789038,-0.1609570339049977,-0.434508178677103,0.7934987930251197,-0.8154297682058598],[0.3346932966715447,0.3263766741866541,-0.12444042405466021,-1.0410210083492077,0.29295272163713426,0.80193490719729,0.25621320390555413,0.2767791681807675,-0.9137317478351972,0.476200977801664],[0.483898953940017,-1.1221667779953703,-0.13044437129053002,0.8150992331829298,0.2653117035830201,1.3321197843094639,-1.500720030306796,1.8663971432582873,-0.9348242944024765,-0.08796055889227176],[1.3348335198193628,1.8038437447317115,-1.3780115276555458,-1.526910103167372,-0.49905154858733497,0.45643298541385185,-0.9110176243554005,-0.35036606062012565,1.1092240399092557,1.2584386023463034]],[[1.861706643402813,0.32794474511624716,0.550694544966109,-0.6674637257228365,1.5380927503762474],[0.08308954846983851,-0.33366272820899767,0.8647296043007729,1.3948691514438705,0.8243405431438099],[-1.0252983781225302,-0.6437737283013295,1.30677426541743,-0.6478972774606726,-1.3449953764283118],[0.2083195192905705,0.7717933137595491,-0.7723331621127304,-1.1667408850906589,-0.4619866523312049],[-0.7487126019984565,-1.5163402829213886,-0.3548798691948431,0.15674623690533512,1.2469613258315981],[1.393227206081721,0.5960628834658422,0.9867191007512052,-0.2955241777117035,0.2636841767185843],[-0.24863203839713455,0.1658063267163478,-0.6994552940398487,0.7141819257297942,0.08108354151031602],[-0.9002011811854291,0.2759798476899383,0.5848587839354593,-0.49634698141916966,-0.6726516206333285],[0.8579942022029844,-0.8310365324690328,0.3273892112359873,-0.7276064145073844,-0.50526966359245],[-1.399549376740011,-0.08874954081012161,1.081861587637177,0.8927396919524674,1.607214041909643]],[[-0.28231737169067883,0.8220153818895132,0.8268273384640891,1.3822099508340175,0.18467383863029163,-0.5821758670569721,-0.8529561380657288,-2.12508496933199],[0.6486968503271914,-0.21663810250026014,0.10847182918815695,-0.12049750360718309,1.4478827097845506,0.4556905187617834,0.09479205388783225,1.3115721333121184],[-0.797921737964844,0.9193127063024817,0.46993126134984103,1.683266309332389,-0.8597380346953561,-1.7435502256835358,1.968677675170339,-1.2191166160491123],[1.6053129762885106,0.1620034371220336,1.495935806673715,-1.1350560727771295,1.0189029636971667,0.3182417509750886,0.31409211642251517,0.5741980070847137],[-0.4509670941736848,0.7156519633047489,0.1914325085650061,1.4465397761573284,1.4303222023834634,0.8409105252440415,-0.23746437856896271,-1.9888595812356251]]],"biases":[[[-0.5996188801992268,0.7244600526117076,-1.7031064229925688,1.3082671572528959,-1.0329365737910499,-0.37584223116713605,-1.3834825202254337,0.3316927870648546,-0.3483973757556998,0.5131735653488266]],[[0.23413735594841256,-0.3791104549281247,0.5103594024438656,-0.028148628111380053,-1.619078879684678,0.5174501838716336,0.769670341726416,-0.6608702364908019,0.07416461650639648,-0.49540811572149124]],[[-1.476012259199702,0.7204639021335622,-1.19327260095604,-0.6641864494825447,0.8832651233427411]],[[1.6105759996358386,-0.19304405104129868,-1.191132584736359,-0.33754241087741627,-0.6808300223206862,1.5988771722762118,-1.1200396793065437,0.6271495015433778]]],"mem":[0.0,0.0,0.0,0.0,0.0],"out":[0.0,0.0,0.0]}},{"type":"empty"},{"type":"empty"},{"type":"empty"},{"type":"empty"},{"type":"empty"},{"type":"empty"},{"type":"empty"},{"type":"empty"},{"type":"empty"}],[{"type":"empty"},{"type":"empty"},{"type":"empty"},{"type":"empty"},{"type":"empty"},{"type":"empty"},{"type":"empty"},{"type":"empty"},{"type":"empty"},{"type":"empty"}],[{"type":"empty"},{"type":"empty"},{"type":"empty"},{"type":"empty"},{"type":"empty"},{"type":"empty"},{"type":"empty"},{"type":"empty"},{"type":"empty"},{"type":"empty"}],[{"type":"empty"},{"type":"empty"},{"type":"empty"},{"type":"empty"},{"type":"empty"},{"type":"life","id":1,"nation":0.6681778936372016,"energy":100,"brain":{"weights":[[[2.071584937827909,-0.6720219402793483,0.4452880734822662,0.5351083589588523,-0.33821646748258616,0.41962013930113506,0.26997496747917443,1.1003853984987146,1.930352080780915,-1.1760615200820517],[0.6094275992707593,1.5185354669175843,0.10957909847119714,-0.6869300130939766,0.7826101712176057,0.4389972044436414,-2.2662957409684816,-0.4710906381468984,-1.0541157638734033,-0.5578748789985558],[-0.10450570105484798,0.46765030986302353,-0.6605254895976992,-1.0720135309196253,-0.3935059493872931,-1.216949393311758,1.3849291917849746,-2.1213723254678443,1.162066755788935,0.05957511058120658],[-0.45150347937764723,-0.6181616965673695,-0.19318306996588092,0.2795544475298469,0.8142645948890265,-0.23788518474534326,1.0317740284934072,-1.4457822831995253,-1.3252651736390821,0.13759974109469406],[1.5440498001420084,-0.06568165416553415,0.16476364575162072,0.4942680889663079,-0.15524735901113343,0.13285628326743185,1.61954055446156,-0.5245900729684989,-0.2367092408123561,-0.21340477339841546],[0.12484870573698358,0.15502049741079568,-0.8628901533975941,0.08433156601423027,-1.0907642984237034,-0.5385186735065987,1.0917407971175928,-0.13761676112694657,-0.11590828545082946,1.413424389274319],[0.10350575575824365,0.7961991289507273,-0.6472231020408478,0.6181104825128924,0.3565245436883981,2.9644942557880096,0.5678919896782689,-1.0952950943425048,0.8950351557674568,0.5045493128617462],[-0.1864915211775799,0.307519541724186,2.0922984262579827,0.25054076337542897,0.34612353215112185,-2.366512510423016,-0.17887798858178025,0.31240037749308236,1.2450532428055165,-1.2113205799615572],[-0.44163072441994866,-0.08763118641285043,-0.7037216826521385,-0.6081082165347538,2.0356246258889996,-1.3256772881203756,-0.8982427517175972,1.4651301829463736,-0.8644686791517218,0.6676795762730706],[-0.7980913400804305,1.2505819938924552,-0.05620728997091039,0.5397233994163939,-0.27182096973565223,1.1540495235350299,0.4358572638949042,0.6991441421527079,2.1780711499957612,0.3814014242674992],[-0.6944838416993122,0.8690164042866204,0.2797126788144014,-1.3199295861163614,-0.697635206879043,-0.08559882695019913,0.03396365651197409,0.177685355478273,0.32622308063716093,-0.741598272181664],[1.382366228099096,1.9711367324169866,-0.024275666617536582,2.1612367967648245,-0.05495932610027608,1.228603418328504,-1.4110178664455586,0.5994018030967461,-1.394744647299212,-0.6788925544749065],[3.062073370971448,-1.7664077876126634,-0.7659805839298279,-1.5270979557530473,0.9404514711950069,-0.13841409063891197,2.0087123537533023,0.14936872210688384,-0.28952208133739105,0.04559511519084221],[-0.5804033373215575,-1.4524405772377924,0.4845462042030845,-0.2508978740033677,-0.030895099466839923,0.7903713144615133,-1.3036950684949304,-1.9902975151023552,-1.1371988475773147,2.7067587245826576],[-0.1779172735674403,-0.9546058725840464,0.8749750221096179,-0.9333742388335139,1.175841229677571,0.5773662011931555,-0.4439730555483422,0.055780403168706125,0.6032517283591112,0.2328685024368241],[-0.5148549738968933,0.5014227620114095,1.4950469212962136,0.4570648172074548,0.03094758042760087,1.0058232165115866,-1.0432839486318528,0.6810028461012683,1.297449585395309,0.5232201904523617],[-0.249088929837298,0.7040721661965957,1.0372126751094872,1.081781493879252,1.4284536876710467,-0.9491024068555697,-1.2602733463177358,0.24387303425760104,-0.19407949638882432,-0.6453790979488373],[-1.4230334185400502,0.1655745275705683,1.575151686013423,0.3070272925719546,-0.5008301471033372,-0.2607146060470543,-0.8040691776699993,-2.4846568636185515,-0.6493930797098264,0.8144112517311844],[-0.9722826924808696,0.21145989404313126,0.23757467747456007,1.608863455035435,0.7135513904247751,0.9995388561779905,1.0084365318344086,0.1663271345128406,0.3804617083815782,-0.06852744613324287],[0.5872944875423554,-0.20635950225854052,0.6812342561778693,-0.3727114902723683,-0.5627992241259806,-1.69061267922986,1.9539891473561446,-0.5914909954087557,0.026939871514190025,0.05991162959196393],[-0.4978043284447077,-2.1796642614330834,-0.8772290717252835,1.0064399660068748,-0.4372076256413885,-0.6109211597025919,-0.07957657554250583,0.3207949892375654,0.5127884271462428,1.5463322958883752],[-0.3352315987763547,-0.2423178596987701,-1.2961143970455562,-1.7097570981333756,-0.1299069243648857,-0.2649308662306773,-0.21502638618548592,-0.6065095182181416,1.7067231866864536,-1.6118339232486376],[-0.9986554649472007,0.44906263841922467,0.16463060929413134,-1.9314795193119254,-2.0452793494975907,-1.3785684811921455,-0.2699007981426805,0.08008722003476246,-0.7431629410708634,1.3730203966365861]],[[0.46507089434327126,1.4254390657639204,0.4506408088941352,-1.180370350316611,0.4325434980580067,0.3449392789660174,0.5215020133286032,-2.236113159809707,0.8312770522028997,-1.520344239080507],[0.7320138461753295,-1.3192198218518156,-0.20390426551460836,-0.5657133826342592,-0.8062499321353599,0.24543031329682574,0.9115516528850516,0.5638609351093984,-1.036790094839501,-0.8677769246133266],[0.9594050962783525,1.0641204761310281,-1.5231889006312027,0.8545055372651807,-0.8771742872532113,-0.6677316724754572,0.5070409506320303,-1.6268575424093468,-0.2502985288062875,-0.01998058304459649],[-0.0432974652088801,-0.538395788952583,0.45127772917030523,0.6927391683521411,-1.3726813194505165,0.027082080747999664,-0.8046153178691288,0.07425305493071374,2.1976784812167196,2.064476312539867],[-1.2393041350439187,0.2650170892057446,-1.3129373245666514,0.07356258937484302,0.5871637135665361,0.12837965091360234,1.4059253161806915,-0.31622793381243464,-0.025080486962424667,2.402806818011863],[-0.9669305062839312,0.2485576396485034,1.3990834951214628,-1.463579668949722,0.012949935065060515,-0.3271356274768979,-1.567930936778601,0.031993856092965046,-0.6076467874413537,-0.8490963993298258],[-1.1473989389630919,-0.41897379352127406,-0.8062582684913775,-1.0766980594128492,-0.5992223135621636,0.20212754145980152,1.9511318857805207,-0.7931928636134993,-0.5849242321755628,0.17444715512494702],[0.7631714101846178,1.2437949367972974,-0.36481721478099655,0.9971788258940183,-0.6037228041194996,-0.4000644515305863,-0.5645397094742077,-2.146302903428906,-1.4843286162007088,0.9151954514476237],[0.26018553780751863,-0.775357857699799,0.46951879847975075,0.5494142510851817,-0.7805320975728121,0.025931467530342284,-0.15913928865404675,0.7822559268699486,0.7746374080212141,-1.0490409598496162],[-0.13272500351310074,0.4289903974774664,-1.2803958522703047,-0.3662194574568989,-1.1277798826597214,0.32987105794632954,0.49090888990253917,-1.6277380931912842,-1.3063351816600792,0.8419726206040409]],[[-1.3511747534329384,0.7028166498525863,-0.639764552367672,0.2752657556744859,-0.00012587609019405993],[-0.2649409988576889,0.5163185120531342,2.3683568993870923,0.8070731172907966,0.8553410034648241],[-2.014035530243178,1.2743935318425286,-0.7483816760838135,0.5336382711582702,1.474075431695021],[0.46396363262571516,1.4030313346818009,-0.17160678047672032,-0.36705319762933425,1.507727998141356],[0.3106709787340219,-1.0464691851876957,-0.2709454425524864,-1.1173842091083244,2.0059459002273226],[0.45311417861486675,0.7548795517588884,1.2615456239422047,0.24983875855169255,1.8742227336547264],[0.6470386641182995,-1.465611027261289,-0.37636247885409174,0.8628639534171245,0.7375706766815736],[-0.8269458941611008,-1.2055514531429434,0.9316044514096843,-1.3668466636554752,-0.37965861932967365],[1.938607913208446,-0.6718558712025411,0.8361907470997726,0.4846657908983423,0.3297001394246649],[0.2099440647901811,0.365078740080878,1.493869708385588,0.6056581603643949,0.3064223631005207]],[[-0.6675235030513362,-2.6345462032269347,1.0894336815355574,0.529355474071099,1.383527288882364,-1.1741680496624662,0.4670250532006829,-0.1529150292709279],[0.18076128838327338,0.8555565388990826,-1.3608598704893617,-0.36280296001253376,1.3298375461156802,-1.156746971515053,0.7878485687530004,-0.4657757340738562],[-0.5936548308645303,-2.2183473923462746,0.5891229528060318,-0.24307563386872538,0.4860598402555377,-2.112359293689984,-0.24844071048281224,1.0397052689384558],[-1.4396803290649318,0.1940788381685429,-1.5554334251704613,-0.9495277469628202,0.0019692315229036753,0.4684371278065527,2.660424831900916,0.7540225715978084],[-2.0387289128766235,0.3878868319980823,-0.03041524058304761,-0.5931602719323226,0.7533542456056813,0.7741243352624706,-1.5890793792045783,-0.21799463899108135]]],"biases":[[[0.4517414615458105,-1.5911840644577937,-0.1376159957007633,0.17631329317953492,0.41292812209445584,-0.050502997281541194,-0.249270781332025,-0.7205218509656049,-0.7415891548166972,0.5088459930659615]],[[0.09228689287083378,0.07239788372376217,-0.862422146945736,0.7332304195960843,1.5049456971407533,-0.45932722060264336,-0.7821458544373653,-1.8625863294130778,0.325980723019326,0.5113584608100877]],[[0.5645943916571503,-0.11807233195927762,-0.05845385254121251,1.2754266568354449,-1.4473470524027336]],[[-0.32624722069938195,-0.18888819540037688,0.9626758109714276,0.8988819977589143,-0.23184163970083052,-0.1963057686402278,0.6017020422897624,0.9283354568360708]]],"mem":[0.0,0.0,0.0,0.0,0.0],"out":[0.0,0.0,0.0]}},{"type":"empty"},{"type":"empty"},{"type":"empty"},{"type":"empty"}],[{"type":"empty"},{"type":"empty"},{"type":"empty"},{"type":"empty"},{"type":"empty"},{"type":"empty"},{"type":"empty"},{"type":"empty"},{"type":"empty"},{"type":"empty"}],[{"type":"empty"},{"type":"empty"},{"type":"empty"},{"type":"empty"},{"type":"empty"},{"type":"empty"},{"type":"empty"},{"type":"empty"},{"type":"life","id":5,"nation":0.46125693321405564,"energy":100,"brain":{"weights":[[[1.2269101698234108,0.32808841398763816,-1.6738560891755434,-0.10743875447559573,0.4440622709974787,-1.1179627932739225,-0.1362137938713958,2.8169909291010002,0.5866370275916799,-1.4306174205283497],[-0.005282771186726126,-1.202170885581139,-0.1720612431568872,0.24210866518491872,-1.12293679875923,-2.998574649127796,-0.6369596742327432,-0.7488433960285268,1.4018236244911675,0.32525240123762683],[0.6435313930938872,1.6818777757979808,-1.0876812202759554,1.1448284387930563,-0.900850091359811,-1.1873365689356816,1.473703009091713,0.139271039019675,1.8613113152157983,-0.23217772502227632],[-0.17531108987823474,-0.2541880670554016,1.548691043491868,0.5294216537905452,-0.580410791564029,1.7048065740084593,-0.7288111382809316,2.878432531869028,1.3861004784319355,0.007988765206806516],[0.505713043355236,-0.3462804899392144,0.21672474994719357,2.108632661987506,2.1179787569398107e-05,-0.8311745236134518,-1.2460199414187603,-0.5673162398787497,0.11399700249418954,-0.4061794250446869],[-0.756031348430481,3.19315690349595,-0.13726207552276667,-0.6788589733951002,-1.0449496417159652,-1.4799654718643889,0.3773110310279231,-0.9907907647261477,0.280407815493967,-0.1171872265991137],[-2.1114058444552084,-0.2700762902425057,0.3426584954934123,-0.5549483333055291,-0.9790680808916769,0.6665860146181912,-1.1370936023802345,0.456759888803512,-0.019193942036836838,-0.989820783244524],[0.1434466788638086,2.3413753643906423,-0.2823665948732678,-0.4568207329953183,0.5351594018887488,0.07784231521077196,1.759112645376837,-0.24265032521229565,0.5791560249581259,-0.39715407192017077],[-0.23905949443243787,-0.5254657824049106,-0.4880450750041637,-0.558508664903188,-1.0595273861505272,-0.14704571503107414,-1.6356243285821959,0.7393649725839436,-0.5888553339539367,-0.22026311895485806],[1.1444260697243345,1.0870143141456883,-1.0424719224609926,-0.5905829810369109,-0.6073657242776022,1.4189326898112944,0.21169979805357708,1.3453328023850666,0.6809619755283705,-0.054307248836528293],[2.6070812502174734,0.8102999052623869,0.5791713468318708,1.4578092627878916,-0.21682754771489002,-0.13920170671771492,1.887265139150425,-0.2859073256709725,-0.1259717103525157,0.8413773718384135],[-0.7607889240303742,1.0571647855755508,1.653034882518789,1.7348287424788977,0.7832910366994233,0.1302899514242808,-0.2977493662762911,-0.6957948275598438,-0.583426711218421,1.5738243025919254],[-1.0754472224287634,-0.012930089958808254,2.686684333217843,0.37117877325315723,-1.5249764829122654,0.2612332410534554,0.3564932462808166,-0.6487721111335851,-1.309105815170172,0.5554211606578268],[-0.8321239196037339,-0.3578945609686611,-0.62740193956227,0.3510961294220618,-0.007208936880274857,-0.6053336700659548,-0.018952555095247937,0.34019390976567987,-0.09771429848075074,-0.24534562929497772],[0.25434500730330134,2.071473308152557,0.572250391306302,2.5405143796871377,-1.280901996640059,1.4644488458997154,-2.012367741186628,0.4676527296814073,-0.314787443419753,0.16790527169880154],[-1.3494626978265531,0.34872391219066157,1.0281457944895325,-0.2684690317450316,0.11566421706000865,-0.25147033615212405,0.3951331066686889,-0.3189010876378271,-1.743305203940269,-0.5350934791618773],[1.2973497625005015,1.2798541918473205,-0.1249437210377111,-0.19219687653855572,-0.3759028578480946,-1.6088150140573245,-0.6805370107294375,-2.0279397957735417,0.6457903925498193,-0.8828102341715647],[0.8573354238927676,-0.5158054178191466,0.0470652401270845,1.302166452634372,0.5624120040922059,-0.7545783314564459,1.0829396139463854,-1.1098104999238827,0.5190170259925879,0.5706192730624567],[-0.34344575169350583,-0.7168109010830874,1.1695779143743255,-0.6932912951748212,0.41717503128875544,-1.2518341168757132,-0.08101695819252865,0.14994568692611207,-0.04204794326814254,1.0800663829432993],[0.6136125570637994,-1.0714290591941198,1.5981594788196387,-0.5057530769164703,0.19151160653092178,1.3656206212725865,-0.7104557953860594,-0.6678416138052826,-0.8125900723801287,0.46032129157647056],[1.2393063531387751,-0.40729720191113006,-2.0094624951703395,0.6723411742554031,-0.2851875414918387,0.3289107013868935,0.102983558036522,0.23682644110575157,-0.1686294099275753,1.47073880604199],[0.32323677988786104,0.6156956183701823,0.8156943870436254,0.13915281501002558,-0.1713312433860226,-0.7872629801706261,-0.516504928678624,-0.02661798441715383,-0.4893654358080843,-0.5017907580133902],[-0.4124408702751716,-2.0711139930580145,-0.10079023528496742,0.7315081592430336,0.25523866800649386,2.056541758739155,0.8460300880317353,0.07932359440768344,-0.17043961304927366,0.5110258551385353]],[[1.2244254932746437,-1.4512280860154987,-0.039462001637798255,1.7138027579472437,0.5802326634173787,-0.059840563550727574,-0.7416529797721431,-0.912105584769407,-1.4339615653664246,0.17327190504172446],[1.6791583506322096,1.231012136011772,0.17413748854099015,-1.2910265130269996,-2.0910358611962816,-0.07148156395043823,-0.0061183921127505436,1.5875627748550938,-0.43906031536894574,-1.483243245054216],[0.4288023802813975,-1.8051864168882439,-0.45421697132816213,0.7642547001158858,-1.2081710618055141,0.039631131358747705,-0.3105523444985163,1.282893405572862,0.6076815027588529,-1.3922975635055783],[-1.256534913862461,0.491001359848818,-0.27032057448202174,0.27267814880187413,0.41720452893736615,0.6764757811199764,-0.8300412231232077,1.1098446628141354,0.4562797479094862,0.4717517774979974],[0.821502109912462,1.0382379553000984,1.8471821696307447,0.73355756304204,-0.7923671885470671,-0.48595606309309947,0.01471642515043791,-0.21003267919557841,-2.004746247462522,-0.2500439425972892],[0.6647851968855674,0.38232309618053756,-1.5169886609331455,0.45251143720781334,-0.38928552163363583,-1.2908146485483782,-0.570676863098199,-1.1750834731562725,0.1976171589417797,0.8760401331676572],[-0.9456219475072849,0.9437492491481878,-0.7905628125631999,-0.5133590688283192,-0.8158466965356318,-0.44100000864157624,1.1873656953498755,0.6298902653908022,-0.46765698249997617,-1.7122118692714097],[-0.40751209779626385,-1.2267755371199627,-0.5260689585965501,1.5021856890619578,-0.19110433055403458,-1.5967768635311426,-2.3158513218082226,0.08719053355366582,0.950258846036747,-0.4962032666557279],[-0.24322145021526004,-1.2901493977909542,0.31078036733253595,1.6138586428128883,-0.36004583662897366,0.5030342149102062,0.43567689083007444,0.3063301681623372,-0.5546819380773607,-1.2812647233748213],[-0.7954577827223119,0.7740528714427305,0.9545277670414347,1.4558775501979797,0.40618573033514715,0.05157298740781578,0.682621648138598,0.9802871631405454,-1.7197798984760595,-0.0050616982765534875]],[[0.5930559682976549,-0.19155930280022274,1.4426655895982963,-0.28205448422617946,0.8548663744371381],[-0.5434939140760822,2.690121250272906,-0.42501066770913276,-0.930788429940011,0.6005156276543643],[-1.1551251872241082,-0.0658585725477219,-0.12454710216646402,0.9320029077190902,0.36852768923795015],[0.9500575775516651,1.142104416235519,0.031483931757302096,0.037339924158505275,-0.3198896445540658],[-0.5035910885698265,-0.36655823755104655,2.795560550243017,1.375171560969168,-1.3314756805521626],[0.5051240506740073,-1.326868874445586,0.8787821951031989,-0.9553237446551786,0.7339928221692334],[0.7424664489597772,-0.46100306608671493,-0.9064035864198937,-0.16838600394658104,-1.688655755853725],[0.5620947922500558,-0.9516618733788504,0.4084686636533684,1.2886329230032316,0.2598079052186976],[-0.003842304830023615,0.5623112402189507,1.6482272953887613,-1.0481464292074856,0.29318235911174967],[-0.5099621799803875,-0.08525990736075439,-1.437102084244439,-2.9095818825460538,-1.52429752275137]],[[0.42456319941697895,-0.8010482361931802,-1.6027818435904555,0.3604535488553898,0.032819675310665056,0.7293065661604229,-0.29775697662236955,0.014531884902228384],[-1.3987984005133545,-1.8229417131484118,0.22636936288777842,0.17445960177569203,0.3600358280570643,-0.37479493102022926,-1.0148238273104186,-1.3972638581256802],[0.6905129299311437,-1.0860562800589266,-1.1286724004857158,-0.05143434716245982,0.4730250690803267,-0.36323517022781904,0.6481937820265475,0.0073944351096570495],[0.5948050676787758,1.9104229970165785,0.5687501734684746,0.23369321829702477,0.5350301135690235,-0.273425796195562,-1.7546762551122208,0.23768399451666058],[1.4625441196580637,1.908017909426475,0.24483022177026567,0.34195691029737035,1.236723726557011,-0.0710987360819767,1.1433578753613751,0.7567445729719181]]],"biases":[[[1.0865184660961962,1.8060436426369009,0.05118078974852624,-0.4941029972929934,0.6498509849115858,1.4951729656009463,-0.032926850827563754,0.9542861018401121,2.3652210845850368,0.1134442805952816]],[[2.2960854652627694,1.6868996678924904,0.8369608888833341,0.6140047028928856,-1.3694692841154097,-2.348845257665224,-0.6269527534281621,-1.856929119024962,1.0044058190831908,0.4836341722465136]],[[-0.37462560596309,-0.642407658282297,0.7592858328692503,-0.8052201468883793,0.4018820361468277]],[[-1.8531474237310184,1.7914558166329104,-0.6042928738421021,-1.1865038663658427,-0.5031797700002325,-1.2566647022432735,-0.24948314859638288,-0.018258104751331317]]],"mem":[0.0,0.0,0.0,0.0,0.0],"out":[0.0,0.0,0.0]}},{"type":"life","id":4,"nation":0.911426905604281,"energy":100,"brain":{"weights":[[[0.9444233532066799,-1.1319961926942848,-1.6265731658254248,0.6691239228393104,0.8557192231148983,-0.38221351424810496,-0.11580969887228502,-1.2218552506319025,0.19430087204928442,1.1177529993988526],[1.3712891979075255,-1.682705565208048,1.2162031975030179,-1.3232159978538334,-0.3105952452028638,1.3040156514108598,-0.4291603043963129,-0.9561482231412161,0.45046847908915805,0.10641255525429463],[0.10340562689188662,-0.7736312728522357,-0.9821117435074488,0.26114173061438756,-0.20861534368531515,1.4889184403638016,-1.0092579334040526,-0.8481562625231917,0.09333020733667874,1.0866404268553576],[-2.1431949496397484,0.4376594755951531,1.489551288393693,0.35734977756452463,-1.6419294728477751,-0.5463767979518609,0.9641907735404046,1.4205419082313644,-0.3668586256360028,-0.23239445577800596],[0.027985271260406744,1.5163581617378126,1.2660117581517987,-0.2936236185843048,1.2848858990581586,0.6740223398106585,-0.7156569425507791,0.558203356622758,0.08024002674672419,0.5817657710301791],[0.6548334236863346,0.5599065238661997,-0.3239974999196751,-2.793559485504786,-1.1296947876646628,0.4088014167798164,-1.515921682454136,-0.6084196500593422,-2.963227485626626,-1.2108913229681908],[-0.9585049150018846,1.4836504120859253,1.6252727522271517,0.9129864394510444,-0.39389640294124423,-1.164186134056544,-1.6744669717241978,-1.7151635192018964,0.5606124611770392,-0.15701941320566903],[-1.5857419430825006,1.2854603882242897,0.3708378869177242,1.138849337400563,0.670559002947509,-0.4307507510411157,-0.7538598750117536,-0.4727197323116012,-0.12586852932223774,-1.0429851251616693],[0.6848686323418169,-0.3946016028969734,-0.14476173657632194,-1.783431798359969,0.27044735912792517,0.022957933249365924,-1.4761980423116705,-0.10091915305542463,1.5646273481872053,1.2917032491778089],[-0.45386149059940273,0.6504071141237617,0.13495736012851073,0.13661813543479898,1.8850997211407416,-0.559067204707537,0.3988336026357523,0.7161483030687877,-1.1429754328754873,0.3672143104892052],[-0.4644359031436983,1.0504174852468082,1.8034323950991586,0.36001253166069724,1.3630263429702454,0.6946630426371642,-1.4455667915256651,-0.5705751063969585,-0.2401338538636751,-0.02355749285099414],[-1.5278494919000585,-0.4441145148592489,0.43157024480897177,0.22453616123119097,-0.9379794102678516,0.9515296396774936,0.2778525108821024,-0.6244718876131262,0.18088741119888818,-0.9280039134143241],[0.5042183446429072,0.40622973840247145,0.9716124525403046,0.819116066108163,-0.5351719734174739,-0.03541102907950275,1.7533447718321045,-0.011179974554289063,-1.2873303642705618,-0.5708990514128666],[2.361760995600932,-1.0688663338306204,0.09096109544901633,-1.218150204839332,1.508895232660593,-0.007788326046573621,-0.1950437819457448,-0.12900470989279578,0.2766507980869368,-0.7529948697633296],[-0.29068956715542554,-1.77490616769408,0.7728870899764687,-0.2731309765049407,-1.2678913970698076,-0.23659585839593913,0.40931058677769794,0.7269072599725968,0.05024111557353777,-0.40859698739287165],[0.9599134689717905,-1.3472617330780923,-0.7871913627643197,-0.7037409239612494,-1.1670078966387414,-1.2370967796877288,-0.17498617002105818,0.02483697152215197,0.3082058043334608,-1.0102220229509258],[-1.792823952382015,-1.356900581951569,-1.1951618322721267,0.9687608568934877,0.6301695478672233,-0.015755756439610386,-0.19139962711085728,-0.3023041629069407,-1.0911029463480388,-0.5445400422629443],[0.4113411104177057,-0.9743309494541881,-0.33319088618710624,1.0666581975636473,0.7536795376053239,-1.6648818768773417,-0.7570698136209955,-0.20324217393519825,-1.6759871805314597,-0.26563508967381505],[-0.8302600630843342,-0.9581581915641577,-0.265928979166705,1.141337298834429,0.16498027325111705,-0.23471850590412455,-0.8776871878859875,-0.19240175967744866,-0.1332394022966493,-0.20720289803855516],[0.7073863000590276,-0.3339828137435664,0.6130205028729339,0.030780833402318998,-0.25135863385179574,0.7526035338426633,1.0729398079801058,0.9324233762951463,1.5578573911974205,-0.5346263045193494],[-0.9817187685544607,0.14601506666496042,-1.240163638369141,-0.9499579046212595,-0.625402969388957,0.34960234883753977,-0.7960631715054524,0.030247755423341658,-0.02254852795911229,-0.911228797897468],[1.457669236374599,-0.025182011983764723,1.466288989062811,1.1230446940510888,1.6823656403887723,0.5591144585565735,-1.377756082757189,0.04143357444305024,1.719302285801374,-1.401793840369146],[1.2385906143715628,0.017275373643160962,0.03371039981555793,-0.22217968677793803,0.40846249777914784,0.38067801311660326,0.36021138471023,-0.5016326966537799,0.9439488577686639,-1.0599025760567842]],[[0.5664581567280218,0.6713314076383287,-0.21248720208631655,0.019200811708935797,0.546753962555738,-1.0505140014916385,-0.27069118425725985,-0.4619491240638514,-1.1187225942202148,-1.5769125715199284],[0.09818258372751389,-0.8627010689541151,-1.082713816780833,-0.0840845322899967,1.0823897349193152,0.35112070932751316,-0.9390128119328146,-1.2422936554005268,-1.67703552972733,-0.6296921657469544],[-0.24877760574923222,0.46021741160309343,0.06333108796051275,0.4479067863710199,1.9205992389081392,1.3995338958079964,0.8377223136422354,0.31589507675710815,0.6777298044456155,-0.41175745653302775],[-0.3062973386160572,0.20739461685886829,0.21127234189552566,-0.8927652500499608,-0.04589305157242497,0.0496412377320137,0.5680361354627993,1.7900550331331608,0.8690821815530499,1.2820082482172526],[-0.0030228631599356244,-0.347066026434776,-0.8414230492320715,-0.6556514971961848,-1.2306711542524782,-0.6084958790056799,-0.16810207626046486,-0.2694571427669419,-0.5657622729385358,-1.4818684166050968],[-0.5672452321803211,0.9366308834916562,-1.5765814850781266,0.5622920783701953,-1.6497706255107991,0.42249269600584427,1.3467740794655017,-2.5126377361863312,-0.8864006889309761,-0.04323198234670908],[-0.2373692786936076,-0.7344897428882716,-0.31028173265925657,1.9708687680355579,-1.3335438428776807,1.939199748400707,-2.2307293671724135,2.281679354587767,-0.12325976722900989,0.8996151028806961],[1.2902308125159394,0.8625464698323512,-0.9411355925029603,-1.7105036560830496,0.2811436430097224,0.35156621231912727,-1.8112415691259465,2.0260968130071872,-0.6991919733918015,-1.0022112951815894],[0.37981403688697546,-0.2756685076492249,-0.9725237940411561,-2.090959971428328,-0.573528103009516,0.20464959333797386,0.26688875311899357,0.43992179113143254,-1.0715362904901173,1.919422401895041],[-0.6700597852069426,-1.4708022578033257,-0.4731853688278782,1.0277057645620877,0.4021126938800727,0.7411708203961972,-0.6643379757556175,1.2449430667332377,-1.373677157491586,-0.9027953900342811]],[[-0.010128771106187612,1.0491091569344124,0.3123127455547511,1.0788588156587138,-1.6334861061385109],[0.44951748611777304,1.4505081203708512,0.14515078439585072,-1.3641297023881869,-2.0941543972005143],[-0.5757995428311309,0.39439036598110666,0.8498571295576069,0.5592808288757301,-0.1920305882190476],[-0.4830748140711025,-0.5961729537840776,0.9364793724332353,-2.100247353371014,1.3092266143991969],[-1.4442504428826302,-1.9247221208324616,0.9004264769768964,-0.0964091918371294,-0.8738180412739248],[-0.060689447112740255,1.4725464675534228,1.6007327717475115,-2.0139912995516793,0.3928491323784545],[-0.7733991779812613,0.06121812015777195,-0.007850876315556293,-0.7915132975893282,-1.3588629130694236],[-1.662525438225753,-1.1966962554916096,1.8350314696756396,1.5126949539472148,1.6266510113738613],[0.4140313953578399,0.5325335756489402,0.16838919978338204,0.814989640470197,0.4785970736262492],[-0.22882347045603477,0.531615501450999,-1.6156821000326758,0.5967164424767066,-2.75796577292322]],[[-0.3649898254994013,1.405665036663156,-0.9139980713383493,0.225335881556426,-1.0870403376495408,1.3793911651699828,-1.116893355008909,-2.4506015205019365],[-0.7866405169990036,0.31570780415646427,1.0461110578024624,-0.40089247170049974,-0.3132739980371192,-0.5062435019020463,-0.011533429041280555,-0.5342258950179466],[0.053152831066717095,0.057970756660068325,-1.100166715110546,-1.7489637246113388,-0.7956747171100039,0.18704988145046475,-0.46138436232560076,-0.5824921129548374],[1.1791057869874948,-0.5904218259135858,2.274224720561317,-0.49298726308390267,-0.16907303430021534,0.10642439810204189,-0.34920368372767946,0.7847542792481267],[-0.04771557973621569,-0.019186184009593297,0.273183163618135,0.5643667322123658,-0.33265389363750997,-1.5329296764951146,-0.5316403914292135,-0.8352842497309213]]],"biases":[[[-2.132447888874238,-0.04448511696637257,-0.2173850684433303,0.13621902327686153,0.7924419281583467,-0.9460819264456573,0.42287742276295437,0.15584384711842614,-1.9771213570884354,-0.5725857692841141]],[[-0.22999615143861574,0.7457084160051409,0.5456773991898268,0.5996560311138506,-0.13040967122746366,-0.9243801698634394,1.0975118638675367,2.599774373778846,0.9856576441780929,0.20879676678850206]],[[-0.5534555939803167,0.07810111795899792,-1.1037282713496779,-1.27998689985945,-1.1357147144731854]],[[-0.4396338403232636,1.6578031753785485,-1.8378559520317659,-0.32771167431740106,-1.249292375329228,1.7184593847920546,-0.2861505190850857,-0.7537904574575477]]],"mem":[0.0,0.0,0.0,0.0,0.0],"out":[0.0,0.0,0.0]}}],[{"type":"empty"},{"type":"empty"},{"type":"empty"},{"type":"empty"},{"type":"empty"},{"type":"empty"},{"type":"empty"},{"type":"empty"},{"type":"empty"},{"type":"empty"}],[{"type":"empty"},{"type":"empty"},{"type":"empty"},{"type":"empty"},{"type":"empty"},{"type":"empty"},{"type":"empty"},{"type":"empty"},{"type":"empty"},{"type":"empty"}]],"params":{"energy_per_cell":5,"step_distributed_energy":0.001,"initial_energy":100,"action_threshold":0.3,"attack_damage":1.0,"attack_energy_retained":0.5,"move_energy_consumption":1,"reproduction_max_energy_use":0.5,"reproduction_energy_retention":0.9,"nation_mutation_proportion":0.1,"mutation":{"swap_chance":0.005,"mutate_chance":0.02,"mutate_stdev":1.0}},"steps":0,"counter":5,"bank":0,"queue":[[5,5,1,0],[2,0,2,0],[0,8,3,0],[7,9,4,0],[7,8,5,0]],"dim_x":10,"dim_y":10}}